{"learner":{"attributes":{"scikit_learn":"{\"_estimator_type\": \"regressor\"}"},"feature_names":[],"feature_types":[],"gradient_booster":{"model":{"gbtree_model_param":{"num_parallel_tree":"1","num_trees":"45"},"iteration_indptr":[0,1,2,3,4,5,6,7,8,9,10,11,12,13,14,15,16,17,18,19,20,21,22,23,24,25,26,27,28,29,30,31,32,33,34,35,36,37,38,39,40,41,42,43,44,45],"tree_info":[0,0,0,0,0,0,0,0,0,0,0,0,0,0,0,0,0,0,0,0,0,0,0,0,0,0,0,0,0,0,0,0,0,0,0,0,0,0,0,0,0,0,0,0,0],"trees":[{"base_weights":[7.199533E-9,-9.435044E-2,1.4457007E-1,-1.7877351E-1,-3.2935187E-2,9.054745E-2,3.004581E-1,-2.209344E-1,-9.859177E-2,-8.86629E-2,-5.75048E-3,4.01665E-2,1.4550759E-1,1.6256143E-1,3.2870424E-1,-2.0095512E-1,-2.6742852E-1,1.6552612E-2,-1.3432659E-1,-3.102411E-2,-1.2440306E-1,-3.1604163E-2,3.3416495E-2,4.6687536E-3,8.910867E-2,1.6345443E-1,3.373968E-2,1.8213663E-1,1.7803106E-2,2.8194106E-1,3.719514E-1,-1.5232846E-1,-2.129334E-1,-2.3030667E-1,-2.811915E-1,-1.05627425E-1,5.978639E-2,-1.5956639E-1,-9.009903E-2,-6.69166E-2,4.2268317E-3,-6.0132798E-2,-1.4077793E-1,-6.239631E-2,1.7227339E-2,8.418038E-3,8.889354E-2,-9.8427E-3,6.8977885E-2,1.0839623E-1,2.8934097E-2,1.363152E-1,2.0290238E-1,-2.132669E-2,6.726475E-2,1.2259931E-1,2.0944647E-1,-3.1069373E-3,2.4425296E-1,2.9677936E-1,1.5808901E-1,3.1209338E-1,4.0204915E-1,-1.6660754E-2,-8.904792E-3,-1.119083E-2,-2.1709673E-2,-2.3732612E-2,-1.118662E-3,-2.8505815E-2,-1.5302208E-2,-9.5876335E-4,-1.4188043E-2,1.2278598E-2,1.4728243E-3,-1.105667E-2,-1.748616E-2,-4.9479557E-3,-1.1944142E-2,1.4917685E-3,-8.315225E-3,-9.629299E-4,6.3607977E-3,-9.149219E-3,1.7841536E-3,-1.0816219E-2,-1.6518317E-2,-9.360555E-3,-1.3160225E-3,3.9965482E-4,9.362193E-3,3.9171265E-3,-3.3642475E-3,1.0347968E-2,5.088678E-3,-4.8791505E-3,1.2872458E-3,1.07299965E-2,3.11844E-3,1.1772252E-2,3.8413238E-3,3.6632558E-4,9.382778E-3,1.1043917E-2,1.5989056E-2,2.1893185E-2,1.1613216E-2,-7.2015E-3,1.6762263E-3,1.3089719E-2,4.9918476E-3,1.8377462E-2,7.6714726E-3,2.2331862E-2,1.1372929E-2,6.9673336E-3,-5.759505E-3,6.392676E-3,2.7335284E-2,2.6984656E-2,3.318463E-2,1.352181E-2,2.7025688E-2,3.586416E-2,2.5478123E-2,2.7903367E-2,4.129321E-2],"categories":[],"categories_nodes":[],"categories_segments":[],"categories_sizes":[],"default_left":[0,0,0,0,0,0,0,0,0,0,0,0,0,0,0,0,0,0,0,0,0,0,0,0,0,0,0,0,0,0,0,0,0,0,0,0,0,0,0,0,0,0,0,0,0,0,0,0,0,0,0,0,0,0,0,0,0,0,0,0,0,0,0,0,0,0,0,0,0,0,0,0,0,0,0,0,0,0,0,0,0,0,0,0,0,0,0,0,0,0,0,0,0,0,0,0,0,0,0,0,0,0,0,0,0,0,0,0,0,0,0,0,0,0,0,0,0,0,0,0,0,0,0,0,0,0,0],"id":0,"left_children":[1,3,5,7,9,11,13,15,17,19,21,23,25,27,29,31,33,35,37,39,41,43,45,47,49,51,53,55,57,59,61,63,65,67,69,71,73,75,77,79,81,83,85,87,89,91,93,95,97,99,101,103,105,107,109,111,113,115,117,119,121,123,125,-1,-1,-1,-1,-1,-1,-1,-1,-1,-1,-1,-1,-1,-1,-1,-1,-1,-1,-1,-1,-1,-1,-1,-1,-1,-1,-1,-1,-1,-1,-1,-1,-1,-1,-1,-1,-1,-1,-1,-1,-1,-1,-1,-1,-1,-1,-1,-1,-1,-1,-1,-1,-1,-1,-1,-1,-1,-1,-1,-1,-1,-1,-1,-1],"loss_changes":[3.8215887E2,8.789313E1,9.3148056E1,2.4111862E1,1.4868643E1,2.2749336E1,1.1035767E1,4.2917175E0,1.013253E1,6.6252823E0,6.682261E0,7.451021E0,7.877594E0,1.3739214E0,4.671982E0,1.8757172E0,6.520462E-1,3.091181E0,2.0831375E0,1.5603291E0,2.0816383E0,5.977991E0,3.6383212E0,2.3215947E0,2.0894623E0,3.5973434E0,1.0075612E0,6.702299E-1,2.801284E-1,2.0462875E0,2.0796661E0,5.733986E-1,1.0802078E0,5.895157E-1,4.6138E-1,5.3134465E-1,1.2244862E0,8.762722E-1,8.1052256E-1,8.13035E-1,5.1321244E-1,9.919498E-1,1.2413979E0,3.7450485E0,1.5541759E0,2.3425462E0,4.465475E-1,1.7966264E0,6.59987E-1,8.863888E-1,7.1958023E-1,1.2079048E0,1.8912086E0,4.0085465E-1,3.676492E-1,3.7046123E-1,3.6231995E-1,2.2212413E-1,8.762777E-3,8.700104E-1,2.8156376E-1,1.0130844E0,9.7052E-1,0E0,0E0,0E0,0E0,0E0,0E0,0E0,0E0,0E0,0E0,0E0,0E0,0E0,0E0,0E0,0E0,0E0,0E0,0E0,0E0,0E0,0E0,0E0,0E0,0E0,0E0,0E0,0E0,0E0,0E0,0E0,0E0,0E0,0E0,0E0,0E0,0E0,0E0,0E0,0E0,0E0,0E0,0E0,0E0,0E0,0E0,0E0,0E0,0E0,0E0,0E0,0E0,0E0,0E0,0E0,0E0,0E0,0E0,0E0,0E0,0E0,0E0,0E0,0E0],"parents":[2147483647,0,0,1,1,2,2,3,3,4,4,5,5,6,6,7,7,8,8,9,9,10,10,11,11,12,12,13,13,14,14,15,15,16,16,17,17,18,18,19,19,20,20,21,21,22,22,23,23,24,24,25,25,26,26,27,27,28,28,29,29,30,30,31,31,32,32,33,33,34,34,35,35,36,36,37,37,38,38,39,39,40,40,41,41,42,42,43,43,44,44,45,45,46,46,47,47,48,48,49,49,50,50,51,51,52,52,53,53,54,54,55,55,56,56,57,57,58,58,59,59,60,60,61,61,62,62],"right_children":[2,4,6,8,10,12,14,16,18,20,22,24,26,28,30,32,34,36,38,40,42,44,46,48,50,52,54,56,58,60,62,64,66,68,70,72,74,76,78,80,82,84,86,88,90,92,94,96,98,100,102,104,106,108,110,112,114,116,118,120,122,124,126,-1,-1,-1,-1,-1,-1,-1,-1,-1,-1,-1,-1,-1,-1,-1,-1,-1,-1,-1,-1,-1,-1,-1,-1,-1,-1,-1,-1,-1,-1,-1,-1,-1,-1,-1,-1,-1,-1,-1,-1,-1,-1,-1,-1,-1,-1,-1,-1,-1,-1,-1,-1,-1,-1,-1,-1,-1,-1,-1,-1,-1,-1,-1,-1],"split_conditions":[3.806302E-1,2.0066334E-1,5.650028E-1,1.6762853E-1,2.0066334E-1,1.3252775E-1,2.829439E-1,7.4340105E-1,7.5E-1,1.365911E-1,1.7332439E-3,4.8053068E-1,7.5E-1,5E-1,6.6539764E-1,3.2723224E-1,5.131829E-1,7.379368E-2,1.4289452E-1,4.4383678E-1,5E-1,4.387338E-1,4.0185738E-1,7.7325575E-2,6.594992E-1,5.7261413E-1,2.7389717E-1,2.878785E-1,9.255306E-1,1E-3,3.4049988E-1,7.5E-1,4.3062055E-1,8.5436976E-1,1.8E-2,3.4461537E-1,5E-1,1.7423686E-1,4.3907595E-1,2.5E-1,7.263447E-1,6.996746E-2,2.7431038E-1,4.5645773E-1,6.9221133E-1,7.5E-1,7.5E-1,7.5E-1,5E-1,9.829629E-1,1.3081086E-4,4.3612522E-1,1.6666666E-4,3.057307E-1,3.936792E-1,6.256419E-1,1.6666666E-4,3.320171E-1,3.083451E-1,1.5665099E-1,4.3007833E-1,3.2024762E-1,6.69873E-2,-1.6660754E-2,-8.904792E-3,-1.119083E-2,-2.1709673E-2,-2.3732612E-2,-1.118662E-3,-2.8505815E-2,-1.5302208E-2,-9.5876335E-4,-1.4188043E-2,1.2278598E-2,1.4728243E-3,-1.105667E-2,-1.748616E-2,-4.9479557E-3,-1.1944142E-2,1.4917685E-3,-8.315225E-3,-9.629299E-4,6.3607977E-3,-9.149219E-3,1.7841536E-3,-1.0816219E-2,-1.6518317E-2,-9.360555E-3,-1.3160225E-3,3.9965482E-4,9.362193E-3,3.9171265E-3,-3.3642475E-3,1.0347968E-2,5.088678E-3,-4.8791505E-3,1.2872458E-3,1.07299965E-2,3.11844E-3,1.1772252E-2,3.8413238E-3,3.6632558E-4,9.382778E-3,1.1043917E-2,1.5989056E-2,2.1893185E-2,1.1613216E-2,-7.2015E-3,1.6762263E-3,1.3089719E-2,4.9918476E-3,1.8377462E-2,7.6714726E-3,2.2331862E-2,1.1372929E-2,6.9673336E-3,-5.759505E-3,6.392676E-3,2.7335284E-2,2.6984656E-2,3.318463E-2,1.352181E-2,2.7025688E-2,3.586416E-2,2.5478123E-2,2.7903367E-2,4.129321E-2],"split_indices":[390,810,396,390,390,263,298,808,34,808,263,810,839,34,396,817,818,263,298,826,279,816,810,298,373,512,810,811,566,822,234,33,400,675,550,735,594,829,400,174,825,88,718,826,162,69,34,33,34,205,263,396,725,360,688,22,830,654,4,394,59,610,33,0,0,0,0,0,0,0,0,0,0,0,0,0,0,0,0,0,0,0,0,0,0,0,0,0,0,0,0,0,0,0,0,0,0,0,0,0,0,0,0,0,0,0,0,0,0,0,0,0,0,0,0,0,0,0,0,0,0,0,0,0,0,0,0],"split_type":[0,0,0,0,0,0,0,0,0,0,0,0,0,0,0,0,0,0,0,0,0,0,0,0,0,0,0,0,0,0,0,0,0,0,0,0,0,0,0,0,0,0,0,0,0,0,0,0,0,0,0,0,0,0,0,0,0,0,0,0,0,0,0,0,0,0,0,0,0,0,0,0,0,0,0,0,0,0,0,0,0,0,0,0,0,0,0,0,0,0,0,0,0,0,0,0,0,0,0,0,0,0,0,0,0,0,0,0,0,0,0,0,0,0,0,0,0,0,0,0,0,0,0,0,0,0,0],"sum_hessian":[2.8015E4,1.6952E4,1.1063E4,7.138E3,9.814E3,8.217E3,2.846E3,4.677E3,2.461E3,3.217E3,6.597E3,4.288E3,3.929E3,4.85E2,2.361E3,3.275E3,1.402E3,5.83E2,1.878E3,1.232E3,1.985E3,3.974E3,2.623E3,2.486E3,1.802E3,3.385E3,5.44E2,4.27E2,5.8E1,1.138E3,1.223E3,6.5E2,2.625E3,3.84E2,1.018E3,1.52E2,4.31E2,1.194E3,6.84E2,6.1E2,6.22E2,4.04E2,1.581E3,2.437E3,1.537E3,1.809E3,8.14E2,2.029E3,4.57E2,1.364E3,4.38E2,2.008E3,1.377E3,2.06E2,3.38E2,1.36E2,2.91E2,5.4E1,4E0,1.015E3,1.23E2,4.13E2,8.1E2,5.29E2,1.21E2,1.05E2,2.52E3,3.72E2,1.2E1,9.87E2,3.1E1,4.2E1,1.1E2,1.79E2,2.52E2,2.86E2,9.08E2,2.88E2,3.96E2,1.01E2,5.09E2,5.05E2,1.17E2,2.88E2,1.16E2,6.79E2,9.02E2,1.491E3,9.46E2,1.311E3,2.26E2,1.045E3,7.64E2,5.87E2,2.27E2,7.47E2,1.282E3,2.26E2,2.31E2,1.203E3,1.61E2,3.16E2,1.22E2,9.6E2,1.048E3,1.161E3,2.16E2,8.8E1,1.18E2,7.1E1,2.67E2,5.7E1,7.9E1,2.53E2,3.8E1,2.3E1,3.1E1,1E0,3E0,5.79E2,4.36E2,1.04E2,1.9E1,2.25E2,1.88E2,6.8E1,7.42E2],"tree_param":{"num_deleted":"0","num_feature":"840","num_nodes":"127","size_leaf_vector":"1"}},{"base_weights":[8.561221E-6,-9.662948E-2,1.14927635E-1,-1.6545725E-1,-3.640388E-2,6.554656E-2,2.5779283E-1,-2.0064056E-1,-1.04087435E-1,2.2248677E-3,-6.9815196E-2,2.7134104E-2,1.1822164E-1,2.0913087E-1,3.2146755E-1,-1.8071933E-1,-2.4081565E-1,-8.018216E-3,-1.278695E-1,-3.5910908E-2,2.2819772E-2,-9.004639E-2,5.6717885E-3,-7.4300314E-3,6.809789E-2,1.3813627E-1,2.0119013E-2,1.18229784E-1,2.3330323E-1,2.629419E-1,3.525321E-1,-1.3424098E-1,-1.9131048E-1,-2.1515416E-1,-2.5834855E-1,-1.0306651E-1,3.511078E-2,-1.5347484E-1,-9.1915764E-2,-5.55264E-2,2.4369736E-3,4.3068156E-2,-1.2442049E-2,-4.8310433E-2,-1.1492962E-1,3.0091215E-2,-6.6149734E-2,-2.2944616E-2,3.8182005E-2,9.043827E-2,3.1929955E-2,1.1727647E-1,1.7636523E-1,-1.2275583E-2,7.633656E-2,1.5158617E-1,5.52528E-2,2.4894366E-1,1.3192205E-1,3.0246946E-1,2.037186E-1,3.2484704E-1,4.1035894E-1,-1.4869059E-2,-7.0405044E-3,-2.0583985E-2,-1.655719E-2,-2.0044234E-2,-2.7568335E-2,-2.6186844E-2,-1.3239103E-2,-1.3190228E-2,-1.2540743E-3,-7.33831E-3,5.397238E-3,-1.312153E-2,-1.7345952E-2,-1.2468266E-2,-6.299258E-3,-1.137086E-2,-4.262778E-3,-1.1436878E-3,7.504815E-3,2.3177885E-3,7.5350697E-3,2.6487631E-3,-4.706563E-3,-7.3981658E-3,-1.1649899E-3,-1.3451052E-2,-4.5032836E-3,-3.5041955E-3,4.161901E-3,-1.0265139E-2,-2.406923E-3,2.563612E-3,-4.521697E-3,5.96134E-3,-3.828669E-4,6.764856E-3,1.267356E-2,-4.8356405E-3,3.935802E-3,9.189739E-3,1.3932106E-2,1.9175049E-2,1.0175331E-2,5.0796117E-3,-4.183891E-3,4.335159E-3,1.1115927E-2,-5.564039E-3,1.610786E-2,-6.2298323E-3,7.3404624E-3,2.2376154E-2,2.8923064E-2,1.0834026E-2,1.8604256E-2,1.5373438E-2,3.1743534E-2,8.305789E-3,2.2029182E-2,3.5759453E-2,2.825186E-2,1.6285002E-2,4.193405E-2],"categories":[],"categories_nodes":[],"categories_segments":[],"categories_sizes":[],"default_left":[0,0,0,0,0,0,0,0,0,0,0,0,0,0,0,0,0,0,0,0,0,0,0,0,0,0,0,0,0,0,0,0,0,0,0,0,0,0,0,0,0,0,0,0,0,0,0,0,0,0,0,0,0,0,0,0,0,0,0,0,0,0,0,0,0,0,0,0,0,0,0,0,0,0,0,0,0,0,0,0,0,0,0,0,0,0,0,0,0,0,0,0,0,0,0,0,0,0,0,0,0,0,0,0,0,0,0,0,0,0,0,0,0,0,0,0,0,0,0,0,0,0,0,0,0,0,0],"id":1,"left_children":[1,3,5,7,9,11,13,15,17,19,21,23,25,27,29,31,33,35,37,39,41,43,45,47,49,51,53,55,57,59,61,63,65,67,69,71,73,75,77,79,81,83,85,87,89,91,93,95,97,99,101,103,105,107,109,111,113,115,117,119,121,123,125,-1,-1,-1,-1,-1,-1,-1,-1,-1,-1,-1,-1,-1,-1,-1,-1,-1,-1,-1,-1,-1,-1,-1,-1,-1,-1,-1,-1,-1,-1,-1,-1,-1,-1,-1,-1,-1,-1,-1,-1,-1,-1,-1,-1,-1,-1,-1,-1,-1,-1,-1,-1,-1,-1,-1,-1,-1,-1,-1,-1,-1,-1,-1,-1],"loss_changes":[3.1114432E2,6.3079666E1,9.0270905E1,1.5313721E1,1.0477548E1,1.9243176E1,1.01176605E1,3.5684052E0,5.9164104E0,2.958646E0,6.6483784E0,7.7906666E0,7.83342E0,4.072571E0,2.4925995E0,1.4614334E0,6.161423E-1,2.1147773E0,1.8970718E0,9.938079E-1,1.7469674E0,3.5597057E0,1.6172776E0,2.1132166E0,2.0316696E0,2.638008E0,1.2356733E0,8.19294E-1,2.3028183E0,1.1018333E0,1.3491669E0,5.0976753E-1,8.851242E-1,4.897251E-1,3.5637283E-1,4.1861737E-1,7.304214E-1,5.1595306E-1,8.128748E-1,6.510637E-1,4.52172E-1,9.960902E-1,1.2049078E0,1.2075372E0,2.9365234E0,5.1803744E-1,3.5695505E-1,2.411871E0,6.8269145E-1,1.2785587E0,5.7620966E-1,1.1956577E0,1.3292961E0,8.057718E-1,2.8004026E-1,5.145016E-1,2.990328E-1,1.2287827E0,2.3381972E-1,6.100807E-1,3.8564968E-1,7.7362823E-1,5.897217E-1,0E0,0E0,0E0,0E0,0E0,0E0,0E0,0E0,0E0,0E0,0E0,0E0,0E0,0E0,0E0,0E0,0E0,0E0,0E0,0E0,0E0,0E0,0E0,0E0,0E0,0E0,0E0,0E0,0E0,0E0,0E0,0E0,0E0,0E0,0E0,0E0,0E0,0E0,0E0,0E0,0E0,0E0,0E0,0E0,0E0,0E0,0E0,0E0,0E0,0E0,0E0,0E0,0E0,0E0,0E0,0E0,0E0,0E0,0E0,0E0,0E0,0E0,0E0,0E0],"parents":[2147483647,0,0,1,1,2,2,3,3,4,4,5,5,6,6,7,7,8,8,9,9,10,10,11,11,12,12,13,13,14,14,15,15,16,16,17,17,18,18,19,19,20,20,21,21,22,22,23,23,24,24,25,25,26,26,27,27,28,28,29,29,30,30,31,31,32,32,33,33,34,34,35,35,36,36,37,37,38,38,39,39,40,40,41,41,42,42,43,43,44,44,45,45,46,46,47,47,48,48,49,49,50,50,51,51,52,52,53,53,54,54,55,55,56,56,57,57,58,58,59,59,60,60,61,61,62,62],"right_children":[2,4,6,8,10,12,14,16,18,20,22,24,26,28,30,32,34,36,38,40,42,44,46,48,50,52,54,56,58,60,62,64,66,68,70,72,74,76,78,80,82,84,86,88,90,92,94,96,98,100,102,104,106,108,110,112,114,116,118,120,122,124,126,-1,-1,-1,-1,-1,-1,-1,-1,-1,-1,-1,-1,-1,-1,-1,-1,-1,-1,-1,-1,-1,-1,-1,-1,-1,-1,-1,-1,-1,-1,-1,-1,-1,-1,-1,-1,-1,-1,-1,-1,-1,-1,-1,-1,-1,-1,-1,-1,-1,-1,-1,-1,-1,-1,-1,-1,-1,-1,-1,-1,-1,-1,-1,-1],"split_conditions":[3.0886915E-1,2.0941956E-1,5.60796E-1,1.5343283E-1,1.3148856E-1,1.2742613E-1,6.571841E-1,7.2338337E-1,7.5E-1,3.1475607E-1,3.4337852E-4,4.5485905E-1,7.5E-1,1.8498291E-1,3.408392E-1,3.166539E-1,4.951611E-1,7.379368E-2,6.226597E-2,1.3771114E-1,9.330127E-1,3.296419E-1,7.5E-1,2.8107984E-2,5.5992496E-1,5.7539845E-1,3.6650082E-1,6.130063E-1,5.833333E-4,3.0333686E-1,7.7479273E-1,7.5E-1,7.5E-1,9.467177E-1,1.5E-3,4.4904417E-1,1.5651438E-2,3.419862E-1,4.077171E-1,2.4590382E-1,5.4247373E-1,4.699171E-1,3.0021277E-1,3.8812605E-1,5.282392E-1,3.292434E-1,2.784743E-1,1.996951E-1,7.5E-1,4.9054073E-5,6.69873E-2,4.144811E-1,1.6666666E-4,2.6196587E-1,1.552564E-1,1.4168309E-1,2.602228E-1,6.0987735E-1,5.393401E-1,2.320819E-1,2.2466461E-1,2.1262458E-1,2.6543254E-1,-1.4869059E-2,-7.0405044E-3,-2.0583985E-2,-1.655719E-2,-2.0044234E-2,-2.7568335E-2,-2.6186844E-2,-1.3239103E-2,-1.3190228E-2,-1.2540743E-3,-7.33831E-3,5.397238E-3,-1.312153E-2,-1.7345952E-2,-1.2468266E-2,-6.299258E-3,-1.137086E-2,-4.262778E-3,-1.1436878E-3,7.504815E-3,2.3177885E-3,7.5350697E-3,2.6487631E-3,-4.706563E-3,-7.3981658E-3,-1.1649899E-3,-1.3451052E-2,-4.5032836E-3,-3.5041955E-3,4.161901E-3,-1.0265139E-2,-2.406923E-3,2.563612E-3,-4.521697E-3,5.96134E-3,-3.828669E-4,6.764856E-3,1.267356E-2,-4.8356405E-3,3.935802E-3,9.189739E-3,1.3932106E-2,1.9175049E-2,1.0175331E-2,5.0796117E-3,-4.183891E-3,4.335159E-3,1.1115927E-2,-5.564039E-3,1.610786E-2,-6.2298323E-3,7.3404624E-3,2.2376154E-2,2.8923064E-2,1.0834026E-2,1.8604256E-2,1.5373438E-2,3.1743534E-2,8.305789E-3,2.2029182E-2,3.5759453E-2,2.825186E-2,1.6285002E-2,4.193405E-2],"split_indices":[396,810,390,390,808,263,396,773,34,816,263,810,594,263,199,817,811,263,298,368,205,829,34,298,373,512,810,369,795,575,390,33,33,423,445,294,781,712,649,810,399,775,821,75,833,22,495,821,34,228,383,396,760,400,468,783,11,431,606,246,42,763,747,0,0,0,0,0,0,0,0,0,0,0,0,0,0,0,0,0,0,0,0,0,0,0,0,0,0,0,0,0,0,0,0,0,0,0,0,0,0,0,0,0,0,0,0,0,0,0,0,0,0,0,0,0,0,0,0,0,0,0,0,0,0,0,0],"split_type":[0,0,0,0,0,0,0,0,0,0,0,0,0,0,0,0,0,0,0,0,0,0,0,0,0,0,0,0,0,0,0,0,0,0,0,0,0,0,0,0,0,0,0,0,0,0,0,0,0,0,0,0,0,0,0,0,0,0,0,0,0,0,0,0,0,0,0,0,0,0,0,0,0,0,0,0,0,0,0,0,0,0,0,0,0,0,0,0,0,0,0,0,0,0,0,0,0,0,0,0,0,0,0,0,0,0,0,0,0,0,0,0,0,0,0,0,0,0,0,0,0,0,0,0,0,0,0],"sum_hessian":[2.8015E4,1.5218E4,1.2797E4,7.101E3,8.117E3,9.511E3,3.286E3,4.512E3,2.589E3,3.765E3,4.352E3,5.501E3,4.01E3,1.865E3,1.421E3,3.02E3,1.492E3,5.14E2,2.075E3,1.32E3,2.445E3,3.432E3,9.2E2,2.984E3,2.517E3,3.333E3,6.77E2,3.93E2,1.472E3,4.96E2,9.25E2,5.63E2,2.457E3,6.11E2,8.81E2,1.6E2,3.54E2,1.21E3,8.65E2,8.73E2,4.47E2,1.553E3,8.92E2,1.283E3,2.149E3,6.87E2,2.33E2,2.227E3,7.57E2,1.555E3,9.62E2,2.159E3,1.174E3,4.3E2,2.47E2,2.56E2,1.37E2,1.274E3,1.98E2,2.95E2,2.01E2,6.3E2,2.95E2,4.58E2,1.05E2,1.566E3,8.91E2,4.95E2,1.16E2,8.56E2,2.5E1,1.21E2,3.9E1,5.2E1,3.02E2,5.76E2,6.34E2,4.04E2,4.61E2,1.57E2,7.16E2,3.76E2,7.1E1,9.62E2,5.91E2,4.2E2,4.72E2,7.54E2,5.29E2,1.678E3,4.71E2,1.03E2,5.84E2,1.24E2,1.09E2,7E2,1.527E3,5.01E2,2.56E2,9.57E2,5.98E2,8.1E1,8.81E2,1.006E3,1.153E3,9.72E2,2.02E2,1.37E2,2.93E2,1.28E2,1.19E2,1.1E1,2.45E2,1.8E1,1.19E2,7.88E2,4.86E2,1.4E2,5.8E1,2.8E1,2.67E2,2.5E1,1.76E2,3.51E2,2.79E2,1.1E1,2.84E2],"tree_param":{"num_deleted":"0","num_feature":"840","num_nodes":"127","size_leaf_vector":"1"}},{"base_weights":[1.2392972E-5,-6.483719E-2,1.399752E-1,-1.3538444E-1,-9.362139E-3,9.590409E-2,2.582209E-1,-1.7430094E-1,-7.373011E-2,2.2386225E-2,-5.241226E-2,4.9620993E-2,1.40485E-1,1.5215692E-1,2.78769E-1,-1.5713993E-1,-2.1347135E-1,-1.0191819E-1,-2.3685725E-2,-5.0485483E-3,6.501669E-2,-8.7703966E-2,-9.062276E-3,2.7554963E-2,1.1547953E-1,1.4985678E-1,5.0172776E-2,1.7710058E-1,9.393426E-2,2.9207584E-1,1.761839E-1,-1.6697372E-1,-1.1525709E-1,-2.254222E-1,-1.5990427E-1,-7.866334E-2,-1.4241888E-1,-6.396089E-2,6.154071E-3,-2.5613708E-2,4.041004E-2,8.404337E-2,3.420298E-2,-3.0541616E-2,-1.0318867E-1,-4.363439E-2,2.5451107E-2,3.3150844E-2,-1.02973215E-1,1.0719004E-1,2.118875E-1,1.6215706E-1,8.847388E-2,-2.464174E-2,7.405299E-2,9.166441E-2,1.9260746E-1,1.1696542E-1,-3.4650598E-2,2.4846838E-1,3.206992E-1,2.210175E-1,1.2786898E-1,-1.9205423E-2,-1.5045315E-2,-1.9011715E-3,-1.2579937E-2,-9.413988E-3,-2.2785196E-2,-1.7653275E-2,-9.718684E-3,-5.870382E-4,-9.081166E-3,-1.5893623E-2,-3.7868314E-3,-2.427032E-3,-1.0036497E-2,2.4770077E-3,-3.99879E-3,3.582501E-3,-3.7645332E-3,2.4457506E-3,1.1673479E-2,6.9303974E-3,1.1938757E-2,9.093282E-3,1.7800089E-3,-7.762992E-3,2.7413864E-4,-7.789451E-3,-1.3095892E-2,-8.162125E-3,-3.1120435E-5,-4.1751447E-3,3.8704653E-3,1.6784646E-3,7.1658934E-3,-1.48021495E-2,-3.6734839E-3,1.10923285E-2,-7.940047E-3,9.929164E-3,2.5933003E-2,1.4302382E-2,1.9478863E-2,9.187452E-3,-2.0682443E-2,-9.738339E-3,3.0764114E-4,3.799033E-3,8.842365E-3,6.9075273E-3,2.232164E-2,3.4621216E-3,2.0110616E-2,8.045583E-3,1.6932225E-2,6.7560673E-3,-6.6410983E-3,8.0753965E-3,2.534557E-2,3.2970354E-2,2.1215787E-2,9.265668E-3,2.457631E-2,6.2302034E-3,1.7067734E-2],"categories":[],"categories_nodes":[],"categories_segments":[],"categories_sizes":[],"default_left":[0,0,0,0,0,0,0,0,0,0,0,0,0,0,0,0,0,0,0,0,0,0,0,0,0,0,0,0,0,0,0,0,0,0,0,0,0,0,0,0,0,0,0,0,0,0,0,0,0,0,0,0,0,0,0,0,0,0,0,0,0,0,0,0,0,0,0,0,0,0,0,0,0,0,0,0,0,0,0,0,0,0,0,0,0,0,0,0,0,0,0,0,0,0,0,0,0,0,0,0,0,0,0,0,0,0,0,0,0,0,0,0,0,0,0,0,0,0,0,0,0,0,0,0,0,0,0],"id":2,"left_children":[1,3,5,7,9,11,13,15,17,19,21,23,25,27,29,31,33,35,37,39,41,43,45,47,49,51,53,55,57,59,61,63,65,67,69,71,73,75,77,79,81,83,85,87,89,91,93,95,97,99,101,103,105,107,109,111,113,115,117,119,121,123,125,-1,-1,-1,-1,-1,-1,-1,-1,-1,-1,-1,-1,-1,-1,-1,-1,-1,-1,-1,-1,-1,-1,-1,-1,-1,-1,-1,-1,-1,-1,-1,-1,-1,-1,-1,-1,-1,-1,-1,-1,-1,-1,-1,-1,-1,-1,-1,-1,-1,-1,-1,-1,-1,-1,-1,-1,-1,-1,-1,-1,-1,-1,-1,-1],"loss_changes":[2.5429713E2,7.492876E1,4.6203964E1,2.020903E1,1.465159E1,1.33304825E1,5.205612E0,3.4390717E0,4.6005535E0,7.216495E0,6.960228E0,4.607937E0,2.778778E0,5.5411243E-1,2.7005463E0,1.4618301E0,9.696655E-1,1.9544125E0,1.4149154E0,3.5114462E0,1.4135838E0,2.2167854E0,2.4388194E0,1.740353E0,6.1342907E-1,2.2371445E0,5.574533E-1,3.4535313E-1,3.5942793E-1,2.1458435E0,4.7861338E-1,1.1768417E0,6.946707E-1,3.8749695E-1,2.852831E-1,1.1738338E0,1.306426E0,7.214582E-1,5.8251935E-1,1.9129394E0,1.4217058E0,7.695074E-1,8.5819435E-1,8.402535E-1,1.3756828E0,1.680246E0,9.1277343E-1,1.4363544E0,2.869872E-1,5.2079964E-1,3.0544472E-1,1.5223923E0,5.211034E-1,1.5353566E-1,1.18946314E-1,1.15333736E-1,3.03195E-1,1.8135273E-1,6.6165894E-2,5.7424545E-1,9.787445E-1,3.5839272E-1,3.1215024E-1,0E0,0E0,0E0,0E0,0E0,0E0,0E0,0E0,0E0,0E0,0E0,0E0,0E0,0E0,0E0,0E0,0E0,0E0,0E0,0E0,0E0,0E0,0E0,0E0,0E0,0E0,0E0,0E0,0E0,0E0,0E0,0E0,0E0,0E0,0E0,0E0,0E0,0E0,0E0,0E0,0E0,0E0,0E0,0E0,0E0,0E0,0E0,0E0,0E0,0E0,0E0,0E0,0E0,0E0,0E0,0E0,0E0,0E0,0E0,0E0,0E0,0E0,0E0,0E0],"parents":[2147483647,0,0,1,1,2,2,3,3,4,4,5,5,6,6,7,7,8,8,9,9,10,10,11,11,12,12,13,13,14,14,15,15,16,16,17,17,18,18,19,19,20,20,21,21,22,22,23,23,24,24,25,25,26,26,27,27,28,28,29,29,30,30,31,31,32,32,33,33,34,34,35,35,36,36,37,37,38,38,39,39,40,40,41,41,42,42,43,43,44,44,45,45,46,46,47,47,48,48,49,49,50,50,51,51,52,52,53,53,54,54,55,55,56,56,57,57,58,58,59,59,60,60,61,61,62,62],"right_children":[2,4,6,8,10,12,14,16,18,20,22,24,26,28,30,32,34,36,38,40,42,44,46,48,50,52,54,56,58,60,62,64,66,68,70,72,74,76,78,80,82,84,86,88,90,92,94,96,98,100,102,104,106,108,110,112,114,116,118,120,122,124,126,-1,-1,-1,-1,-1,-1,-1,-1,-1,-1,-1,-1,-1,-1,-1,-1,-1,-1,-1,-1,-1,-1,-1,-1,-1,-1,-1,-1,-1,-1,-1,-1,-1,-1,-1,-1,-1,-1,-1,-1,-1,-1,-1,-1,-1,-1,-1,-1,-1,-1,-1,-1,-1,-1,-1,-1,-1,-1,-1,-1,-1,-1,-1,-1],"split_conditions":[4.1917083E-1,2.0066334E-1,5.898195E-1,1.9840796E-1,7.5E-1,1.8498291E-1,2.8315645E-1,7.2338337E-1,4.2911232E-1,2.7960822E-2,2.894859E-1,6.0987735E-1,7.5E-1,5.396493E-1,2.5E-4,1.11336395E-1,1.0215589E-1,3.1400254E-1,5.0394464E-1,5.704146E-1,5E-1,4.353012E-1,5.1535547E-1,1E0,6.88315E-1,6.6666666E-4,1.662789E-1,2.3880717E-1,3.5692307E-1,6.6646767E-1,2.0434375E-1,6.474295E-2,3.6614826E-1,2.7866023E-2,4.0125483E-1,2.5E-1,2.7960822E-2,7.5E-1,3.674752E-1,1.3837932E-1,6.9221133E-1,3.861374E-1,6.903604E-2,4.2366242E-1,3.0830258E-1,4.9054073E-5,5E-1,5.5813956E-1,5.681063E-1,8.909458E-1,4.8557213E-1,5.1304287E-1,5.4882646E-1,1.4724442E-1,9.330127E-1,6.451613E-1,2.4527636E-1,7.03757E-2,2.4923077E-1,6.0736902E-2,1.6666666E-4,3.4702486E-1,5.021856E-1,-1.9205423E-2,-1.5045315E-2,-1.9011715E-3,-1.2579937E-2,-9.413988E-3,-2.2785196E-2,-1.7653275E-2,-9.718684E-3,-5.870382E-4,-9.081166E-3,-1.5893623E-2,-3.7868314E-3,-2.427032E-3,-1.0036497E-2,2.4770077E-3,-3.99879E-3,3.582501E-3,-3.7645332E-3,2.4457506E-3,1.1673479E-2,6.9303974E-3,1.1938757E-2,9.093282E-3,1.7800089E-3,-7.762992E-3,2.7413864E-4,-7.789451E-3,-1.3095892E-2,-8.162125E-3,-3.1120435E-5,-4.1751447E-3,3.8704653E-3,1.6784646E-3,7.1658934E-3,-1.48021495E-2,-3.6734839E-3,1.10923285E-2,-7.940047E-3,9.929164E-3,2.5933003E-2,1.4302382E-2,1.9478863E-2,9.187452E-3,-2.0682443E-2,-9.738339E-3,3.0764114E-4,3.799033E-3,8.842365E-3,6.9075273E-3,2.232164E-2,3.4621216E-3,2.0110616E-2,8.045583E-3,1.6932225E-2,6.7560673E-3,-6.6410983E-3,8.0753965E-3,2.534557E-2,3.2970354E-2,2.1215787E-2,9.265668E-3,2.457631E-2,6.2302034E-3,1.7067734E-2],"split_indices":[390,390,396,810,34,298,333,738,826,263,810,116,839,513,830,333,390,738,754,810,69,435,826,34,434,830,816,812,70,390,513,810,435,234,442,209,193,34,829,821,197,164,814,824,817,298,733,833,518,82,740,396,541,56,33,167,641,387,105,339,655,263,606,0,0,0,0,0,0,0,0,0,0,0,0,0,0,0,0,0,0,0,0,0,0,0,0,0,0,0,0,0,0,0,0,0,0,0,0,0,0,0,0,0,0,0,0,0,0,0,0,0,0,0,0,0,0,0,0,0,0,0,0,0,0,0,0],"split_type":[0,0,0,0,0,0,0,0,0,0,0,0,0,0,0,0,0,0,0,0,0,0,0,0,0,0,0,0,0,0,0,0,0,0,0,0,0,0,0,0,0,0,0,0,0,0,0,0,0,0,0,0,0,0,0,0,0,0,0,0,0,0,0,0,0,0,0,0,0,0,0,0,0,0,0,0,0,0,0,0,0,0,0,0,0,0,0,0,0,0,0,0,0,0,0,0,0,0,0,0,0,0,0,0,0,0,0,0,0,0,0,0,0,0,0,0,0,0,0,0,0,0,0,0,0,0,0],"sum_hessian":[2.8015E4,1.9145E4,8.87E3,8.427E3,1.0718E4,6.463E3,2.407E3,5.165E3,3.262E3,6.169E3,4.549E3,3.172E3,3.291E3,3.92E2,2.015E3,3.595E3,1.57E3,2.086E3,1.176E3,3.754E3,2.415E3,2.507E3,2.042E3,2.377E3,7.95E2,2.981E3,3.1E2,2.73E2,1.19E2,1.782E3,2.33E2,2.909E3,6.86E2,1.281E3,2.89E2,1.327E3,7.59E2,5E2,6.76E2,2.585E3,1.169E3,1.492E3,9.23E2,5.35E2,1.972E3,1.02E3,1.022E3,2.28E3,9.7E1,7.34E2,6.1E1,2.482E3,4.99E2,7.5E1,2.35E2,4.3E1,2.3E2,1.01E2,1.8E1,7.1E2,1.072E3,1.19E2,1.14E2,1.151E3,1.758E3,6.8E1,6.18E2,2.4E1,1.257E3,2.27E2,6.2E1,1.9E2,1.137E3,6.55E2,1.04E2,2.4E2,2.6E2,4.82E2,1.94E2,4.23E2,2.162E3,9.68E2,2.01E2,1.055E3,4.37E2,2.06E2,7.17E2,2.21E2,3.14E2,1.034E3,9.38E2,5.43E2,4.77E2,1.68E2,8.54E2,1.601E3,6.79E2,5.7E1,4E1,7.2E2,1.4E1,1.9E1,4.2E1,1.568E3,9.14E2,4.94E2,5E0,2E1,5.5E1,6.8E1,1.67E2,3.8E1,5E0,1.2E1,2.18E2,6.1E1,4E1,4E0,1.4E1,2.1E1,6.89E2,9.88E2,8.4E1,2E1,9.9E1,4.6E1,6.8E1],"tree_param":{"num_deleted":"0","num_feature":"840","num_nodes":"127","size_leaf_vector":"1"}},{"base_weights":[1.5890499E-5,-8.935785E-2,8.271363E-2,-1.3787854E-1,-3.5630237E-2,3.7741594E-2,1.8711281E-1,-1.7324851E-1,-1.0585997E-1,-2.0028653E-3,-6.486058E-2,1.1118471E-2,7.5258516E-2,1.3896337E-1,2.4613355E-1,-1.4425348E-1,-1.9360867E-1,-2.3207076E-2,-1.191805E-1,6.648235E-2,-1.0666523E-2,-8.4215604E-2,-1.2738749E-2,-2.6698211E-2,3.8108516E-2,9.6996285E-2,8.910145E-3,9.463627E-2,1.7380378E-1,1.9581462E-1,2.7554142E-1,-1.5833595E-1,-1.122309E-1,-1.653396E-1,-2.0870648E-1,-1.2572333E-1,6.762022E-3,-8.9318246E-2,-1.3674492E-1,-8.204612E-3,8.525474E-2,-4.8778895E-2,1.2287747E-3,-1.0157485E-1,-3.834135E-2,1.0719261E-2,-6.5887414E-2,-1.4380563E-2,-9.345069E-2,1.6675534E-2,6.768312E-2,7.532979E-2,1.1696568E-1,-1.4880971E-2,5.4280628E-2,1.1922138E-1,4.656291E-2,1.850373E-1,9.13695E-2,2.361825E-1,1.5852709E-1,2.5555518E-1,3.3724654E-1,-1.3482633E-2,-1.838567E-2,-7.739371E-3,-1.6895493E-2,-5.846625E-3,-1.7559486E-2,-2.1122238E-2,-8.857745E-3,2.0888266E-3,-1.4267787E-2,-7.103782E-3,3.4599935E-3,-1.0355559E-2,-2.6900105E-3,-8.825855E-3,-1.4890209E-2,3.519975E-3,-8.924593E-3,7.685141E-5,1.0283664E-2,-6.4635687E-3,2.1823337E-4,2.3066935E-3,-2.0610606E-3,-1.1594176E-2,-3.0396464E-3,-8.583366E-6,-6.472425E-3,-3.5052196E-4,5.237326E-3,-8.29657E-3,1.0113529E-3,-4.1720252E-3,1.6149477E-3,-1.1015209E-2,6.9352944E-4,-6.0251128E-5,4.9420283E-3,4.7411895E-3,1.0804499E-2,9.18874E-3,4.9778097E-3,1.0454664E-2,1.5718617E-2,3.887683E-3,-3.5443676E-3,6.0940627E-3,-6.1653364E-3,3.318521E-3,1.2674979E-2,6.9572143E-3,-3.6743213E-3,-1.8800067E-2,1.8677289E-2,7.044767E-3,1.7228806E-2,1.4068209E-2,2.502631E-2,1.8037459E-2,9.759673E-3,1.9476201E-2,2.7277684E-2,9.362443E-3,3.4532446E-2],"categories":[],"categories_nodes":[],"categories_segments":[],"categories_sizes":[],"default_left":[0,0,0,0,0,0,0,0,0,0,0,0,0,0,0,0,0,0,0,0,0,0,0,0,0,0,0,0,0,0,0,0,0,0,0,0,0,0,0,0,0,0,0,0,0,0,0,0,0,0,0,0,0,0,0,0,0,0,0,0,0,0,0,0,0,0,0,0,0,0,0,0,0,0,0,0,0,0,0,0,0,0,0,0,0,0,0,0,0,0,0,0,0,0,0,0,0,0,0,0,0,0,0,0,0,0,0,0,0,0,0,0,0,0,0,0,0,0,0,0,0,0,0,0,0,0,0],"id":3,"left_children":[1,3,5,7,9,11,13,15,17,19,21,23,25,27,29,31,33,35,37,39,41,43,45,47,49,51,53,55,57,59,61,63,65,67,69,71,73,75,77,79,81,83,85,87,89,91,93,95,97,99,101,103,105,107,109,111,113,115,117,119,121,123,125,-1,-1,-1,-1,-1,-1,-1,-1,-1,-1,-1,-1,-1,-1,-1,-1,-1,-1,-1,-1,-1,-1,-1,-1,-1,-1,-1,-1,-1,-1,-1,-1,-1,-1,-1,-1,-1,-1,-1,-1,-1,-1,-1,-1,-1,-1,-1,-1,-1,-1,-1,-1,-1,-1,-1,-1,-1,-1,-1,-1,-1,-1,-1,-1],"loss_changes":[2.0707384E2,3.5097015E1,6.8315216E1,7.9940643E0,6.2818365E0,1.0159137E1,1.24157715E1,1.9556198E0,4.088478E0,1.7646867E0,3.44808E0,6.075049E0,6.088379E0,3.7132187E0,2.8567657E0,6.090603E-1,8.0672455E-1,1.5892394E0,1.6662292E0,4.6898544E-1,1.1969249E0,1.9813881E0,1.1564544E0,2.0369725E0,2.2003088E0,1.367073E0,1.1266371E0,1.2531595E0,1.2341576E0,1.059864E0,1.4418182E0,5.529938E-1,8.326974E-1,7.4707985E-1,3.6845016E-1,2.9381108E-1,8.709377E-1,1.0529537E0,1.1734314E0,2.4233462E-1,3.9653003E-1,5.076164E-1,9.605393E-1,1.8453617E0,6.923685E-1,3.8175777E-1,3.6946154E-1,1.7484976E0,6.4792633E-1,1.1400468E0,1.1886086E0,6.4188385E-1,8.0924034E-1,7.585808E-1,2.8094828E-1,4.5178604E-1,6.964413E-1,8.042679E-1,2.6550865E-1,4.327507E-1,4.909048E-1,9.31015E-1,5.580559E-1,0E0,0E0,0E0,0E0,0E0,0E0,0E0,0E0,0E0,0E0,0E0,0E0,0E0,0E0,0E0,0E0,0E0,0E0,0E0,0E0,0E0,0E0,0E0,0E0,0E0,0E0,0E0,0E0,0E0,0E0,0E0,0E0,0E0,0E0,0E0,0E0,0E0,0E0,0E0,0E0,0E0,0E0,0E0,0E0,0E0,0E0,0E0,0E0,0E0,0E0,0E0,0E0,0E0,0E0,0E0,0E0,0E0,0E0,0E0,0E0,0E0,0E0,0E0,0E0],"parents":[2147483647,0,0,1,1,2,2,3,3,4,4,5,5,6,6,7,7,8,8,9,9,10,10,11,11,12,12,13,13,14,14,15,15,16,16,17,17,18,18,19,19,20,20,21,21,22,22,23,23,24,24,25,25,26,26,27,27,28,28,29,29,30,30,31,31,32,32,33,33,34,34,35,35,36,36,37,37,38,38,39,39,40,40,41,41,42,42,43,43,44,44,45,45,46,46,47,47,48,48,49,49,50,50,51,51,52,52,53,53,54,54,55,55,56,56,57,57,58,58,59,59,60,60,61,61,62,62],"right_children":[2,4,6,8,10,12,14,16,18,20,22,24,26,28,30,32,34,36,38,40,42,44,46,48,50,52,54,56,58,60,62,64,66,68,70,72,74,76,78,80,82,84,86,88,90,92,94,96,98,100,102,104,106,108,110,112,114,116,118,120,122,124,126,-1,-1,-1,-1,-1,-1,-1,-1,-1,-1,-1,-1,-1,-1,-1,-1,-1,-1,-1,-1,-1,-1,-1,-1,-1,-1,-1,-1,-1,-1,-1,-1,-1,-1,-1,-1,-1,-1,-1,-1,-1,-1,-1,-1,-1,-1,-1,-1,-1,-1,-1,-1,-1,-1,-1,-1,-1,-1,-1,-1,-1,-1,-1,-1],"split_conditions":[3.1555554E-1,2.2361526E-1,5.2199006E-1,8.875622E-2,1.3816112E-1,1.065945E-1,6.175973E-1,5.6088704E-1,7.5E-1,3.0788657E-1,4.9054073E-5,4.00199E-1,7.5E-1,8.360318E-2,3.408392E-1,7.5E-1,4.302156E-1,8.502706E-4,3.554875E-1,4.825171E-2,2.7164412E-1,4.2911232E-1,7.5E-1,5.763013E-1,7.372827E-2,3.940003E-1,3.6650082E-1,4.3177718E-1,5.833333E-4,3.8819265E-1,7.7479273E-1,3.8427117E-1,6.8608946E-1,6.69873E-2,8.7711805E-1,6.684452E-2,4.6965174E-2,2.057982E-1,5.103427E-1,2.5764102E-1,4.0988392E-1,1.8529359E-1,3.3036807E-1,1.4078519E-2,2.47277E-1,4.387338E-1,5.181989E-1,7.5E-1,4.9737832E-1,5.889777E-1,6.0296816E-1,5E-1,6.4198E-1,3.0752578E-1,1E0,7.4988015E-2,4.456867E-1,5.4150373E-2,3.5135788E-1,1.17911026E-1,2.8333333E-3,7.9285644E-2,6.69873E-2,-1.3482633E-2,-1.838567E-2,-7.739371E-3,-1.6895493E-2,-5.846625E-3,-1.7559486E-2,-2.1122238E-2,-8.857745E-3,2.0888266E-3,-1.4267787E-2,-7.103782E-3,3.4599935E-3,-1.0355559E-2,-2.6900105E-3,-8.825855E-3,-1.4890209E-2,3.519975E-3,-8.924593E-3,7.685141E-5,1.0283664E-2,-6.4635687E-3,2.1823337E-4,2.3066935E-3,-2.0610606E-3,-1.1594176E-2,-3.0396464E-3,-8.583366E-6,-6.472425E-3,-3.5052196E-4,5.237326E-3,-8.29657E-3,1.0113529E-3,-4.1720252E-3,1.6149477E-3,-1.1015209E-2,6.9352944E-4,-6.0251128E-5,4.9420283E-3,4.7411895E-3,1.0804499E-2,9.18874E-3,4.9778097E-3,1.0454664E-2,1.5718617E-2,3.887683E-3,-3.5443676E-3,6.0940627E-3,-6.1653364E-3,3.318521E-3,1.2674979E-2,6.9572143E-3,-3.6743213E-3,-1.8800067E-2,1.8677289E-2,7.044767E-3,1.7228806E-2,1.4068209E-2,2.502631E-2,1.8037459E-2,9.759673E-3,1.9476201E-2,2.7277684E-2,9.362443E-3,3.4532446E-2],"split_indices":[390,810,390,390,808,298,396,808,34,198,193,810,839,388,199,453,821,263,817,184,816,826,34,716,123,396,810,408,830,680,390,549,444,66,325,829,775,333,400,778,810,333,541,333,738,816,292,33,13,756,816,69,364,443,34,24,829,111,304,94,787,423,33,0,0,0,0,0,0,0,0,0,0,0,0,0,0,0,0,0,0,0,0,0,0,0,0,0,0,0,0,0,0,0,0,0,0,0,0,0,0,0,0,0,0,0,0,0,0,0,0,0,0,0,0,0,0,0,0,0,0,0,0,0,0,0,0],"split_type":[0,0,0,0,0,0,0,0,0,0,0,0,0,0,0,0,0,0,0,0,0,0,0,0,0,0,0,0,0,0,0,0,0,0,0,0,0,0,0,0,0,0,0,0,0,0,0,0,0,0,0,0,0,0,0,0,0,0,0,0,0,0,0,0,0,0,0,0,0,0,0,0,0,0,0,0,0,0,0,0,0,0,0,0,0,0,0,0,0,0,0,0,0,0,0,0,0,0,0,0,0,0,0,0,0,0,0,0,0,0,0,0,0,0,0,0,0,0,0,0,0,0,0,0,0,0,0],"sum_hessian":[2.8015E4,1.3464E4,1.4551E4,7.074E3,6.39E3,1.0171E4,4.38E3,3.359E3,3.715E3,2.972E3,3.418E3,5.95E3,4.221E3,2.414E3,1.966E3,1.389E3,1.97E3,5.16E2,3.199E3,3.33E2,2.639E3,2.492E3,9.26E2,2.478E3,3.472E3,3.179E3,1.042E3,1.064E3,1.35E3,7.28E2,1.238E3,9.62E2,4.27E2,6.9E2,1.28E3,1.16E2,4E2,1.187E3,2.012E3,6.7E1,2.66E2,6.27E2,2.012E3,1.807E3,6.85E2,6.43E2,2.83E2,2.093E3,3.85E2,2.014E3,1.458E3,1.527E3,1.652E3,6.84E2,3.58E2,7.03E2,3.61E2,1.187E3,1.63E2,3.47E2,3.81E2,9.39E2,2.99E2,5.04E2,4.58E2,2.66E2,1.61E2,6.1E1,6.29E2,1.253E3,2.7E1,1.2E1,1.04E2,1.05E2,2.95E2,9.66E2,2.21E2,4.05E2,1.607E3,4.4E1,2.3E1,4.6E1,2.2E2,4.78E2,1.49E2,1.006E3,1.006E3,1.503E3,3.04E2,2.8E2,4.05E2,4.8E2,1.63E2,2.31E2,5.2E1,1.104E3,9.89E2,3.3E2,5.5E1,1.319E3,6.95E2,9.72E2,4.86E2,9.25E2,6.02E2,1.265E3,3.87E2,1.89E2,4.95E2,3.39E2,1.9E1,5.7E1,6.46E2,2.83E2,7.8E1,5E0,1.182E3,1.31E2,3.2E1,4.6E1,3.01E2,2.79E2,1.02E2,2.1E2,7.29E2,1E1,2.89E2],"tree_param":{"num_deleted":"0","num_feature":"840","num_nodes":"127","size_leaf_vector":"1"}},{"base_weights":[1.6517495E-5,-5.1289804E-2,1.16950974E-1,-1.076522E-1,-4.139127E-3,7.931411E-2,2.0724489E-1,-1.4474614E-1,-6.342995E-2,2.091652E-2,-3.9486073E-2,3.710569E-2,1.1655766E-1,1.2695812E-1,2.2488607E-1,-1.6291487E-1,-1.2052437E-1,-8.0900624E-2,-1.4544307E-2,-5.074814E-4,5.7730738E-2,-5.823958E-2,1.6134227E-2,6.1951533E-2,5.1711984E-3,9.202572E-2,1.477449E-1,1.3745262E-1,-2.9029518E-3,1.6725376E-1,2.4145395E-1,-1.344287E-1,-1.7911364E-1,-1.4467303E-1,-9.981028E-2,-9.0616494E-2,-1.352542E-2,-4.98234E-2,1.6653877E-2,-2.1496188E-2,3.338801E-2,7.301059E-2,3.2644644E-2,-8.127299E-2,-3.0766204E-2,-4.5366954E-2,2.9454159E-2,3.383146E-2,8.069226E-2,-2.028115E-2,2.988696E-2,8.148751E-2,1.5369111E-1,1.6014943E-1,7.368793E-2,6.5841526E-2,1.5617914E-1,-7.762692E-2,7.1982294E-2,1.8781321E-1,1.10774785E-1,1.7379352E-1,2.548453E-1,-3.2394603E-3,-1.42768E-2,-1.857187E-2,-1.2972935E-2,-9.785871E-3,-1.5743492E-2,-1.2722387E-2,-8.236146E-3,-1.0114036E-2,-7.1938476E-4,-2.3538878E-3,1.0744776E-2,-8.305818E-3,-1.4195289E-3,7.7973614E-3,5.3747197E-5,2.060069E-3,-3.69647E-3,5.045728E-4,7.2779357E-3,5.896569E-3,1.0681317E-2,2.481442E-3,1.1143185E-2,-3.4584932E-3,-9.831803E-3,-6.9612465E-3,-9.3269156E-4,9.856456E-4,-9.147773E-3,7.3995427E-3,3.87465E-4,3.802338E-3,-1.1266928E-2,9.517071E-3,4.208823E-3,3.893875E-4,-6.646247E-3,3.4188852E-3,-1.4848321E-2,1.00811E-2,5.961917E-3,1.6974157E-2,4.520127E-3,1.4564908E-2,2.0213695E-2,5.1872632E-3,1.3486224E-2,2.0762354E-3,1.0568328E-2,2.1675961E-2,1.377284E-2,-9.033228E-3,-2.652653E-3,2.6279764E-4,1.8059222E-2,-6.1925887E-3,1.925131E-2,7.464785E-3,1.7198147E-2,1.936528E-2,8.588649E-3,2.092946E-2,2.71199E-2],"categories":[],"categories_nodes":[],"categories_segments":[],"categories_sizes":[],"default_left":[0,0,0,0,0,0,0,0,0,0,0,0,0,0,0,0,0,0,0,0,0,0,0,0,0,0,0,0,0,0,0,0,0,0,0,0,0,0,0,0,0,0,0,0,0,0,0,0,0,0,0,0,0,0,0,0,0,0,0,0,0,0,0,0,0,0,0,0,0,0,0,0,0,0,0,0,0,0,0,0,0,0,0,0,0,0,0,0,0,0,0,0,0,0,0,0,0,0,0,0,0,0,0,0,0,0,0,0,0,0,0,0,0,0,0,0,0,0,0,0,0,0,0,0,0,0,0],"id":4,"left_children":[1,3,5,7,9,11,13,15,17,19,21,23,25,27,29,31,33,35,37,39,41,43,45,47,49,51,53,55,57,59,61,63,65,67,69,71,73,75,77,79,81,83,85,87,89,91,93,95,97,99,101,103,105,107,109,111,113,115,117,119,121,123,125,-1,-1,-1,-1,-1,-1,-1,-1,-1,-1,-1,-1,-1,-1,-1,-1,-1,-1,-1,-1,-1,-1,-1,-1,-1,-1,-1,-1,-1,-1,-1,-1,-1,-1,-1,-1,-1,-1,-1,-1,-1,-1,-1,-1,-1,-1,-1,-1,-1,-1,-1,-1,-1,-1,-1,-1,-1,-1,-1,-1,-1,-1,-1,-1],"loss_changes":[1.6808734E2,5.1749542E1,2.9019302E1,1.454097E1,9.392158E0,9.477924E0,3.530754E0,2.1028671E0,3.4560776E0,4.8947506E0,4.5894303E0,2.24432E0,2.4377327E0,6.204848E-1,1.9256363E0,1.2462692E0,1.0215092E0,1.950819E0,1.1752167E0,2.7923396E0,8.727174E-1,2.0794296E0,9.106389E-1,8.3571196E-1,7.8002894E-1,1.1545944E0,1.2825642E0,5.5428934E-1,2.0143807E-1,5.1681995E-1,1.4027023E0,8.4796906E-1,5.4738617E-1,5.545502E-1,5.242996E-1,2.2871532E0,4.592118E-1,5.9205127E-1,5.602979E-1,1.5792122E0,1.6754104E0,6.6690254E-1,5.31489E-1,1.4202843E0,1.250271E0,5.050876E-1,1.0399342E0,3.9609218E-1,5.292096E-1,6.8240035E-1,4.877268E-1,6.4306164E-1,4.468093E-1,7.048149E-1,2.6524985E-1,1.5765274E-1,3.423586E-1,9.290285E-3,1.3511164E-1,4.0864754E-1,2.657745E-1,4.4948864E-1,9.347305E-1,0E0,0E0,0E0,0E0,0E0,0E0,0E0,0E0,0E0,0E0,0E0,0E0,0E0,0E0,0E0,0E0,0E0,0E0,0E0,0E0,0E0,0E0,0E0,0E0,0E0,0E0,0E0,0E0,0E0,0E0,0E0,0E0,0E0,0E0,0E0,0E0,0E0,0E0,0E0,0E0,0E0,0E0,0E0,0E0,0E0,0E0,0E0,0E0,0E0,0E0,0E0,0E0,0E0,0E0,0E0,0E0,0E0,0E0,0E0,0E0,0E0,0E0,0E0,0E0],"parents":[2147483647,0,0,1,1,2,2,3,3,4,4,5,5,6,6,7,7,8,8,9,9,10,10,11,11,12,12,13,13,14,14,15,15,16,16,17,17,18,18,19,19,20,20,21,21,22,22,23,23,24,24,25,25,26,26,27,27,28,28,29,29,30,30,31,31,32,32,33,33,34,34,35,35,36,36,37,37,38,38,39,39,40,40,41,41,42,42,43,43,44,44,45,45,46,46,47,47,48,48,49,49,50,50,51,51,52,52,53,53,54,54,55,55,56,56,57,57,58,58,59,59,60,60,61,61,62,62],"right_children":[2,4,6,8,10,12,14,16,18,20,22,24,26,28,30,32,34,36,38,40,42,44,46,48,50,52,54,56,58,60,62,64,66,68,70,72,74,76,78,80,82,84,86,88,90,92,94,96,98,100,102,104,106,108,110,112,114,116,118,120,122,124,126,-1,-1,-1,-1,-1,-1,-1,-1,-1,-1,-1,-1,-1,-1,-1,-1,-1,-1,-1,-1,-1,-1,-1,-1,-1,-1,-1,-1,-1,-1,-1,-1,-1,-1,-1,-1,-1,-1,-1,-1,-1,-1,-1,-1,-1,-1,-1,-1,-1,-1,-1,-1,-1,-1,-1,-1,-1,-1,-1,-1,-1,-1,-1,-1],"split_conditions":[4.2514095E-1,2.1167496E-1,5.833686E-1,1.3973491E-1,7.5E-1,1.427637E-1,2.9937702E-1,7.369818E-2,4.859066E-1,5.8766782E-2,5.363904E-1,5.3661484E-1,5.545164E-1,5E-1,2.7229813E-1,3.9954025E-1,2.477082E-1,1.1723924E-1,5.267793E-1,5.09271E-1,5E-1,3.6757853E-2,5E-1,4.3055555E-1,4.3055555E-1,5.650028E-1,5.833333E-4,1.145686E-1,9.329555E-2,1.6666666E-4,2.4380262E-1,6.69873E-2,1.1800995E-1,1.4950167E-1,4.235791E-1,4.3316412E-1,4.9E-1,2.6836908E-1,2.9473048E-1,2.0874168E-1,5.5594614E-4,4.0073043E-1,4.364072E-1,2.1088259E-1,4.168565E-1,2.1846154E-1,2.000246E-1,5.9628457E-1,9.330127E-1,3.571728E-1,9.11249E-1,5E-1,1.6666666E-4,7.277741E-1,4.2787018E-1,1.3829954E-1,1.79402E-1,2.953563E-1,2.5564298E-1,2.8748052E-2,7.5098616E-1,2.9174075E-1,6.438474E-1,-3.2394603E-3,-1.42768E-2,-1.857187E-2,-1.2972935E-2,-9.785871E-3,-1.5743492E-2,-1.2722387E-2,-8.236146E-3,-1.0114036E-2,-7.1938476E-4,-2.3538878E-3,1.0744776E-2,-8.305818E-3,-1.4195289E-3,7.7973614E-3,5.3747197E-5,2.060069E-3,-3.69647E-3,5.045728E-4,7.2779357E-3,5.896569E-3,1.0681317E-2,2.481442E-3,1.1143185E-2,-3.4584932E-3,-9.831803E-3,-6.9612465E-3,-9.3269156E-4,9.856456E-4,-9.147773E-3,7.3995427E-3,3.87465E-4,3.802338E-3,-1.1266928E-2,9.517071E-3,4.208823E-3,3.893875E-4,-6.646247E-3,3.4188852E-3,-1.4848321E-2,1.00811E-2,5.961917E-3,1.6974157E-2,4.520127E-3,1.4564908E-2,2.0213695E-2,5.1872632E-3,1.3486224E-2,2.0762354E-3,1.0568328E-2,2.1675961E-2,1.377284E-2,-9.033228E-3,-2.652653E-3,2.6279764E-4,1.8059222E-2,-6.1925887E-3,1.925131E-2,7.464785E-3,1.7198147E-2,1.936528E-2,8.588649E-3,2.092946E-2,2.71199E-2],"split_indices":[390,390,431,816,34,228,263,390,826,298,826,435,512,34,269,829,19,368,719,816,559,333,628,711,81,361,690,774,534,830,811,101,810,728,789,81,585,372,15,751,158,191,816,829,754,105,654,43,205,716,688,34,655,407,751,564,798,282,667,436,404,497,390,0,0,0,0,0,0,0,0,0,0,0,0,0,0,0,0,0,0,0,0,0,0,0,0,0,0,0,0,0,0,0,0,0,0,0,0,0,0,0,0,0,0,0,0,0,0,0,0,0,0,0,0,0,0,0,0,0,0,0,0,0,0,0,0],"split_type":[0,0,0,0,0,0,0,0,0,0,0,0,0,0,0,0,0,0,0,0,0,0,0,0,0,0,0,0,0,0,0,0,0,0,0,0,0,0,0,0,0,0,0,0,0,0,0,0,0,0,0,0,0,0,0,0,0,0,0,0,0,0,0,0,0,0,0,0,0,0,0,0,0,0,0,0,0,0,0,0,0,0,0,0,0,0,0,0,0,0,0,0,0,0,0,0,0,0,0,0,0,0,0,0,0,0,0,0,0,0,0,0,0,0,0,0,0,0,0,0,0,0,0,0,0,0,0],"sum_hessian":[2.8015E4,1.9472E4,8.543E3,8.869E3,1.0603E4,6.031E3,2.512E3,4.822E3,4.047E3,6.205E3,4.398E3,2.828E3,3.203E3,4.54E2,2.058E3,2.752E3,2.07E3,2.981E3,1.066E3,3.923E3,2.282E3,3.289E3,1.109E3,1.59E3,1.238E3,1.795E3,1.408E3,4.2E2,3.4E1,4.62E2,1.596E3,1.001E3,1.751E3,9.53E2,1.117E3,2.605E3,3.76E2,5E2,5.66E2,2.423E3,1.5E3,1.417E3,8.65E2,1.788E3,1.501E3,1.97E2,9.12E2,6.37E2,9.53E2,6.1E2,6.28E2,1.535E3,2.6E2,1.205E3,2.03E2,8.8E1,3.32E2,1.7E1,1.7E1,3.37E2,1.25E2,2.66E2,1.33E3,7.6E1,9.25E2,1.542E3,2.09E2,2.06E2,7.47E2,4.32E2,6.85E2,2.313E3,2.92E2,3.48E2,2.8E1,2.58E2,2.42E2,1.17E2,4.49E2,6.51E2,1.772E3,8.73E2,6.27E2,1.003E3,4.14E2,7.88E2,7.7E1,4.79E2,1.309E3,5.33E2,9.68E2,9E1,1.07E2,3.32E2,5.8E2,6.2E2,1.7E1,6.92E2,2.61E2,4.01E2,2.09E2,6.14E2,1.4E1,8.13E2,7.22E2,2.26E2,3.4E1,8.99E2,3.06E2,1.51E2,5.2E1,4.2E1,4.6E1,7.5E1,2.57E2,1.3E1,4E0,1.1E1,6E0,6E0,3.31E2,8E1,4.5E1,2.16E2,5E1,3.55E2,9.75E2],"tree_param":{"num_deleted":"0","num_feature":"840","num_nodes":"127","size_leaf_vector":"1"}},{"base_weights":[2.068261E-5,-6.524699E-2,7.5198814E-2,-1.0832185E-1,-2.3061628E-2,4.284416E-2,1.7110687E-1,-1.3286018E-1,-7.0948094E-2,6.877792E-3,-4.6798054E-2,1.6500806E-2,7.994101E-2,1.4053817E-1,2.1677169E-1,-1.0802274E-1,-1.5135895E-1,-1.0024319E-1,-3.5099253E-2,-1.6868275E-2,2.4360977E-2,-6.259937E-2,1.070627E-2,-4.472047E-3,4.5799367E-2,1.045526E-1,4.268354E-2,7.9902045E-2,1.584371E-1,2.507049E-1,1.8576585E-1,-1.2150887E-1,-7.876186E-2,-1.2590215E-1,-1.647485E-1,-1.0899859E-1,-5.743182E-2,2.1771617E-2,-6.015846E-2,-2.9511E-2,1.2661048E-2,3.641188E-2,-1.5265962E-2,-1.6892968E-2,-7.773019E-2,-6.8920446E-3,5.65726E-2,-1.8200688E-2,2.685592E-2,6.394225E-2,1.1229875E-2,1.2414799E-1,7.469676E-2,8.472846E-2,1.9369692E-2,1.0099251E-1,2.589258E-2,1.707432E-1,7.999309E-2,2.2459912E-1,2.8397745E-1,2.0751393E-1,1.1841779E-1,-1.3219257E-2,-7.549712E-3,-4.8524635E-3,-1.3024549E-2,-6.3450984E-3,-1.3943614E-2,-1.15083E-2,-1.7042166E-2,-1.1495999E-2,-5.6111305E-3,-1.2306064E-2,-4.0245056E-3,5.3868843E-3,-1.8028641E-3,-8.325252E-3,-2.416725E-3,-4.1750357E-3,5.296376E-4,-1.2025879E-3,3.9203945E-3,1.5746845E-3,5.913574E-3,2.7848536E-3,-4.8814802E-3,-5.9204064E-3,1.9990296E-4,-9.4377585E-3,-4.115987E-3,-1.6703615E-3,7.2232555E-3,1.374905E-2,3.6462464E-3,3.1178154E-3,-3.6185652E-3,4.176374E-3,-3.531101E-4,7.69237E-3,3.3357132E-3,2.028764E-3,-6.056668E-3,8.662999E-3,1.3797434E-2,8.137177E-3,7.0979155E-4,7.331755E-3,1.43714715E-2,-3.7504945E-4,7.1185078E-3,3.994644E-3,1.1735421E-2,5.376529E-3,-3.0454993E-3,1.1613979E-2,1.8260045E-2,1.2446737E-2,5.064755E-3,2.009907E-2,2.8040817E-2,2.4979569E-2,3.175661E-2,1.8334715E-2,2.666193E-2,1.4210324E-2,3.1779178E-3],"categories":[],"categories_nodes":[],"categories_segments":[],"categories_sizes":[],"default_left":[0,0,0,0,0,0,0,0,0,0,0,0,0,0,0,0,0,0,0,0,0,0,0,0,0,0,0,0,0,0,0,0,0,0,0,0,0,0,0,0,0,0,0,0,0,0,0,0,0,0,0,0,0,0,0,0,0,0,0,0,0,0,0,0,0,0,0,0,0,0,0,0,0,0,0,0,0,0,0,0,0,0,0,0,0,0,0,0,0,0,0,0,0,0,0,0,0,0,0,0,0,0,0,0,0,0,0,0,0,0,0,0,0,0,0,0,0,0,0,0,0,0,0,0,0,0,0],"id":5,"left_children":[1,3,5,7,9,11,13,15,17,19,21,23,25,27,29,31,33,35,37,39,41,43,45,47,49,51,53,55,57,59,61,63,65,67,69,71,73,75,77,79,81,83,85,87,89,91,93,95,97,99,101,103,105,107,109,111,113,115,117,119,121,123,125,-1,-1,-1,-1,-1,-1,-1,-1,-1,-1,-1,-1,-1,-1,-1,-1,-1,-1,-1,-1,-1,-1,-1,-1,-1,-1,-1,-1,-1,-1,-1,-1,-1,-1,-1,-1,-1,-1,-1,-1,-1,-1,-1,-1,-1,-1,-1,-1,-1,-1,-1,-1,-1,-1,-1,-1,-1,-1,-1,-1,-1,-1,-1,-1],"loss_changes":[1.3747107E2,2.7248978E1,4.0394676E1,6.7953796E0,5.385664E0,9.514217E0,4.5537186E0,2.04113E0,3.087206E0,1.3920169E0,3.841507E0,3.4996367E0,3.7028275E0,2.1254196E0,1.3369751E0,7.4612045E-1,8.5321045E-1,6.0058975E-1,1.8896189E0,5.312504E-1,9.226862E-1,2.2919521E0,7.3652905E-1,1.4283888E0,1.4894857E0,1.4147072E0,1.5765269E0,5.1111245E-1,1.453659E0,4.7909927E-1,9.8752785E-1,6.334934E-1,9.386103E-1,7.417021E-1,4.5289993E-1,4.169731E-1,3.074888E-1,5.196272E-1,7.6267624E-1,4.2453694E-1,2.8026855E-1,6.945306E-1,6.537045E-1,6.6037416E-1,1.5126362E0,5.1358867E-1,4.0668613E-1,2.0516973E0,4.585877E-1,6.1602163E-1,5.338378E-1,7.495537E-1,4.357543E-1,3.758149E-1,1.2425735E0,3.1892848E-1,2.0266907E-1,8.2889557E-1,2.651614E-1,4.1137695E-1,2.3181343E-1,6.953049E-1,3.4638882E-1,0E0,0E0,0E0,0E0,0E0,0E0,0E0,0E0,0E0,0E0,0E0,0E0,0E0,0E0,0E0,0E0,0E0,0E0,0E0,0E0,0E0,0E0,0E0,0E0,0E0,0E0,0E0,0E0,0E0,0E0,0E0,0E0,0E0,0E0,0E0,0E0,0E0,0E0,0E0,0E0,0E0,0E0,0E0,0E0,0E0,0E0,0E0,0E0,0E0,0E0,0E0,0E0,0E0,0E0,0E0,0E0,0E0,0E0,0E0,0E0,0E0,0E0,0E0,0E0],"parents":[2147483647,0,0,1,1,2,2,3,3,4,4,5,5,6,6,7,7,8,8,9,9,10,10,11,11,12,12,13,13,14,14,15,15,16,16,17,17,18,18,19,19,20,20,21,21,22,22,23,23,24,24,25,25,26,26,27,27,28,28,29,29,30,30,31,31,32,32,33,33,34,34,35,35,36,36,37,37,38,38,39,39,40,40,41,41,42,42,43,43,44,44,45,45,46,46,47,47,48,48,49,49,50,50,51,51,52,52,53,53,54,54,55,55,56,56,57,57,58,58,59,59,60,60,61,61,62,62],"right_children":[2,4,6,8,10,12,14,16,18,20,22,24,26,28,30,32,34,36,38,40,42,44,46,48,50,52,54,56,58,60,62,64,66,68,70,72,74,76,78,80,82,84,86,88,90,92,94,96,98,100,102,104,106,108,110,112,114,116,118,120,122,124,126,-1,-1,-1,-1,-1,-1,-1,-1,-1,-1,-1,-1,-1,-1,-1,-1,-1,-1,-1,-1,-1,-1,-1,-1,-1,-1,-1,-1,-1,-1,-1,-1,-1,-1,-1,-1,-1,-1,-1,-1,-1,-1,-1,-1,-1,-1,-1,-1,-1,-1,-1,-1,-1,-1,-1,-1,-1,-1,-1,-1,-1,-1,-1,-1],"split_conditions":[3.0442753E-1,2.2361526E-1,5.60796E-1,1.4334992E-1,1.3816112E-1,1.3252775E-1,6.6539764E-1,5.231111E-1,6.226597E-2,3.4055978E-1,1.962163E-4,4.3055555E-1,5E-1,1.7250682E-1,1.9601329E-1,7.5E-1,4.073444E-1,3.916667E-3,7.5E-1,1.3265857E-1,9.829629E-1,2.4074207E-1,4.2527363E-1,3.0707851E-2,9.330127E-1,6.045169E-1,4.0042278E-1,6.613423E-1,4.1666668E-4,4.405317E-1,4.443322E-1,3.767026E-1,6.9270605E-1,2.5E-1,3.6568612E-1,6.026266E-1,8.0830514E-2,1.8238078E-1,2.4590382E-1,4.6843854E-1,3.4405068E-1,7.5E-1,2.804416E-1,2.9028186E-1,4.2911232E-1,5.621098E-1,5.654537E-1,1.392877E-1,7.5E-1,6.30132E-1,7.679299E-1,2.834598E-1,8.452363E-1,5.2515495E-1,4.073296E-1,1.8769231E-1,1.5818809E-1,1.1299701E-1,1.9112629E-1,4.7377327E-1,7.7479273E-1,7.423505E-1,6.6512734E-1,-1.3219257E-2,-7.549712E-3,-4.8524635E-3,-1.3024549E-2,-6.3450984E-3,-1.3943614E-2,-1.15083E-2,-1.7042166E-2,-1.1495999E-2,-5.6111305E-3,-1.2306064E-2,-4.0245056E-3,5.3868843E-3,-1.8028641E-3,-8.325252E-3,-2.416725E-3,-4.1750357E-3,5.296376E-4,-1.2025879E-3,3.9203945E-3,1.5746845E-3,5.913574E-3,2.7848536E-3,-4.8814802E-3,-5.9204064E-3,1.9990296E-4,-9.4377585E-3,-4.115987E-3,-1.6703615E-3,7.2232555E-3,1.374905E-2,3.6462464E-3,3.1178154E-3,-3.6185652E-3,4.176374E-3,-3.531101E-4,7.69237E-3,3.3357132E-3,2.028764E-3,-6.056668E-3,8.662999E-3,1.3797434E-2,8.137177E-3,7.0979155E-4,7.331755E-3,1.43714715E-2,-3.7504945E-4,7.1185078E-3,3.994644E-3,1.1735421E-2,5.376529E-3,-3.0454993E-3,1.1613979E-2,1.8260045E-2,1.2446737E-2,5.064755E-3,2.009907E-2,2.8040817E-2,2.4979569E-2,3.175661E-2,1.8334715E-2,2.666193E-2,1.4210324E-2,3.1779178E-3],"split_indices":[396,810,425,390,738,228,431,773,263,816,228,781,34,263,763,33,829,830,524,333,205,829,810,298,205,548,575,369,725,712,688,442,409,31,812,352,116,674,425,833,617,348,829,826,826,512,575,794,34,583,365,821,645,407,792,770,9,424,771,86,390,361,618,0,0,0,0,0,0,0,0,0,0,0,0,0,0,0,0,0,0,0,0,0,0,0,0,0,0,0,0,0,0,0,0,0,0,0,0,0,0,0,0,0,0,0,0,0,0,0,0,0,0,0,0,0,0,0,0,0,0,0,0,0,0,0,0],"split_type":[0,0,0,0,0,0,0,0,0,0,0,0,0,0,0,0,0,0,0,0,0,0,0,0,0,0,0,0,0,0,0,0,0,0,0,0,0,0,0,0,0,0,0,0,0,0,0,0,0,0,0,0,0,0,0,0,0,0,0,0,0,0,0,0,0,0,0,0,0,0,0,0,0,0,0,0,0,0,0,0,0,0,0,0,0,0,0,0,0,0,0,0,0,0,0,0,0,0,0,0,0,0,0,0,0,0,0,0,0,0,0,0,0,0,0,0,0,0,0,0,0,0,0,0,0,0,0],"sum_hessian":[2.8015E4,1.4996E4,1.3019E4,7.419E3,7.577E3,9.736E3,3.283E3,4.477E3,2.942E3,3.351E3,4.226E3,5.694E3,4.042E3,1.969E3,1.314E3,1.914E3,2.563E3,1.618E3,1.324E3,1.421E3,1.93E3,3.315E3,9.11E2,3.319E3,2.375E3,2.433E3,1.609E3,4.5E2,1.519E3,6.24E2,6.9E2,1.308E3,6.06E2,8.87E2,1.676E3,1.342E3,2.76E2,4.05E2,9.19E2,9.95E2,4.26E2,1.48E3,4.5E2,8.25E2,2.49E3,6.59E2,2.52E2,2.308E3,1.011E3,1.557E3,8.18E2,1.467E3,9.66E2,5.73E2,1.036E3,3.23E2,1.27E2,1.312E3,2.07E2,3.54E2,2.7E2,5.2E2,1.7E2,1.06E3,2.48E2,3.83E2,2.23E2,1.59E2,7.28E2,1.74E2,1.502E3,1.205E3,1.37E2,5.6E1,2.2E2,2.24E2,1.81E2,5.59E2,3.6E2,7.36E2,2.59E2,2.21E2,2.05E2,7.76E2,7.04E2,1.97E2,2.53E2,2.54E2,5.71E2,1.71E3,7.8E2,5.87E2,7.2E1,4.9E1,2.03E2,6.16E2,1.692E3,6.78E2,3.33E2,1.092E3,4.65E2,7.27E2,9.1E1,3.97E2,1.07E3,8.79E2,8.7E1,4.82E2,9.1E1,7.17E2,3.19E2,6.9E1,2.54E2,8.5E1,4.2E1,2.36E2,1.076E3,8.1E1,1.26E2,2.52E2,1.02E2,1.38E2,1.32E2,3.72E2,1.48E2,1.33E2,3.7E1],"tree_param":{"num_deleted":"0","num_feature":"840","num_nodes":"127","size_leaf_vector":"1"}},{"base_weights":[2.5141366E-5,-6.568981E-2,6.083134E-2,-9.8538056E-2,-2.2550384E-2,3.3648357E-2,1.539443E-1,-1.223069E-1,-7.1264975E-2,5.9341732E-3,-4.581092E-2,1.1065895E-2,6.3678175E-2,1.20585926E-1,1.8931977E-1,-1.04956225E-1,-1.4551693E-1,3.8637083E-2,-7.7918366E-2,3.7416648E-2,-7.3734317E-3,-5.957686E-2,6.461137E-3,-1.8966306E-2,3.2391325E-2,7.8960076E-2,5.1407544E-3,8.05205E-2,1.4669648E-1,2.0100074E-1,1.1095072E-1,-8.2522E-2,-1.1784111E-1,-1.4694175E-1,4.1045796E-2,-2.5876386E-3,1.1425167E-1,-9.221473E-2,-4.438799E-2,3.0324532E-2,1.283128E-1,-2.4401808E-2,1.9911246E-2,-7.750706E-2,-2.3001786E-2,-2.7698018E-2,2.6011307E-2,-1.063604E-2,-7.84394E-2,4.0592115E-2,-1.122629E-2,8.918403E-2,3.862057E-2,6.0500745E-2,-9.61442E-3,9.04572E-2,1.0951577E-2,1.037979E-1,1.707708E-1,2.238274E-1,1.6870354E-1,3.975699E-2,1.4002545E-1,-9.731869E-3,-2.1708717E-3,5.1885997E-3,-1.2007777E-2,-4.9744267E-3,-1.49862785E-2,-1.2580405E-2,1.2036614E-2,5.3009307E-3,-3.46072E-3,1.7190084E-2,6.10639E-3,-1.0070422E-2,-5.265409E-3,-1.9789943E-3,-8.661656E-3,8.018841E-4,6.838961E-3,1.623574E-2,-1.0047224E-3,-4.0518628E-3,2.1154748E-3,1.4414083E-3,9.870926E-3,-8.443907E-3,1.458369E-3,8.219186E-5,-4.50708E-3,-4.810267E-3,5.885132E-3,-1.4317812E-2,3.000623E-3,-3.2822434E-3,1.3557004E-3,-1.0725393E-2,-6.6389993E-4,3.058791E-3,8.049759E-3,5.7630907E-3,-2.423467E-3,6.3888743E-3,1.0877207E-2,4.1502872E-3,-2.4362868E-2,7.22783E-3,-6.231865E-3,-2.5792315E-3,4.0729367E-3,1.2179092E-2,6.9636884E-3,-2.7964036E-3,7.964212E-3,1.4471973E-2,6.275865E-3,1.7506618E-2,-7.29993E-5,2.1282187E-2,2.9802442E-2,1.8597744E-2,1.0395892E-2,-2.0028427E-3,1.0419573E-2,1.8142987E-2,8.284733E-3],"categories":[],"categories_nodes":[],"categories_segments":[],"categories_sizes":[],"default_left":[0,0,0,0,0,0,0,0,0,0,0,0,0,0,0,0,0,0,0,0,0,0,0,0,0,0,0,0,0,0,0,0,0,0,0,0,0,0,0,0,0,0,0,0,0,0,0,0,0,0,0,0,0,0,0,0,0,0,0,0,0,0,0,0,0,0,0,0,0,0,0,0,0,0,0,0,0,0,0,0,0,0,0,0,0,0,0,0,0,0,0,0,0,0,0,0,0,0,0,0,0,0,0,0,0,0,0,0,0,0,0,0,0,0,0,0,0,0,0,0,0,0,0,0,0,0,0],"id":6,"left_children":[1,3,5,7,9,11,13,15,17,19,21,23,25,27,29,31,33,35,37,39,41,43,45,47,49,51,53,55,57,59,61,63,65,67,69,71,73,75,77,79,81,83,85,87,89,91,93,95,97,99,101,103,105,107,109,111,113,115,117,119,121,123,125,-1,-1,-1,-1,-1,-1,-1,-1,-1,-1,-1,-1,-1,-1,-1,-1,-1,-1,-1,-1,-1,-1,-1,-1,-1,-1,-1,-1,-1,-1,-1,-1,-1,-1,-1,-1,-1,-1,-1,-1,-1,-1,-1,-1,-1,-1,-1,-1,-1,-1,-1,-1,-1,-1,-1,-1,-1,-1,-1,-1,-1,-1,-1,-1],"loss_changes":[1.1195245E2,1.9078419E1,3.682721E1,4.9465027E0,3.8577313E0,7.638624E0,3.8572311E0,1.6289902E0,2.6076221E0,1.0971037E0,2.3066201E0,4.1193457E0,4.324806E0,1.7613792E0,1.4368935E0,6.666832E-1,4.6961594E-1,6.3620245E-1,1.6060848E0,4.976436E-1,8.558398E-1,1.6619768E0,4.4749022E-1,1.3224503E0,1.3457618E0,1.5778084E0,8.190617E-1,4.6286154E-1,1.0408497E0,9.8404694E-1,4.270501E-1,7.690468E-1,5.695858E-1,4.8400497E-1,2.0042679E-1,2.3859975E-1,2.1027172E-1,7.8528976E-1,1.0432585E0,6.133276E-1,2.6541436E-1,8.334703E-1,3.0525842E-1,1.0877466E0,4.3957716E-1,4.337371E-1,2.922291E-1,1.258602E0,6.7788553E-1,1.261476E0,5.352462E-1,1.5082455E0,6.422224E-1,3.0971825E-1,6.461E-1,3.74465E-1,2.2944358E-1,6.139755E-1,4.8264122E-1,5.971832E-1,6.270981E-1,2.4094167E-1,3.3534813E-1,0E0,0E0,0E0,0E0,0E0,0E0,0E0,0E0,0E0,0E0,0E0,0E0,0E0,0E0,0E0,0E0,0E0,0E0,0E0,0E0,0E0,0E0,0E0,0E0,0E0,0E0,0E0,0E0,0E0,0E0,0E0,0E0,0E0,0E0,0E0,0E0,0E0,0E0,0E0,0E0,0E0,0E0,0E0,0E0,0E0,0E0,0E0,0E0,0E0,0E0,0E0,0E0,0E0,0E0,0E0,0E0,0E0,0E0,0E0,0E0,0E0,0E0,0E0,0E0],"parents":[2147483647,0,0,1,1,2,2,3,3,4,4,5,5,6,6,7,7,8,8,9,9,10,10,11,11,12,12,13,13,14,14,15,15,16,16,17,17,18,18,19,19,20,20,21,21,22,22,23,23,24,24,25,25,26,26,27,27,28,28,29,29,30,30,31,31,32,32,33,33,34,34,35,35,36,36,37,37,38,38,39,39,40,40,41,41,42,42,43,43,44,44,45,45,46,46,47,47,48,48,49,49,50,50,51,51,52,52,53,53,54,54,55,55,56,56,57,57,58,58,59,59,60,60,61,61,62,62],"right_children":[2,4,6,8,10,12,14,16,18,20,22,24,26,28,30,32,34,36,38,40,42,44,46,48,50,52,54,56,58,60,62,64,66,68,70,72,74,76,78,80,82,84,86,88,90,92,94,96,98,100,102,104,106,108,110,112,114,116,118,120,122,124,126,-1,-1,-1,-1,-1,-1,-1,-1,-1,-1,-1,-1,-1,-1,-1,-1,-1,-1,-1,-1,-1,-1,-1,-1,-1,-1,-1,-1,-1,-1,-1,-1,-1,-1,-1,-1,-1,-1,-1,-1,-1,-1,-1,-1,-1,-1,-1,-1,-1,-1,-1,-1,-1,-1,-1,-1,-1,-1,-1,-1,-1,-1,-1,-1],"split_conditions":[3.1555554E-1,2.510116E-1,5.60796E-1,1.146932E-1,1.3816112E-1,1.065945E-1,6.3934714E-1,6.546217E-1,5E-1,4.8300743E-1,4.9054073E-5,4.057048E-1,7.5E-1,7.810813E-2,2.5E-4,4.417835E-1,9.0886945E-1,3.2085383E-1,1.3252775E-1,6.175973E-1,8.6989224E-2,4.2911232E-1,3.2300478E-1,6.198589E-1,9.829629E-1,1.6666666E-4,2.4898082E-1,5E-1,3.1844458E-1,2.3255815E-1,1.7428885E-1,7.5E-1,3.4743294E-2,6.8687074E-2,6.6211605E-1,3.7059048E-1,5E-1,2.3333333E-3,9.330127E-1,5.0255203E-1,4.778157E-1,5.810758E-1,6.56E-1,5.498337E-1,3.7765458E-1,1.3772748E-1,6.129353E-2,7.5E-1,8.175679E-5,6.4819515E-1,8.979578E-2,4.3588722E-1,5.854834E-1,5.086538E-1,3.7337846E-1,4.2313462E-1,3.750511E-1,5.8640593E-1,8.7320185E-1,8.5812867E-1,5.1165307E-1,3.2285437E-1,1.9106717E-1,-9.731869E-3,-2.1708717E-3,5.1885997E-3,-1.2007777E-2,-4.9744267E-3,-1.49862785E-2,-1.2580405E-2,1.2036614E-2,5.3009307E-3,-3.46072E-3,1.7190084E-2,6.10639E-3,-1.0070422E-2,-5.265409E-3,-1.9789943E-3,-8.661656E-3,8.018841E-4,6.838961E-3,1.623574E-2,-1.0047224E-3,-4.0518628E-3,2.1154748E-3,1.4414083E-3,9.870926E-3,-8.443907E-3,1.458369E-3,8.219186E-5,-4.50708E-3,-4.810267E-3,5.885132E-3,-1.4317812E-2,3.000623E-3,-3.2822434E-3,1.3557004E-3,-1.0725393E-2,-6.6389993E-4,3.058791E-3,8.049759E-3,5.7630907E-3,-2.423467E-3,6.3888743E-3,1.0877207E-2,4.1502872E-3,-2.4362868E-2,7.22783E-3,-6.231865E-3,-2.5792315E-3,4.0729367E-3,1.2179092E-2,6.9636884E-3,-2.7964036E-3,7.964212E-3,1.4471973E-2,6.275865E-3,1.7506618E-2,-7.29993E-5,2.1282187E-2,2.9802442E-2,1.8597744E-2,1.0395892E-2,-2.0028427E-3,1.0419573E-2,1.8142987E-2,8.284733E-3],"split_indices":[390,810,390,390,773,263,431,808,314,163,228,810,839,388,795,818,675,219,298,151,368,826,116,576,205,830,435,34,724,833,74,33,407,156,36,206,837,795,769,825,141,825,270,372,829,438,355,103,333,816,786,425,374,0,816,754,333,793,427,407,758,462,408,0,0,0,0,0,0,0,0,0,0,0,0,0,0,0,0,0,0,0,0,0,0,0,0,0,0,0,0,0,0,0,0,0,0,0,0,0,0,0,0,0,0,0,0,0,0,0,0,0,0,0,0,0,0,0,0,0,0,0,0,0,0,0,0],"split_type":[0,0,0,0,0,0,0,0,0,0,0,0,0,0,0,0,0,0,0,0,0,0,0,0,0,0,0,0,0,0,0,0,0,0,0,0,0,0,0,0,0,0,0,0,0,0,0,0,0,0,0,0,0,0,0,0,0,0,0,0,0,0,0,0,0,0,0,0,0,0,0,0,0,0,0,0,0,0,0,0,0,0,0,0,0,0,0,0,0,0,0,0,0,0,0,0,0,0,0,0,0,0,0,0,0,0,0,0,0,0,0,0,0,0,0,0,0,0,0,0,0,0,0,0,0,0,0],"sum_hessian":[2.8015E4,1.3464E4,1.4551E4,7.643E3,5.821E3,1.1264E4,3.287E3,4.082E3,3.561E3,2.617E3,3.204E3,6.43E3,4.834E3,1.694E3,1.593E3,2.339E3,1.743E3,2.03E2,3.358E3,7.77E2,1.84E3,2.536E3,6.68E2,2.67E3,3.76E3,3.833E3,1.001E3,6.7E2,1.024E3,1.385E3,2.08E2,8.56E2,1.483E3,1.73E3,1.3E1,1.32E2,7.1E1,2.353E3,1.005E3,7.22E2,5.5E1,1.133E3,7.07E2,1.701E3,8.35E2,2.43E2,4.25E2,2.343E3,3.27E2,3.165E3,5.95E2,3.057E3,7.76E2,2.1E2,7.91E2,5.86E2,8.4E1,3.7E2,6.54E2,8.08E2,5.77E2,6.1E1,1.47E2,6.88E2,1.68E2,1.9E1,1.464E3,5.1E1,1.679E3,4E0,9E0,4.8E1,8.4E1,3.3E1,3.8E1,1.936E3,4.17E2,6.36E2,3.69E2,4.56E2,2.66E2,4.4E1,1.1E1,8.37E2,2.96E2,6.62E2,4.5E1,1.582E3,1.19E2,4.02E2,4.33E2,1.97E2,4.6E1,9E0,4.16E2,1.222E3,1.121E3,2.33E2,9.4E1,2.532E3,6.33E2,9.4E1,5.01E2,1.336E3,1.721E3,7.69E2,7E0,1.92E2,1.8E1,5.99E2,1.92E2,2.32E2,3.54E2,5.4E1,3E1,1.84E2,1.86E2,6.38E2,1.6E1,7.07E2,1.01E2,4.54E2,1.23E2,3.2E1,2.9E1,8.4E1,6.3E1],"tree_param":{"num_deleted":"0","num_feature":"840","num_nodes":"127","size_leaf_vector":"1"}},{"base_weights":[2.7931215E-5,-5.620894E-2,5.7972405E-2,-8.753233E-2,-1.935916E-2,3.2568004E-2,1.3917468E-1,-1.0955723E-1,-6.1685298E-2,-3.6845908E-2,1.5272314E-2,1.0201166E-2,6.054592E-2,8.048933E-2,1.5583189E-1,-8.42724E-2,-1.2353698E-1,-7.807414E-2,-1.6698027E-2,-6.139949E-2,-5.520468E-3,1.6929698E-4,6.0498524E-2,-6.0363226E-3,3.377974E-2,8.325267E-2,2.8885981E-2,4.132951E-2,1.0596937E-1,9.392596E-2,1.70146E-1,-9.232705E-2,-2.32856E-2,-1.02042265E-1,-1.3785675E-1,-6.05783E-2,-9.567213E-2,6.0045826E-3,-7.924412E-2,-7.130898E-2,1.8620428E-2,1.6103553E-2,-3.0192813E-2,-3.4349397E-2,9.35645E-3,3.1232003E-2,8.230235E-2,2.6306646E-2,-1.64772E-2,4.6257995E-2,-1.0254218E-2,6.384553E-2,1.0889183E-1,6.679101E-2,1.03878025E-2,7.631082E-2,8.40476E-3,1.1770428E-1,3.093706E-2,1.179834E-1,5.747965E-2,1.9166324E-1,1.398703E-1,-3.6083225E-3,-9.920574E-3,2.442541E-3,-1.0172824E-2,-1.100112E-2,-1.395854E-3,3.6930628E-3,-1.3920166E-2,-2.9239848E-3,-7.5087897E-3,-8.180468E-3,-1.1661146E-2,-3.975765E-3,2.5231144E-3,3.5163134E-3,-9.034031E-3,-2.4190296E-3,-8.547251E-3,-4.4096704E-3,5.0931415E-3,3.8820686E-5,5.7728114E-3,-1.4017761E-3,-6.6432776E-3,-5.6018685E-3,2.2664561E-3,-8.869053E-4,4.2323223E-3,1.9052214E-3,1.111612E-2,7.1549914E-3,1.6874742E-2,7.801848E-3,4.0750383E-4,-2.8654288E-3,1.2238141E-3,5.578119E-3,1.5825456E-3,-1.7054388E-3,1.3949971E-2,5.2509103E-3,1.133388E-2,8.188921E-3,1.34320455E-2,-1.3151713E-2,6.9191763E-3,-2.8755874E-4,5.5968016E-3,4.9610944E-3,1.0815653E-2,-5.2997745E-3,3.522486E-3,-2.475119E-3,1.2401672E-2,7.863464E-3,-2.4406286E-3,1.2752038E-2,1.7270524E-4,4.2167804E-3,1.135905E-2,1.75335E-2,2.2764033E-2,9.7208675E-3,1.6527219E-2],"categories":[],"categories_nodes":[],"categories_segments":[],"categories_sizes":[],"default_left":[0,0,0,0,0,0,0,0,0,0,0,0,0,0,0,0,0,0,0,0,0,0,0,0,0,0,0,0,0,0,0,0,0,0,0,0,0,0,0,0,0,0,0,0,0,0,0,0,0,0,0,0,0,0,0,0,0,0,0,0,0,0,0,0,0,0,0,0,0,0,0,0,0,0,0,0,0,0,0,0,0,0,0,0,0,0,0,0,0,0,0,0,0,0,0,0,0,0,0,0,0,0,0,0,0,0,0,0,0,0,0,0,0,0,0,0,0,0,0,0,0,0,0,0,0,0,0],"id":7,"left_children":[1,3,5,7,9,11,13,15,17,19,21,23,25,27,29,31,33,35,37,39,41,43,45,47,49,51,53,55,57,59,61,63,65,67,69,71,73,75,77,79,81,83,85,87,89,91,93,95,97,99,101,103,105,107,109,111,113,115,117,119,121,123,125,-1,-1,-1,-1,-1,-1,-1,-1,-1,-1,-1,-1,-1,-1,-1,-1,-1,-1,-1,-1,-1,-1,-1,-1,-1,-1,-1,-1,-1,-1,-1,-1,-1,-1,-1,-1,-1,-1,-1,-1,-1,-1,-1,-1,-1,-1,-1,-1,-1,-1,-1,-1,-1,-1,-1,-1,-1,-1,-1,-1,-1,-1,-1,-1],"loss_changes":[9.129664E1,1.6409573E1,2.846136E1,4.368141E0,3.9574995E0,6.5775566E0,3.20158E0,1.4558067E0,2.6072273E0,3.3393192E0,1.4979233E0,2.2372365E0,3.3548317E0,7.23012E-1,2.25251E0,7.248678E-1,8.0744934E-1,7.9256725E-1,1.3437575E0,1.9313831E0,1.0189669E0,5.219978E-1,3.4775853E-1,1.1691749E0,1.309854E0,1.3459759E0,1.3679979E0,3.3221465E-1,3.8465786E-1,4.1671467E-1,1.3269081E0,5.0207615E-1,6.5369326E-1,7.5023556E-1,3.810234E-1,5.902896E-1,3.653345E-1,6.1249906E-1,3.2308662E-1,1.443449E0,5.4736155E-1,6.6589653E-1,5.219442E-1,4.2873594E-1,7.814621E-1,2.2763303E-1,2.7978754E-1,9.711255E-1,9.1543496E-1,5.373037E-1,5.390507E-1,8.6371756E-1,7.9236794E-1,3.1379652E-1,7.939327E-1,1.1367297E-1,2.4889003E-1,3.4568024E-1,1.6294351E-1,3.213129E-1,1.6188729E-1,6.7206573E-1,9.234886E-1,0E0,0E0,0E0,0E0,0E0,0E0,0E0,0E0,0E0,0E0,0E0,0E0,0E0,0E0,0E0,0E0,0E0,0E0,0E0,0E0,0E0,0E0,0E0,0E0,0E0,0E0,0E0,0E0,0E0,0E0,0E0,0E0,0E0,0E0,0E0,0E0,0E0,0E0,0E0,0E0,0E0,0E0,0E0,0E0,0E0,0E0,0E0,0E0,0E0,0E0,0E0,0E0,0E0,0E0,0E0,0E0,0E0,0E0,0E0,0E0,0E0,0E0,0E0,0E0],"parents":[2147483647,0,0,1,1,2,2,3,3,4,4,5,5,6,6,7,7,8,8,9,9,10,10,11,11,12,12,13,13,14,14,15,15,16,16,17,17,18,18,19,19,20,20,21,21,22,22,23,23,24,24,25,25,26,26,27,27,28,28,29,29,30,30,31,31,32,32,33,33,34,34,35,35,36,36,37,37,38,38,39,39,40,40,41,41,42,42,43,43,44,44,45,45,46,46,47,47,48,48,49,49,50,50,51,51,52,52,53,53,54,54,55,55,56,56,57,57,58,58,59,59,60,60,61,61,62,62],"right_children":[2,4,6,8,10,12,14,16,18,20,22,24,26,28,30,32,34,36,38,40,42,44,46,48,50,52,54,56,58,60,62,64,66,68,70,72,74,76,78,80,82,84,86,88,90,92,94,96,98,100,102,104,106,108,110,112,114,116,118,120,122,124,126,-1,-1,-1,-1,-1,-1,-1,-1,-1,-1,-1,-1,-1,-1,-1,-1,-1,-1,-1,-1,-1,-1,-1,-1,-1,-1,-1,-1,-1,-1,-1,-1,-1,-1,-1,-1,-1,-1,-1,-1,-1,-1,-1,-1,-1,-1,-1,-1,-1,-1,-1,-1,-1,-1,-1,-1,-1,-1,-1,-1,-1,-1,-1,-1],"split_conditions":[3.2955223E-1,2.05055E-1,5.60796E-1,1.1781094E-1,4.9054073E-5,7.729287E-2,1.7872034E-1,4.659013E-1,1.8498291E-1,4.164914E-1,4.2569092E-1,4.3055555E-1,5E-1,2.3384616E-1,2.3045392E-1,9.330127E-1,4.4975844E-1,3.9961028E-1,9.330127E-1,6.562689E-1,1.8761653E-1,1.9496553E-1,3.6757853E-2,1.3911805E-1,9.829629E-1,3.9067867E-1,3.0752578E-1,2.0307693E-1,5E-1,5.77032E-1,3.0333686E-1,1.295681E-1,7.381168E-1,5.3583616E-1,3.1016584E-2,2.2004403E-1,5.747355E-1,3.840796E-2,1.9453925E-1,2.44593E-1,2.5E-1,3.25406E-1,2.784832E-1,6.1828434E-1,7.5E-1,4.4302562E-1,6.6646767E-1,4.76297E-1,1.0677436E-2,6.1286426E-1,7.1008986E-1,3.7664416E-1,2.9967135E-1,3.9128596E-3,4.5643404E-1,4.5645773E-1,2.838054E-1,8.9108914E-2,4.8044056E-1,6.782425E-1,5.483996E-1,7.270315E-1,3.2567725E-1,-3.6083225E-3,-9.920574E-3,2.442541E-3,-1.0172824E-2,-1.100112E-2,-1.395854E-3,3.6930628E-3,-1.3920166E-2,-2.9239848E-3,-7.5087897E-3,-8.180468E-3,-1.1661146E-2,-3.975765E-3,2.5231144E-3,3.5163134E-3,-9.034031E-3,-2.4190296E-3,-8.547251E-3,-4.4096704E-3,5.0931415E-3,3.8820686E-5,5.7728114E-3,-1.4017761E-3,-6.6432776E-3,-5.6018685E-3,2.2664561E-3,-8.869053E-4,4.2323223E-3,1.9052214E-3,1.111612E-2,7.1549914E-3,1.6874742E-2,7.801848E-3,4.0750383E-4,-2.8654288E-3,1.2238141E-3,5.578119E-3,1.5825456E-3,-1.7054388E-3,1.3949971E-2,5.2509103E-3,1.133388E-2,8.188921E-3,1.34320455E-2,-1.3151713E-2,6.9191763E-3,-2.8755874E-4,5.5968016E-3,4.9610944E-3,1.0815653E-2,-5.2997745E-3,3.522486E-3,-2.475119E-3,1.2401672E-2,7.863464E-3,-2.4406286E-3,1.2752038E-2,1.7270524E-4,4.2167804E-3,1.135905E-2,1.75335E-2,2.2764033E-2,9.7208675E-3,1.6527219E-2],"split_indices":[425,816,425,425,228,228,228,808,263,826,816,781,34,770,811,663,829,817,769,92,738,477,228,829,205,821,478,0,34,579,610,28,467,106,714,794,586,810,526,821,416,811,359,474,33,251,180,23,263,575,189,397,333,11,652,791,327,284,189,505,641,495,751,0,0,0,0,0,0,0,0,0,0,0,0,0,0,0,0,0,0,0,0,0,0,0,0,0,0,0,0,0,0,0,0,0,0,0,0,0,0,0,0,0,0,0,0,0,0,0,0,0,0,0,0,0,0,0,0,0,0,0,0,0,0,0,0],"split_type":[0,0,0,0,0,0,0,0,0,0,0,0,0,0,0,0,0,0,0,0,0,0,0,0,0,0,0,0,0,0,0,0,0,0,0,0,0,0,0,0,0,0,0,0,0,0,0,0,0,0,0,0,0,0,0,0,0,0,0,0,0,0,0,0,0,0,0,0,0,0,0,0,0,0,0,0,0,0,0,0,0,0,0,0,0,0,0,0,0,0,0,0,0,0,0,0,0,0,0,0,0,0,0,0,0,0,0,0,0,0,0,0,0,0,0,0,0,0,0,0,0,0,0,0,0,0,0],"sum_hessian":[2.8015E4,1.4217E4,1.3798E4,7.684E3,6.533E3,1.0511E4,3.287E3,4.147E3,3.537E3,4.341E3,2.192E3,5.842E3,4.669E3,7.28E2,2.559E3,1.479E3,2.668E3,2.592E3,9.45E2,2.433E3,1.908E3,1.644E3,5.48E2,3.46E3,2.382E3,2.718E3,1.951E3,2.88E2,4.4E2,4.82E2,2.077E3,1.306E3,1.73E2,1.07E3,1.598E3,1.302E3,1.29E3,6.94E2,2.51E2,2.165E3,2.68E2,1.017E3,8.91E2,3.45E2,1.299E3,2.35E2,3.13E2,8.44E2,2.616E3,1.856E3,5.26E2,1.549E3,1.169E3,6.39E2,1.312E3,1.39E2,1.49E2,3.8E2,6E1,2.89E2,1.93E2,1.211E3,8.66E2,1.43E2,1.163E3,1.08E2,6.5E1,9.81E2,8.9E1,1.2E1,1.586E3,4.13E2,8.89E2,7.79E2,5.11E2,2.05E2,4.89E2,2.2E1,2.29E2,5.01E2,1.664E3,9.1E1,1.77E2,7.39E2,2.78E2,6.17E2,2.74E2,2.5E2,9.5E1,8.37E2,4.62E2,2.05E2,3E1,2.8E2,3.3E1,2.53E2,5.91E2,1.837E3,7.79E2,1.413E3,4.43E2,5.04E2,2.2E1,1.262E3,2.87E2,5.69E2,6E2,7E0,6.32E2,1.017E3,2.95E2,7.7E1,6.2E1,4.5E1,1.04E2,1.6E1,3.64E2,3.2E1,2.8E1,2.67E2,2.2E1,1.53E2,4E1,8.37E2,3.74E2,3.25E2,5.41E2],"tree_param":{"num_deleted":"0","num_feature":"840","num_nodes":"127","size_leaf_vector":"1"}},{"base_weights":[2.9816114E-5,-3.486214E-2,7.6655984E-2,-7.994682E-2,-8.429544E-3,5.26492E-2,1.4012979E-1,-4.8013706E-2,-1.0112479E-1,1.1228377E-2,-3.2712586E-2,2.6607912E-2,7.771809E-2,8.171603E-2,1.5450162E-1,-6.5933086E-2,-1.7922672E-2,-7.726644E-2,-1.1517161E-1,-8.496498E-3,3.6881745E-2,-4.748595E-2,8.8021755E-3,-5.682029E-4,4.5643345E-2,6.5004E-2,1.0957751E-1,8.8262536E-2,-3.0661428E-2,1.6331315E-1,8.423124E-2,-4.7359806E-2,-1.0127239E-1,-6.882895E-2,4.3515493E-3,-8.79846E-2,-6.1261486E-3,-9.07496E-2,-1.2783521E-1,-1.6659128E-2,5.5381596E-2,1.918381E-2,5.4615125E-2,-6.9252096E-2,-3.159881E-2,-3.1443402E-2,2.7209956E-2,-1.597792E-2,3.9309777E-2,-4.1134402E-2,4.9259856E-2,4.2678453E-2,8.296682E-2,7.0630185E-2,1.24908164E-1,4.3638453E-2,1.0581128E-1,-6.345321E-2,9.468536E-2,1.3730928E-1,1.8420191E-1,4.3935724E-2,1.1766617E-1,-1.8997773E-3,-8.455789E-3,-1.1261578E-2,-4.9059293E-3,-5.0575878E-3,-1.2748593E-2,-4.3086167E-3,2.5467658E-3,-4.15259E-3,-9.863061E-3,2.7957454E-3,-1.2103068E-2,-1.3133091E-2,-7.7844723E-3,9.117096E-3,-1.2850768E-2,3.6603638E-3,-2.5386175E-3,1.5921596E-2,3.972798E-3,-5.7063665E-4,4.9068118E-3,4.899239E-3,1.1854547E-2,-8.445578E-3,-4.8271134E-3,9.2510646E-4,-4.0438394E-3,-1.0134316E-3,-1.1379015E-2,-3.2834224E-3,3.7101672E-3,-3.4290855E-3,1.9485193E-3,4.9003153E-3,-4.3863314E-3,8.6019536E-5,-1.3429025E-2,5.9655975E-3,1.842725E-3,3.6797207E-3,8.812071E-3,4.2370437E-3,9.398925E-3,6.137746E-3,2.0091219E-2,-6.390836E-3,1.27319265E-2,7.126614E-3,-2.6983537E-3,7.7858935E-3,1.3277153E-2,-1.3751085E-3,-7.7262605E-3,2.6613267E-3,1.5388637E-2,1.1468851E-2,1.6854927E-2,1.9154424E-2,8.799748E-3,1.19138425E-2,1.8619894E-3,1.5313663E-2,5.6722173E-3],"categories":[],"categories_nodes":[],"categories_segments":[],"categories_sizes":[],"default_left":[0,0,0,0,0,0,0,0,0,0,0,0,0,0,0,0,0,0,0,0,0,0,0,0,0,0,0,0,0,0,0,0,0,0,0,0,0,0,0,0,0,0,0,0,0,0,0,0,0,0,0,0,0,0,0,0,0,0,0,0,0,0,0,0,0,0,0,0,0,0,0,0,0,0,0,0,0,0,0,0,0,0,0,0,0,0,0,0,0,0,0,0,0,0,0,0,0,0,0,0,0,0,0,0,0,0,0,0,0,0,0,0,0,0,0,0,0,0,0,0,0,0,0,0,0,0,0],"id":8,"left_children":[1,3,5,7,9,11,13,15,17,19,21,23,25,27,29,31,33,35,37,39,41,43,45,47,49,51,53,55,57,59,61,63,65,67,69,71,73,75,77,79,81,83,85,87,89,91,93,95,97,99,101,103,105,107,109,111,113,115,117,119,121,123,125,-1,-1,-1,-1,-1,-1,-1,-1,-1,-1,-1,-1,-1,-1,-1,-1,-1,-1,-1,-1,-1,-1,-1,-1,-1,-1,-1,-1,-1,-1,-1,-1,-1,-1,-1,-1,-1,-1,-1,-1,-1,-1,-1,-1,-1,-1,-1,-1,-1,-1,-1,-1,-1,-1,-1,-1,-1,-1,-1,-1,-1,-1,-1,-1],"loss_changes":[7.490728E1,2.2940842E1,1.3350269E1,4.8068695E0,5.794014E0,4.151211E0,2.0064049E0,1.5296426E0,1.4244728E0,3.3946252E0,3.3307066E0,1.6150649E0,1.305687E0,3.5362554E-1,1.1806602E0,1.16288E0,1.2033648E0,1.2102995E0,8.203354E-1,1.9786425E0,9.1412187E-1,1.3827477E0,1.0572817E0,7.915004E-1,5.782232E-1,9.2644787E-1,5.4228973E-1,3.4855914E-1,1.1698741E-1,9.051895E-1,2.8718948E-1,1.230649E0,3.5694647E-1,3.393786E-1,7.413536E-1,6.784525E-1,8.219029E-1,4.7262478E-1,2.7223778E-1,1.5646061E0,6.925895E-1,1.0870092E0,5.17571E-1,5.346947E-1,8.3703303E-1,7.8496766E-1,5.826853E-1,6.03992E-1,2.915854E-1,2.8960663E-1,5.640116E-1,2.7363586E-1,5.7057E-1,3.0470538E-1,3.0905914E-1,2.5361782E-1,2.3307586E-1,1.4037386E-2,2.0084199E-2,5.2268696E-1,6.520729E-1,1.8816356E-1,2.4639583E-1,0E0,0E0,0E0,0E0,0E0,0E0,0E0,0E0,0E0,0E0,0E0,0E0,0E0,0E0,0E0,0E0,0E0,0E0,0E0,0E0,0E0,0E0,0E0,0E0,0E0,0E0,0E0,0E0,0E0,0E0,0E0,0E0,0E0,0E0,0E0,0E0,0E0,0E0,0E0,0E0,0E0,0E0,0E0,0E0,0E0,0E0,0E0,0E0,0E0,0E0,0E0,0E0,0E0,0E0,0E0,0E0,0E0,0E0,0E0,0E0,0E0,0E0,0E0,0E0],"parents":[2147483647,0,0,1,1,2,2,3,3,4,4,5,5,6,6,7,7,8,8,9,9,10,10,11,11,12,12,13,13,14,14,15,15,16,16,17,17,18,18,19,19,20,20,21,21,22,22,23,23,24,24,25,25,26,26,27,27,28,28,29,29,30,30,31,31,32,32,33,33,34,34,35,35,36,36,37,37,38,38,39,39,40,40,41,41,42,42,43,43,44,44,45,45,46,46,47,47,48,48,49,49,50,50,51,51,52,52,53,53,54,54,55,55,56,56,57,57,58,58,59,59,60,60,61,61,62,62],"right_children":[2,4,6,8,10,12,14,16,18,20,22,24,26,28,30,32,34,36,38,40,42,44,46,48,50,52,54,56,58,60,62,64,66,68,70,72,74,76,78,80,82,84,86,88,90,92,94,96,98,100,102,104,106,108,110,112,114,116,118,120,122,124,126,-1,-1,-1,-1,-1,-1,-1,-1,-1,-1,-1,-1,-1,-1,-1,-1,-1,-1,-1,-1,-1,-1,-1,-1,-1,-1,-1,-1,-1,-1,-1,-1,-1,-1,-1,-1,-1,-1,-1,-1,-1,-1,-1,-1,-1,-1,-1,-1,-1,-1,-1,-1,-1,-1,-1,-1,-1,-1,-1,-1,-1,-1,-1,-1],"split_conditions":[4.2116088E-1,1.649088E-1,5.898195E-1,3.1364608E-1,7.5E-1,1.3252775E-1,3.3835864E-1,7.5E-1,3.9954025E-1,1.0612031E-2,3.5024875E-1,1.9846742E-1,5.7513607E-1,6.167491E-1,8.3333335E-4,4.278383E-1,1.5231553E-1,4.403612E-1,7.091421E-1,7.030846E-1,2.2319604E-2,4.4341353E-1,4.3189368E-1,5.7475084E-1,1.4756063E-1,2.4115875E-1,2.6134592E-1,2.8636733E-1,3.1541726E-1,6.6646767E-1,2.4923077E-1,3.6856478E-1,3.9840487E-1,6.576658E-1,3.381299E-1,2.5E-1,6.018512E-1,1.4644662E-1,1.1913983E-1,1.2832755E-1,6.69873E-2,3.5793853E-1,4.1355854E-1,4.3118533E-2,4.3907595E-1,4.1987017E-1,5E-1,9.846788E-2,5.2001137E-1,5.0255203E-1,9.330127E-1,4.941836E-1,2.834598E-1,6.571841E-1,1.05802044E-1,2.771941E-1,5.327363E-1,2.5981897E-1,4.0307692E-1,1.4635907E-1,3.8333333E-3,2.5E-1,1.7349736E-1,-1.8997773E-3,-8.455789E-3,-1.1261578E-2,-4.9059293E-3,-5.0575878E-3,-1.2748593E-2,-4.3086167E-3,2.5467658E-3,-4.15259E-3,-9.863061E-3,2.7957454E-3,-1.2103068E-2,-1.3133091E-2,-7.7844723E-3,9.117096E-3,-1.2850768E-2,3.6603638E-3,-2.5386175E-3,1.5921596E-2,3.972798E-3,-5.7063665E-4,4.9068118E-3,4.899239E-3,1.1854547E-2,-8.445578E-3,-4.8271134E-3,9.2510646E-4,-4.0438394E-3,-1.0134316E-3,-1.1379015E-2,-3.2834224E-3,3.7101672E-3,-3.4290855E-3,1.9485193E-3,4.9003153E-3,-4.3863314E-3,8.6019536E-5,-1.3429025E-2,5.9655975E-3,1.842725E-3,3.6797207E-3,8.812071E-3,4.2370437E-3,9.398925E-3,6.137746E-3,2.0091219E-2,-6.390836E-3,1.27319265E-2,7.126614E-3,-2.6983537E-3,7.7858935E-3,1.3277153E-2,-1.3751085E-3,-7.7262605E-3,2.6613267E-3,1.5388637E-2,1.1468851E-2,1.6854927E-2,1.9154424E-2,8.799748E-3,1.19138425E-2,1.8619894E-3,1.5313663E-2,5.6722173E-3],"split_indices":[425,425,396,808,34,263,333,33,829,228,810,741,644,188,795,818,267,22,408,810,368,824,833,833,781,818,576,811,389,355,105,821,609,12,334,31,677,837,570,821,382,816,823,298,400,788,803,368,821,195,205,816,786,326,666,532,530,812,0,429,620,31,408,0,0,0,0,0,0,0,0,0,0,0,0,0,0,0,0,0,0,0,0,0,0,0,0,0,0,0,0,0,0,0,0,0,0,0,0,0,0,0,0,0,0,0,0,0,0,0,0,0,0,0,0,0,0,0,0,0,0,0,0,0,0,0,0],"split_type":[0,0,0,0,0,0,0,0,0,0,0,0,0,0,0,0,0,0,0,0,0,0,0,0,0,0,0,0,0,0,0,0,0,0,0,0,0,0,0,0,0,0,0,0,0,0,0,0,0,0,0,0,0,0,0,0,0,0,0,0,0,0,0,0,0,0,0,0,0,0,0,0,0,0,0,0,0,0,0,0,0,0,0,0,0,0,0,0,0,0,0,0,0,0,0,0,0,0,0,0,0,0,0,0,0,0,0,0,0,0,0,0,0,0,0,0,0,0,0,0,0,0,0,0,0,0,0],"sum_hessian":[2.8015E4,1.925E4,8.765E3,7.114E3,1.2136E4,6.361E3,2.404E3,2.838E3,4.276E3,6.707E3,5.429E3,3.121E3,3.24E3,4.76E2,1.928E3,1.778E3,1.06E3,1.587E3,2.689E3,3.792E3,2.915E3,4.004E3,1.425E3,1.286E3,1.835E3,2.318E3,9.22E2,4.5E2,2.6E1,1.712E3,2.16E2,1.167E3,6.11E2,3.22E2,7.38E2,1.379E3,2.08E2,9.21E2,1.768E3,3.363E3,4.29E2,1.46E3,1.455E3,1.688E3,2.316E3,4.47E2,9.78E2,9.28E2,3.58E2,7.3E1,1.762E3,1.035E3,1.283E3,2.62E2,6.6E2,1.28E2,3.22E2,2.1E1,5E0,7.66E2,9.46E2,9.9E1,1.17E2,6.63E2,5.04E2,5.01E2,1.1E2,2.47E2,7.5E1,2.27E2,5.11E2,2.58E2,1.121E3,1.61E2,4.7E1,2.2E2,7.01E2,5E0,1.763E3,4.73E2,2.89E3,5.5E1,3.74E2,7.97E2,6.63E2,1.339E3,1.16E2,9.77E2,7.11E2,4.12E2,1.904E3,3.56E2,9.1E1,1.38E2,8.4E2,6.12E2,3.16E2,3.21E2,3.7E1,5.1E1,2.2E1,1.317E3,4.45E2,9.18E2,1.17E2,2.75E2,1.008E3,2.46E2,1.6E1,8E0,6.52E2,9.2E1,3.6E1,1.6E2,1.62E2,5E0,1.6E1,3E0,2E0,4.47E2,3.19E2,8.78E2,6.8E1,2.4E1,7.5E1,7.3E1,4.4E1],"tree_param":{"num_deleted":"0","num_feature":"840","num_nodes":"127","size_leaf_vector":"1"}},{"base_weights":[3.0309464E-5,-2.9990504E-2,7.2407E-2,-7.462974E-2,-7.8120045E-3,4.7093194E-2,1.20419644E-1,-5.0473694E-2,-9.564365E-2,1.1432878E-2,-3.125622E-2,2.1863434E-2,6.905197E-2,6.9274314E-2,1.3403201E-1,-7.517924E-2,-3.2401312E-2,-2.6106551E-2,-9.912725E-2,-4.711199E-3,3.6339786E-2,-5.1186252E-2,-1.877038E-3,-4.445656E-3,3.638998E-2,4.6710745E-2,8.644259E-2,9.661449E-2,3.3116266E-2,1.03837244E-1,1.5131934E-1,-6.771952E-2,-1.1782551E-1,-5.1370088E-2,-4.432751E-3,-6.606898E-2,5.5711724E-2,-1.0319858E-1,-5.0809804E-2,-2.2276947E-2,2.1402437E-2,2.836537E-2,6.9085434E-2,9.953668E-3,-5.6621462E-2,-2.3228748E-2,1.9779226E-2,-2.3507146E-2,3.9553434E-2,3.2135446E-2,9.5419526E-2,3.6446992E-2,8.442523E-2,8.191528E-2,2.0664327E-1,1.281542E-1,7.495981E-2,1.3193764E-1,2.2926314E-2,1.1704616E-1,5.8640055E-2,1.3595663E-1,1.887412E-1,3.0057018E-3,-7.095498E-3,-8.853392E-3,-1.49713475E-2,-2.2930817E-3,-8.612081E-3,-5.6205164E-3,1.16655E-3,-8.160311E-3,1.8303892E-2,1.1818373E-3,1.74899E-2,-1.06447665E-2,-5.0788894E-3,-6.003578E-3,1.3052124E-2,1.4210998E-3,-3.5291535E-3,-7.791804E-4,4.1399435E-3,7.9264144E-5,3.7727111E-3,1.0073184E-2,5.264786E-3,-8.5752935E-4,8.617038E-3,-3.6345234E-3,-7.2869407E-3,-4.7707097E-3,6.063482E-4,-2.6516442E-3,2.8861528E-3,-5.1180343E-3,5.328089E-4,8.846092E-3,1.7372782E-3,2.190504E-3,5.7625035E-3,1.848888E-2,6.624338E-3,3.002932E-3,8.518338E-3,2.5939236E-3,1.12717105E-2,8.727201E-3,-2.4983648E-4,1.7642088E-2,3.1973705E-2,1.3437177E-2,-6.286382E-3,-9.255395E-3,7.963379E-3,2.4936913E-2,6.891472E-3,2.1301857E-4,6.6679604E-3,1.20610725E-2,-4.8918664E-3,6.7011657E-4,8.079179E-3,1.5625292E-2,1.1371012E-2,9.391858E-3,2.0436795E-2],"categories":[],"categories_nodes":[],"categories_segments":[],"categories_sizes":[],"default_left":[0,0,0,0,0,0,0,0,0,0,0,0,0,0,0,0,0,0,0,0,0,0,0,0,0,0,0,0,0,0,0,0,0,0,0,0,0,0,0,0,0,0,0,0,0,0,0,0,0,0,0,0,0,0,0,0,0,0,0,0,0,0,0,0,0,0,0,0,0,0,0,0,0,0,0,0,0,0,0,0,0,0,0,0,0,0,0,0,0,0,0,0,0,0,0,0,0,0,0,0,0,0,0,0,0,0,0,0,0,0,0,0,0,0,0,0,0,0,0,0,0,0,0,0,0,0,0],"id":9,"left_children":[1,3,5,7,9,11,13,15,17,19,21,23,25,27,29,31,33,35,37,39,41,43,45,47,49,51,53,55,57,59,61,63,65,67,69,71,73,75,77,79,81,83,85,87,89,91,93,95,97,99,101,103,105,107,109,111,113,115,117,119,121,123,125,-1,-1,-1,-1,-1,-1,-1,-1,-1,-1,-1,-1,-1,-1,-1,-1,-1,-1,-1,-1,-1,-1,-1,-1,-1,-1,-1,-1,-1,-1,-1,-1,-1,-1,-1,-1,-1,-1,-1,-1,-1,-1,-1,-1,-1,-1,-1,-1,-1,-1,-1,-1,-1,-1,-1,-1,-1,-1,-1,-1,-1,-1,-1,-1],"loss_changes":[6.087553E1,1.9605007E1,9.977478E0,3.3317146E0,5.9699354E0,2.9790897E0,1.9644699E0,1.3638177E0,8.4864044E-1,2.922225E0,3.4925785E0,9.575231E-1,1.113369E0,5.8796406E-1,1.1524925E0,4.0304375E-1,9.3827844E-1,5.562529E-1,6.5296555E-1,2.0233684E0,7.4434257E-1,1.1815872E0,1.1157641E0,7.490397E-1,4.022789E-1,4.8504615E-1,8.624773E-1,2.2260737E-1,2.5778434E-1,4.8148727E-1,7.912712E-1,3.5075283E-1,1.6514874E-1,1.0396781E0,5.9740245E-1,4.560795E-1,2.908986E-1,5.1992035E-1,4.4615036E-1,1.2527484E0,1.0359788E0,5.936663E-1,2.8548312E-1,4.116939E-1,1.0726671E0,8.714752E-1,5.044898E-1,4.9740362E-1,2.913592E-1,3.9171636E-1,2.6967216E-1,3.0802667E-1,4.4218493E-1,7.051678E-1,1.418333E-1,1.711576E-1,1.6709352E-1,1.6043583E-1,2.1459413E-1,3.7978554E-1,2.1460885E-1,4.387226E-1,5.8981323E-1,0E0,0E0,0E0,0E0,0E0,0E0,0E0,0E0,0E0,0E0,0E0,0E0,0E0,0E0,0E0,0E0,0E0,0E0,0E0,0E0,0E0,0E0,0E0,0E0,0E0,0E0,0E0,0E0,0E0,0E0,0E0,0E0,0E0,0E0,0E0,0E0,0E0,0E0,0E0,0E0,0E0,0E0,0E0,0E0,0E0,0E0,0E0,0E0,0E0,0E0,0E0,0E0,0E0,0E0,0E0,0E0,0E0,0E0,0E0,0E0,0E0,0E0,0E0,0E0],"parents":[2147483647,0,0,1,1,2,2,3,3,4,4,5,5,6,6,7,7,8,8,9,9,10,10,11,11,12,12,13,13,14,14,15,15,16,16,17,17,18,18,19,19,20,20,21,21,22,22,23,23,24,24,25,25,26,26,27,27,28,28,29,29,30,30,31,31,32,32,33,33,34,34,35,35,36,36,37,37,38,38,39,39,40,40,41,41,42,42,43,43,44,44,45,45,46,46,47,47,48,48,49,49,50,50,51,51,52,52,53,53,54,54,55,55,56,56,57,57,58,58,59,59,60,60,61,61,62,62],"right_children":[2,4,6,8,10,12,14,16,18,20,22,24,26,28,30,32,34,36,38,40,42,44,46,48,50,52,54,56,58,60,62,64,66,68,70,72,74,76,78,80,82,84,86,88,90,92,94,96,98,100,102,104,106,108,110,112,114,116,118,120,122,124,126,-1,-1,-1,-1,-1,-1,-1,-1,-1,-1,-1,-1,-1,-1,-1,-1,-1,-1,-1,-1,-1,-1,-1,-1,-1,-1,-1,-1,-1,-1,-1,-1,-1,-1,-1,-1,-1,-1,-1,-1,-1,-1,-1,-1,-1,-1,-1,-1,-1,-1,-1,-1,-1,-1,-1,-1,-1,-1,-1,-1,-1,-1,-1,-1],"split_conditions":[4.316418E-1,1.4971808E-1,5.650028E-1,3.9211068E-1,7.5E-1,1.427637E-1,1.7872034E-1,3.35602E-1,5.8870684E-2,2.8107984E-2,2.894859E-1,1.6093995E-1,2.6167443E-1,2.861241E-1,3.4049988E-1,6.634166E-1,7.5E-1,5.896546E-1,4.250477E-1,5.09271E-1,4.360199E-1,3.3383662E-1,5.1535547E-1,5.7475084E-1,6.88315E-1,5.7513607E-1,7.711103E-1,2.7906978E-1,1.7037086E-2,2.5E-4,7.73588E-1,1.7037086E-2,2.1483733E-1,3.7137732E-1,1.5736169E-1,1.4307438E-1,2.5596642E-1,6.6211605E-1,4.2276508E-1,2.0874168E-1,9.817355E-2,2.44593E-1,4.257501E-1,3.0874103E-1,3.0830258E-1,4.9054073E-5,5E-1,6.7364854E-1,3.9808068E-1,5.7475084E-1,1.5725806E-1,4.941836E-1,2.6134592E-1,3.3333333E-4,5.570813E-1,5.1691973E-1,1.1290322E-1,7.952844E-2,1.5128006E-1,7.9077095E-1,5.215736E-1,2.1594684E-1,2.1160409E-1,3.0057018E-3,-7.095498E-3,-8.853392E-3,-1.49713475E-2,-2.2930817E-3,-8.612081E-3,-5.6205164E-3,1.16655E-3,-8.160311E-3,1.8303892E-2,1.1818373E-3,1.74899E-2,-1.06447665E-2,-5.0788894E-3,-6.003578E-3,1.3052124E-2,1.4210998E-3,-3.5291535E-3,-7.791804E-4,4.1399435E-3,7.9264144E-5,3.7727111E-3,1.0073184E-2,5.264786E-3,-8.5752935E-4,8.617038E-3,-3.6345234E-3,-7.2869407E-3,-4.7707097E-3,6.063482E-4,-2.6516442E-3,2.8861528E-3,-5.1180343E-3,5.328089E-4,8.846092E-3,1.7372782E-3,2.190504E-3,5.7625035E-3,1.848888E-2,6.624338E-3,3.002932E-3,8.518338E-3,2.5939236E-3,1.12717105E-2,8.727201E-3,-2.4983648E-4,1.7642088E-2,3.1973705E-2,1.3437177E-2,-6.286382E-3,-9.255395E-3,7.963379E-3,2.4936913E-2,6.891472E-3,2.1301857E-4,6.6679604E-3,1.20610725E-2,-4.8918664E-3,6.7011657E-4,8.079179E-3,1.5625292E-2,1.1371012E-2,9.391858E-3,2.0436795E-2],"split_indices":[390,390,431,808,34,228,228,54,199,298,810,531,817,785,234,576,33,376,407,816,810,400,826,833,434,609,469,763,592,830,407,662,49,759,259,718,127,1,151,751,53,821,714,827,817,298,628,229,828,833,517,781,541,822,670,772,657,639,492,742,536,728,806,0,0,0,0,0,0,0,0,0,0,0,0,0,0,0,0,0,0,0,0,0,0,0,0,0,0,0,0,0,0,0,0,0,0,0,0,0,0,0,0,0,0,0,0,0,0,0,0,0,0,0,0,0,0,0,0,0,0,0,0,0,0,0,0],"split_type":[0,0,0,0,0,0,0,0,0,0,0,0,0,0,0,0,0,0,0,0,0,0,0,0,0,0,0,0,0,0,0,0,0,0,0,0,0,0,0,0,0,0,0,0,0,0,0,0,0,0,0,0,0,0,0,0,0,0,0,0,0,0,0,0,0,0,0,0,0,0,0,0,0,0,0,0,0,0,0,0,0,0,0,0,0,0,0,0,0,0,0,0,0,0,0,0,0,0,0,0,0,0,0,0,0,0,0,0,0,0,0,0,0,0,0,0,0,0,0,0,0,0,0,0,0,0,0],"sum_hessian":[2.8015E4,1.9802E4,8.213E3,6.572E3,1.323E4,5.379E3,2.834E3,3.059E3,3.513E3,7.266E3,5.964E3,2.504E3,2.875E3,5.97E2,2.237E3,1.291E3,1.768E3,1.68E2,3.345E3,4.409E3,2.857E3,3.553E3,2.411E3,8.91E2,1.613E3,1.26E3,1.615E3,3.39E2,2.58E2,8.17E2,1.42E3,1.101E3,1.9E2,1.053E3,7.15E2,1.13E2,5.5E1,3.084E3,2.61E2,2.636E3,1.773E3,2.299E3,5.58E2,2.9E2,3.263E3,1.214E3,1.197E3,6.22E2,2.69E2,1.506E3,1.07E2,9.92E2,2.68E2,1.558E3,5.7E1,1.36E2,2.03E2,2.3E1,2.35E2,6.31E2,1.86E2,1.01E3,4.1E2,3.5E1,1.066E3,1.01E2,8.9E1,5.8E2,4.73E2,1.69E2,5.46E2,1.07E2,6E0,4.1E1,1.4E1,2.903E3,1.81E2,2.49E2,1.2E1,6.93E2,1.943E3,7.21E2,1.052E3,5.83E2,1.716E3,1.89E2,3.69E2,2.34E2,5.6E1,1.453E3,1.81E3,6.61E2,5.53E2,1.96E2,1.001E3,3.17E2,3.05E2,8.3E1,1.86E2,1.076E3,4.3E2,2.5E1,8.2E1,8.78E2,1.14E2,8.8E1,1.8E2,1.465E3,9.3E1,4.7E1,1E1,1.32E2,4E0,5E0,1.98E2,7E0,1.6E1,1.6E2,7.5E1,6.18E2,1.3E1,5.6E1,1.3E2,5.25E2,4.85E2,5.9E1,3.51E2],"tree_param":{"num_deleted":"0","num_feature":"840","num_nodes":"127","size_leaf_vector":"1"}},{"base_weights":[3.549039E-5,-2.7095372E-2,6.544484E-2,-6.505507E-2,-5.8084005E-3,4.7111783E-2,1.19348176E-1,-4.4954624E-2,-8.826566E-2,1.7891034E-2,-1.9505138E-2,2.3866842E-2,6.720348E-2,1.281776E-1,5.7726312E-2,-5.5316355E-2,-8.580444E-3,-2.1903772E-2,-9.166132E-2,2.9532628E-2,-2.7456488E-2,-2.8463274E-2,2.2361688E-2,1.250262E-2,6.0013417E-2,5.1240996E-2,8.65973E-2,6.582586E-2,1.3678776E-1,3.582919E-2,1.0920244E-1,-5.998523E-2,2.1429222E-2,1.0037824E-2,-5.1123846E-2,-5.5468913E-2,5.016612E-2,-1.02112815E-1,-7.4656755E-2,1.648728E-3,4.027828E-2,-4.7308195E-2,5.0641876E-3,-4.0358976E-2,-8.9482055E-4,8.095567E-3,5.3434722E-2,1.129226E-3,3.8606044E-2,6.332917E-2,-1.1498145E-1,3.183932E-2,6.880615E-2,5.7166487E-2,1.0290493E-1,8.13795E-2,-1.7227236E-2,1.1171192E-1,1.538717E-1,8.068313E-3,6.732642E-2,1.4992318E-1,2.1994691E-2,-7.187925E-3,-3.871501E-3,7.1618888E-3,-5.0269156E-3,-5.214156E-3,1.9752723E-3,-7.4164267E-3,1.3061716E-3,-6.5488713E-3,1.7004853E-2,-5.8793677E-3,8.43239E-3,1.3109612E-2,-1.0278248E-2,-5.304883E-3,-1.0414539E-2,2.5496776E-3,-2.1073273E-3,3.2168876E-3,6.715259E-3,3.7471831E-3,-5.953919E-3,9.336974E-5,1.665085E-2,-5.890803E-3,-2.5573175E-3,-3.4875635E-3,8.0627616E-4,3.6726866E-4,1.2652384E-2,-3.0777075E-3,6.1807255E-3,-2.2995223E-3,1.9859823E-3,-5.521186E-3,4.609122E-3,8.310574E-3,3.476445E-3,-6.0849944E-3,-1.6799321E-2,3.6753376E-3,-7.5426656E-3,4.596583E-3,8.586197E-3,3.600979E-3,9.9999495E-3,9.675254E-3,1.7797045E-2,-5.5862614E-3,9.022429E-3,1.1914562E-3,-8.454174E-3,1.31724E-2,8.580205E-3,9.074545E-3,1.6195506E-2,-5.810601E-3,2.8589293E-3,9.2713125E-3,2.2975043E-3,5.075144E-3,1.7771121E-2,-5.02215E-3,7.0268656E-3],"categories":[],"categories_nodes":[],"categories_segments":[],"categories_sizes":[],"default_left":[0,0,0,0,0,0,0,0,0,0,0,0,0,0,0,0,0,0,0,0,0,0,0,0,0,0,0,0,0,0,0,0,0,0,0,0,0,0,0,0,0,0,0,0,0,0,0,0,0,0,0,0,0,0,0,0,0,0,0,0,0,0,0,0,0,0,0,0,0,0,0,0,0,0,0,0,0,0,0,0,0,0,0,0,0,0,0,0,0,0,0,0,0,0,0,0,0,0,0,0,0,0,0,0,0,0,0,0,0,0,0,0,0,0,0,0,0,0,0,0,0,0,0,0,0,0,0],"id":10,"left_children":[1,3,5,7,9,11,13,15,17,19,21,23,25,27,29,31,33,35,37,39,41,43,45,47,49,51,53,55,57,59,61,63,65,67,69,71,73,75,77,79,81,83,85,87,89,91,93,95,97,99,101,103,105,107,109,111,113,115,117,119,121,123,125,-1,-1,-1,-1,-1,-1,-1,-1,-1,-1,-1,-1,-1,-1,-1,-1,-1,-1,-1,-1,-1,-1,-1,-1,-1,-1,-1,-1,-1,-1,-1,-1,-1,-1,-1,-1,-1,-1,-1,-1,-1,-1,-1,-1,-1,-1,-1,-1,-1,-1,-1,-1,-1,-1,-1,-1,-1,-1,-1,-1,-1,-1,-1,-1],"loss_changes":[4.971931E1,1.6001379E1,8.111557E0,3.315485E0,4.1192613E0,2.8617582E0,1.1264744E0,1.437397E0,7.41848E-1,2.454571E0,3.0167785E0,1.1675012E0,1.013442E0,9.6915245E-1,2.9253542E-1,1.0651245E0,6.7140865E-1,3.946665E-1,5.504284E-1,1.1082675E0,6.1355084E-1,2.172607E0,6.2815493E-1,6.427114E-1,4.0184426E-1,6.132822E-1,7.0587635E-1,2.8946853E-1,6.682396E-1,1.6209348E-1,2.7369326E-1,7.0533085E-1,6.1894673E-1,3.5742912E-1,3.825152E-1,2.6195616E-1,1.9849259E-1,3.167591E-1,7.5846386E-1,5.5866885E-1,5.797248E-1,6.140281E-1,2.4057525E-1,1.2677808E0,6.084442E-1,5.091869E-1,3.1636178E-1,6.823214E-1,4.639187E-1,3.7447238E-1,2.7082503E-2,4.5608747E-1,3.6496735E-1,4.7759402E-1,4.2290783E-1,2.3324883E-1,7.162723E-2,3.2676697E-1,4.6954918E-1,1.3745742E-1,9.58263E-2,1.3703763E-1,9.41692E-2,0E0,0E0,0E0,0E0,0E0,0E0,0E0,0E0,0E0,0E0,0E0,0E0,0E0,0E0,0E0,0E0,0E0,0E0,0E0,0E0,0E0,0E0,0E0,0E0,0E0,0E0,0E0,0E0,0E0,0E0,0E0,0E0,0E0,0E0,0E0,0E0,0E0,0E0,0E0,0E0,0E0,0E0,0E0,0E0,0E0,0E0,0E0,0E0,0E0,0E0,0E0,0E0,0E0,0E0,0E0,0E0,0E0,0E0,0E0,0E0,0E0,0E0,0E0,0E0],"parents":[2147483647,0,0,1,1,2,2,3,3,4,4,5,5,6,6,7,7,8,8,9,9,10,10,11,11,12,12,13,13,14,14,15,15,16,16,17,17,18,18,19,19,20,20,21,21,22,22,23,23,24,24,25,25,26,26,27,27,28,28,29,29,30,30,31,31,32,32,33,33,34,34,35,35,36,36,37,37,38,38,39,39,40,40,41,41,42,42,43,43,44,44,45,45,46,46,47,47,48,48,49,49,50,50,51,51,52,52,53,53,54,54,55,55,56,56,57,57,58,58,59,59,60,60,61,61,62,62],"right_children":[2,4,6,8,10,12,14,16,18,20,22,24,26,28,30,32,34,36,38,40,42,44,46,48,50,52,54,56,58,60,62,64,66,68,70,72,74,76,78,80,82,84,86,88,90,92,94,96,98,100,102,104,106,108,110,112,114,116,118,120,122,124,126,-1,-1,-1,-1,-1,-1,-1,-1,-1,-1,-1,-1,-1,-1,-1,-1,-1,-1,-1,-1,-1,-1,-1,-1,-1,-1,-1,-1,-1,-1,-1,-1,-1,-1,-1,-1,-1,-1,-1,-1,-1,-1,-1,-1,-1,-1,-1,-1,-1,-1,-1,-1,-1,-1,-1,-1,-1,-1,-1,-1,-1,-1,-1,-1],"split_conditions":[4.316418E-1,1.649088E-1,6.0987735E-1,4.659013E-1,5E-1,1.7250682E-1,5.833333E-4,4.627682E-1,5.8870684E-2,9.829629E-1,5.889777E-1,6.0987735E-1,4.024057E-1,3.0904068E-3,7.3008317E-1,4.6171743E-1,3.2890365E-1,5.896546E-1,5.8374792E-2,1.0417821E-1,5.994693E-1,1.4830682E-1,4.4013268E-1,5.889777E-1,8.4545016E-1,1.7240295E-1,4.9054073E-5,6.379248E-1,6.6646767E-1,8.792072E-2,7.5E-1,7.5E-1,4.2083398E-1,1.0540045E-2,4.1666668E-4,3.5075825E-1,1.571085E-1,1.5615457E-1,2.2613928E-1,5.5040044E-1,3.0461538E-1,1.0085273E-1,7.47563E-1,4.7160953E-1,2.0093063E-2,8.0604076E-1,3.1343564E-2,4.9054073E-5,2.5E-1,2.75561E-1,3.4461537E-1,6.1176664E-1,3.208191E-1,6.238143E-1,6.175973E-1,2.5137448E-1,3.8566554E-1,3.15114E-1,1.0773132E-1,3.9635158E-1,3.768919E-1,2.4923077E-1,4.5310012E-1,-7.187925E-3,-3.871501E-3,7.1618888E-3,-5.0269156E-3,-5.214156E-3,1.9752723E-3,-7.4164267E-3,1.3061716E-3,-6.5488713E-3,1.7004853E-2,-5.8793677E-3,8.43239E-3,1.3109612E-2,-1.0278248E-2,-5.304883E-3,-1.0414539E-2,2.5496776E-3,-2.1073273E-3,3.2168876E-3,6.715259E-3,3.7471831E-3,-5.953919E-3,9.336974E-5,1.665085E-2,-5.890803E-3,-2.5573175E-3,-3.4875635E-3,8.0627616E-4,3.6726866E-4,1.2652384E-2,-3.0777075E-3,6.1807255E-3,-2.2995223E-3,1.9859823E-3,-5.521186E-3,4.609122E-3,8.310574E-3,3.476445E-3,-6.0849944E-3,-1.6799321E-2,3.6753376E-3,-7.5426656E-3,4.596583E-3,8.586197E-3,3.600979E-3,9.9999495E-3,9.675254E-3,1.7797045E-2,-5.5862614E-3,9.022429E-3,1.1914562E-3,-8.454174E-3,1.31724E-2,8.580205E-3,9.074545E-3,1.6195506E-2,-5.810601E-3,2.8589293E-3,9.2713125E-3,2.2975043E-3,5.075144E-3,1.7771121E-2,-5.02215E-3,7.0268656E-3],"split_indices":[425,425,396,808,244,298,760,791,164,205,826,116,821,403,361,81,483,411,810,387,600,333,810,721,83,704,123,548,355,3,836,523,821,361,795,792,14,531,718,198,490,681,154,824,816,82,149,298,33,828,70,252,456,495,466,12,316,680,815,775,223,70,216,0,0,0,0,0,0,0,0,0,0,0,0,0,0,0,0,0,0,0,0,0,0,0,0,0,0,0,0,0,0,0,0,0,0,0,0,0,0,0,0,0,0,0,0,0,0,0,0,0,0,0,0,0,0,0,0,0,0,0,0,0,0,0,0],"split_type":[0,0,0,0,0,0,0,0,0,0,0,0,0,0,0,0,0,0,0,0,0,0,0,0,0,0,0,0,0,0,0,0,0,0,0,0,0,0,0,0,0,0,0,0,0,0,0,0,0,0,0,0,0,0,0,0,0,0,0,0,0,0,0,0,0,0,0,0,0,0,0,0,0,0,0,0,0,0,0,0,0,0,0,0,0,0,0,0,0,0,0,0,0,0,0,0,0,0,0,0,0,0,0,0,0,0,0,0,0,0,0,0,0,0,0,0,0,0,0,0,0,0,0,0,0,0,0],"sum_hessian":[2.8015E4,1.9802E4,8.213E3,7.114E3,1.2688E4,6.13E3,2.083E3,3.814E3,3.3E3,4.647E3,8.041E3,2.843E3,3.287E3,1.821E3,2.62E2,2.968E3,8.46E2,1.61E2,3.139E3,3.698E3,9.49E2,6.624E3,1.417E3,2.164E3,6.79E2,1.805E3,1.482E3,2.22E2,1.599E3,1.85E2,7.7E1,2.798E3,1.7E2,5.89E2,2.57E2,1.1E2,5.1E1,1.941E3,1.198E3,1.029E3,2.669E3,5.89E2,3.6E2,4.627E3,1.997E3,9.72E2,4.45E2,1.508E3,6.56E2,6.67E2,1.2E1,8.59E2,9.46E2,5.3E2,9.52E2,1.87E2,3.5E1,6.51E2,9.48E2,9.9E1,8.6E1,5.2E1,2.5E1,1.793E3,1.005E3,1E2,7E1,7.9E1,5.1E2,1.89E2,6.8E1,1.06E2,4E0,1.2E1,3.9E1,5E0,1.936E3,6.93E2,5.05E2,5.02E2,5.27E2,2.052E3,6.17E2,7.4E1,5.15E2,3.52E2,8E0,2.051E3,2.576E3,4.16E2,1.581E3,9.38E2,3.4E1,4E1,4.05E2,6.59E2,8.49E2,4.8E1,6.08E2,3.93E2,2.74E2,7E0,5E0,8.22E2,3.7E1,4.06E2,5.4E2,3.56E2,1.74E2,8.82E2,7E1,1.1E1,1.76E2,2.5E1,1E1,3.65E2,2.86E2,1.09E2,8.39E2,2.3E1,7.6E1,5.4E1,3.2E1,1.2E1,4E1,1E1,1.5E1],"tree_param":{"num_deleted":"0","num_feature":"840","num_nodes":"127","size_leaf_vector":"1"}},{"base_weights":[3.645477E-5,-3.9618034E-2,3.67236E-2,-5.954994E-2,-1.3610748E-2,1.7936412E-2,8.5374005E-2,-6.4054534E-2,1.4656592E-3,-2.7095748E-2,1.4257849E-2,1.7521568E-3,3.544895E-2,2.8121432E-2,9.643871E-2,-7.685177E-2,-4.3611683E-2,3.030851E-2,-4.8716515E-2,2.7685298E-3,-4.338857E-2,-6.909875E-3,3.9260138E-2,-1.7272638E-2,1.44677665E-2,5.1690042E-2,1.5823297E-2,5.919017E-2,2.0803674E-3,8.298656E-2,1.3040233E-1,-5.954723E-2,-9.080551E-2,-6.7287445E-2,-1.7654607E-2,-9.501975E-3,6.970162E-2,5.7612725E-2,-6.2815666E-2,-7.3811254E-3,5.2472904E-2,-7.261338E-2,-2.9125968E-2,-1.28037045E-2,5.4241676E-2,5.656897E-2,1.5859887E-2,1.806314E-2,-3.0308206E-2,4.889296E-3,3.6382627E-2,2.7357327E-2,6.3358724E-2,3.980479E-2,3.222057E-3,3.571859E-2,8.761307E-2,4.3631297E-2,-3.4695484E-2,8.90415E-2,2.6164923E-2,2.383836E-2,1.3560575E-1,-7.464512E-3,-5.486755E-4,-8.460869E-3,-1.2274847E-2,-5.2362583E-3,-9.65331E-3,1.0620921E-4,-6.1139106E-3,1.1256424E-2,-2.3181604E-3,-1.2730993E-3,8.699138E-3,1.0362355E-2,-2.5473384E-3,-6.7796283E-3,8.462056E-3,-2.4713334E-3,1.9473333E-3,1.0834667E-2,1.405905E-3,-8.916047E-3,-2.623749E-3,-1.4742512E-3,-5.9458483E-3,-2.16685E-3,3.8196996E-3,1.0564196E-2,8.028335E-4,2.653543E-3,7.971671E-3,-1.6626036E-3,3.827838E-3,6.8824575E-3,-2.4214387E-6,-3.4376401E-3,3.823867E-3,-8.2891353E-4,2.750199E-3,3.93064E-3,-1.0811656E-2,2.0481714E-3,9.187786E-3,8.547016E-3,4.4251415E-3,3.49118E-3,1.4714325E-2,6.5592927E-4,-8.795156E-3,4.930216E-3,-5.543303E-3,3.3019574E-3,1.1933844E-2,8.910048E-4,8.036103E-3,-7.912758E-3,9.178165E-4,1.0775943E-2,7.5235083E-3,1.428659E-3,8.966497E-3,7.912463E-3,-9.5694885E-3,1.0136961E-2,1.5806014E-2],"categories":[],"categories_nodes":[],"categories_segments":[],"categories_sizes":[],"default_left":[0,0,0,0,0,0,0,0,0,0,0,0,0,0,0,0,0,0,0,0,0,0,0,0,0,0,0,0,0,0,0,0,0,0,0,0,0,0,0,0,0,0,0,0,0,0,0,0,0,0,0,0,0,0,0,0,0,0,0,0,0,0,0,0,0,0,0,0,0,0,0,0,0,0,0,0,0,0,0,0,0,0,0,0,0,0,0,0,0,0,0,0,0,0,0,0,0,0,0,0,0,0,0,0,0,0,0,0,0,0,0,0,0,0,0,0,0,0,0,0,0,0,0,0,0,0,0],"id":11,"left_children":[1,3,5,7,9,11,13,15,17,19,21,23,25,27,29,31,33,35,37,39,41,43,45,47,49,51,53,55,57,59,61,63,65,67,69,71,73,75,77,79,81,83,85,87,89,91,93,95,97,99,101,103,105,107,109,111,113,115,117,119,121,123,125,-1,-1,-1,-1,-1,-1,-1,-1,-1,-1,-1,-1,-1,-1,-1,-1,-1,-1,-1,-1,-1,-1,-1,-1,-1,-1,-1,-1,-1,-1,-1,-1,-1,-1,-1,-1,-1,-1,-1,-1,-1,-1,-1,-1,-1,-1,-1,-1,-1,-1,-1,-1,-1,-1,-1,-1,-1,-1,-1,-1,-1,-1,-1,-1],"loss_changes":[4.075941E1,6.978588E0,1.3299973E1,2.0950031E0,2.1962328E0,2.9759262E0,2.5654297E0,1.8535709E0,7.6136E-1,1.9162462E0,1.0090058E0,1.3206049E0,1.6065984E0,5.3224045E-1,1.5412121E0,1.048336E0,1.679615E0,5.244608E-1,2.914562E-1,7.021222E-1,1.0599475E0,3.7300503E-1,3.5309994E-1,1.0079277E0,6.8665045E-1,7.8163195E-1,6.9039065E-1,1.9700968E-1,5.500912E-1,8.357792E-1,5.301933E-1,1.5919943E0,4.674549E-1,6.191225E-1,1.0630004E0,2.814694E-1,2.4054772E-1,9.0565406E-2,1.3057202E-1,5.385381E-1,5.050097E-1,6.3842773E-1,7.469183E-1,4.2716807E-1,2.1531132E-1,3.4687936E-1,2.7228686E-1,5.417043E-1,4.4693625E-1,6.7907155E-1,4.246198E-1,3.9560014E-1,7.837391E-1,4.0820003E-1,4.5667434E-1,2.082682E-1,2.2987926E-1,2.1481004E-1,3.730612E-1,5.6069374E-1,1.7672786E-1,3.1156495E-1,6.889229E-1,0E0,0E0,0E0,0E0,0E0,0E0,0E0,0E0,0E0,0E0,0E0,0E0,0E0,0E0,0E0,0E0,0E0,0E0,0E0,0E0,0E0,0E0,0E0,0E0,0E0,0E0,0E0,0E0,0E0,0E0,0E0,0E0,0E0,0E0,0E0,0E0,0E0,0E0,0E0,0E0,0E0,0E0,0E0,0E0,0E0,0E0,0E0,0E0,0E0,0E0,0E0,0E0,0E0,0E0,0E0,0E0,0E0,0E0,0E0,0E0,0E0,0E0,0E0,0E0],"parents":[2147483647,0,0,1,1,2,2,3,3,4,4,5,5,6,6,7,7,8,8,9,9,10,10,11,11,12,12,13,13,14,14,15,15,16,16,17,17,18,18,19,19,20,20,21,21,22,22,23,23,24,24,25,25,26,26,27,27,28,28,29,29,30,30,31,31,32,32,33,33,34,34,35,35,36,36,37,37,38,38,39,39,40,40,41,41,42,42,43,43,44,44,45,45,46,46,47,47,48,48,49,49,50,50,51,51,52,52,53,53,54,54,55,55,56,56,57,57,58,58,59,59,60,60,61,61,62,62],"right_children":[2,4,6,8,10,12,14,16,18,20,22,24,26,28,30,32,34,36,38,40,42,44,46,48,50,52,54,56,58,60,62,64,66,68,70,72,74,76,78,80,82,84,86,88,90,92,94,96,98,100,102,104,106,108,110,112,114,116,118,120,122,124,126,-1,-1,-1,-1,-1,-1,-1,-1,-1,-1,-1,-1,-1,-1,-1,-1,-1,-1,-1,-1,-1,-1,-1,-1,-1,-1,-1,-1,-1,-1,-1,-1,-1,-1,-1,-1,-1,-1,-1,-1,-1,-1,-1,-1,-1,-1,-1,-1,-1,-1,-1,-1,-1,-1,-1,-1,-1,-1,-1,-1,-1,-1,-1,-1],"split_conditions":[3.1555554E-1,2.0970812E-1,5.1304287E-1,4.7946757E-1,5.5594614E-4,3.6757853E-2,6.686616E-2,7.5E-1,4.3733037E-1,2.8570095E-1,3.5655057E-1,3.905141E-1,5E-1,3.0333686E-1,6.9353235E-1,3.910137E-1,1.8268135E-1,2.7906978E-1,3.1164125E-1,5.833686E-1,2.5E-1,3.9897314E-3,2.2372682E-1,1.6388784E-1,5.8477074E-1,2.834598E-1,4.6202627E-1,3.1484446E-1,2.7206782E-1,6.666667E-3,6.69873E-2,3.2658568E-1,1.9868535E-1,7.4616045E-1,6.114218E-1,3.6128148E-1,2.0601688E-1,5.771759E-1,9.330127E-1,7.5E-1,1.6019301E-1,5.219648E-1,5.763013E-1,5.681933E-1,2.8268552E-1,2.3384616E-1,1.7731343E-1,4.936864E-1,5.763184E-1,2.99889E-1,8.837578E-1,4.4067088E-1,4.3502417E-1,6.581846E-1,7.8671825E-1,3.0626443E-1,1.0026717E-1,5.8477074E-1,1.9846742E-1,2.026578E-1,3.5135788E-1,3.089701E-1,3.7225044E-1,-7.464512E-3,-5.486755E-4,-8.460869E-3,-1.2274847E-2,-5.2362583E-3,-9.65331E-3,1.0620921E-4,-6.1139106E-3,1.1256424E-2,-2.3181604E-3,-1.2730993E-3,8.699138E-3,1.0362355E-2,-2.5473384E-3,-6.7796283E-3,8.462056E-3,-2.4713334E-3,1.9473333E-3,1.0834667E-2,1.405905E-3,-8.916047E-3,-2.623749E-3,-1.4742512E-3,-5.9458483E-3,-2.16685E-3,3.8196996E-3,1.0564196E-2,8.028335E-4,2.653543E-3,7.971671E-3,-1.6626036E-3,3.827838E-3,6.8824575E-3,-2.4214387E-6,-3.4376401E-3,3.823867E-3,-8.2891353E-4,2.750199E-3,3.93064E-3,-1.0811656E-2,2.0481714E-3,9.187786E-3,8.547016E-3,4.4251415E-3,3.49118E-3,1.4714325E-2,6.5592927E-4,-8.795156E-3,4.930216E-3,-5.543303E-3,3.3019574E-3,1.1933844E-2,8.910048E-4,8.036103E-3,-7.912758E-3,9.178165E-4,1.0775943E-2,7.5235083E-3,1.428659E-3,8.966497E-3,7.912463E-3,-9.5694885E-3,1.0136961E-2,1.5806014E-2],"split_indices":[425,816,431,442,193,228,422,33,747,794,775,810,34,365,390,716,434,248,400,816,278,508,73,829,756,821,610,432,821,822,33,22,718,258,633,408,608,563,804,137,709,364,821,193,300,385,530,58,565,255,408,502,754,364,156,566,599,826,811,798,444,658,191,0,0,0,0,0,0,0,0,0,0,0,0,0,0,0,0,0,0,0,0,0,0,0,0,0,0,0,0,0,0,0,0,0,0,0,0,0,0,0,0,0,0,0,0,0,0,0,0,0,0,0,0,0,0,0,0,0,0,0,0,0,0,0,0],"split_type":[0,0,0,0,0,0,0,0,0,0,0,0,0,0,0,0,0,0,0,0,0,0,0,0,0,0,0,0,0,0,0,0,0,0,0,0,0,0,0,0,0,0,0,0,0,0,0,0,0,0,0,0,0,0,0,0,0,0,0,0,0,0,0,0,0,0,0,0,0,0,0,0,0,0,0,0,0,0,0,0,0,0,0,0,0,0,0,0,0,0,0,0,0,0,0,0,0,0,0,0,0,0,0,0,0,0,0,0,0,0,0,0,0,0,0,0,0,0,0,0,0,0,0,0,0,0,0],"sum_hessian":[2.8015E4,1.3463E4,1.4552E4,7.621E3,5.842E3,1.0499E4,4.053E3,7.097E3,5.24E2,3.937E3,1.905E3,5.457E3,5.042E3,6.57E2,3.396E3,4.363E3,2.734E3,3.33E2,1.91E2,1.39E3,2.547E3,1.032E3,8.73E2,2.186E3,3.271E3,2.758E3,2.284E3,2.99E2,3.58E2,2.435E3,9.61E2,1.95E3,2.413E3,1.429E3,1.305E3,1.66E2,1.67E2,2.2E1,1.69E2,1.155E3,2.35E2,8.34E2,1.713E3,9.42E2,9E1,5.01E2,3.72E2,5.89E2,1.597E3,2.277E3,9.94E2,8.95E2,1.863E3,7.86E2,1.498E3,1.65E2,1.34E2,1.68E2,1.9E2,2.2E3,2.35E2,4.5E1,9.16E2,1.524E3,4.26E2,2.024E3,3.89E2,9.48E2,4.81E2,9.13E2,3.92E2,1.6E1,1.5E2,2.9E1,1.38E2,1.4E1,8E0,1.64E2,5E0,7.02E2,4.53E2,9.5E1,1.4E2,6.14E2,2.2E2,1.163E3,5.5E2,8.03E2,1.39E2,4.2E1,4.8E1,2.19E2,2.82E2,1.52E2,2.2E2,1.54E2,4.35E2,1.508E3,8.9E1,1.439E3,8.38E2,9.75E2,1.9E1,8.1E2,8.5E1,8.62E2,1.001E3,7.53E2,3.3E1,1.446E3,5.2E1,1.44E2,2.1E1,5E1,8.4E1,8.7E1,8.1E1,9.4E1,9.6E1,9.31E2,1.269E3,1.99E2,3.6E1,3.1E1,1.4E1,3.65E2,5.51E2],"tree_param":{"num_deleted":"0","num_feature":"840","num_nodes":"127","size_leaf_vector":"1"}},{"base_weights":[3.6411275E-5,-3.1090748E-2,3.8166683E-2,-6.0169894E-2,-1.5621133E-2,2.3475796E-2,8.8421084E-2,-4.235775E-2,-7.5104825E-2,-3.281975E-2,1.7280953E-3,8.868143E-3,4.450728E-2,5.1508166E-2,1.0042645E-1,-6.3717894E-2,-2.5963906E-2,-2.5780438E-3,-7.76831E-2,-4.554737E-2,-7.3903096E-3,-1.0383049E-2,2.1888822E-2,3.1531673E-2,1.0662163E-3,3.3220995E-2,7.208569E-2,6.460883E-2,2.121183E-3,1.0798476E-1,4.6312194E-2,-3.6640555E-2,-7.62163E-2,-3.6255915E-2,1.6090928E-2,-4.3624E-2,8.729055E-2,-1.0537503E-1,-7.227865E-2,-5.311858E-2,-2.159196E-2,-4.9146447E-2,4.943665E-3,1.6803397E-2,-2.3400445E-2,8.314493E-3,3.923286E-2,3.433945E-2,-1.0018304E-1,2.6733757E-3,-1.139591E-1,3.6202457E-2,-4.1702356E-2,2.431599E-2,8.713185E-2,7.80901E-2,1.8667117E-2,5.2936148E-2,-1.7844703E-2,9.435154E-2,1.298941E-1,2.1053908E-2,7.084788E-2,-6.844441E-3,2.988325E-4,3.8930983E-3,-7.953811E-3,-5.282275E-3,-1.0507628E-3,4.977956E-3,-2.246088E-3,-7.085815E-3,4.5450605E-3,1.2233868E-2,-1.2643712E-2,-1.0850138E-2,1.1110418E-2,-7.365382E-3,4.9070716E-3,-6.022932E-3,-2.0525565E-3,-1.630193E-3,-1.0723625E-2,-5.798347E-3,2.852246E-3,-2.8404123E-3,1.7740013E-3,4.849442E-3,-6.2927924E-4,-4.11491E-3,-3.118242E-4,-2.6313087E-3,1.6031035E-3,2.3990418E-3,6.7025586E-3,4.505336E-3,3.372651E-4,-1.9900221E-2,-1.775796E-3,-1.2578137E-3,1.5472587E-3,-5.157078E-3,-1.6864626E-2,2.9193268E-3,6.4812438E-3,-2.3735503E-3,-1.7255485E-2,8.152402E-3,5.8515486E-4,1.0588932E-2,6.532538E-3,6.6862716E-3,1.1073734E-2,3.736984E-3,-6.752649E-3,-2.520591E-4,8.38388E-3,1.1122527E-3,-5.957329E-3,1.0100326E-2,4.686357E-3,8.598283E-3,1.4904308E-2,1.223239E-3,1.274532E-2,8.865141E-3,-1.0321593E-3],"categories":[],"categories_nodes":[],"categories_segments":[],"categories_sizes":[],"default_left":[0,0,0,0,0,0,0,0,0,0,0,0,0,0,0,0,0,0,0,0,0,0,0,0,0,0,0,0,0,0,0,0,0,0,0,0,0,0,0,0,0,0,0,0,0,0,0,0,0,0,0,0,0,0,0,0,0,0,0,0,0,0,0,0,0,0,0,0,0,0,0,0,0,0,0,0,0,0,0,0,0,0,0,0,0,0,0,0,0,0,0,0,0,0,0,0,0,0,0,0,0,0,0,0,0,0,0,0,0,0,0,0,0,0,0,0,0,0,0,0,0,0,0,0,0,0,0],"id":12,"left_children":[1,3,5,7,9,11,13,15,17,19,21,23,25,27,29,31,33,35,37,39,41,43,45,47,49,51,53,55,57,59,61,63,65,67,69,71,73,75,77,79,81,83,85,87,89,91,93,95,97,99,101,103,105,107,109,111,113,115,117,119,121,123,125,-1,-1,-1,-1,-1,-1,-1,-1,-1,-1,-1,-1,-1,-1,-1,-1,-1,-1,-1,-1,-1,-1,-1,-1,-1,-1,-1,-1,-1,-1,-1,-1,-1,-1,-1,-1,-1,-1,-1,-1,-1,-1,-1,-1,-1,-1,-1,-1,-1,-1,-1,-1,-1,-1,-1,-1,-1,-1,-1,-1,-1,-1,-1,-1],"loss_changes":[3.325301E1,6.93789E0,9.294369E0,1.4216385E0,3.004771E0,2.9934702E0,1.2569275E0,8.545232E-1,5.443249E-1,1.6363935E0,1.224493E0,1.0170305E0,1.2407684E0,4.5341158E-1,8.7355804E-1,3.5627508E-1,6.0005105E-1,3.7637097E-1,4.1322708E-1,6.100745E-1,8.695952E-1,1.1091516E0,4.4276005E-1,5.481937E-1,7.915226E-1,6.3501835E-1,8.3091354E-1,3.4166384E-1,1.5110035E-1,5.504837E-1,1.627366E-1,4.249428E-1,2.8040695E-1,4.7421455E-1,3.5567895E-1,1.7303152E-1,2.551723E-1,3.2134676E-1,3.967743E-1,5.920706E-1,3.6568424E-1,2.6590323E-1,5.569596E-1,7.4322605E-1,7.6267326E-1,2.828577E-1,3.4830964E-1,4.7860026E-1,2.4896663E-1,8.2435995E-1,1.9260132E-1,5.45161E-1,2.5216413E-1,2.9423463E-1,3.5344172E-1,1.4947629E-1,2.0725447E-1,7.218929E-2,1.3000011E-1,3.6326313E-1,5.926027E-1,1.22336574E-1,1.9455892E-1,0E0,0E0,0E0,0E0,0E0,0E0,0E0,0E0,0E0,0E0,0E0,0E0,0E0,0E0,0E0,0E0,0E0,0E0,0E0,0E0,0E0,0E0,0E0,0E0,0E0,0E0,0E0,0E0,0E0,0E0,0E0,0E0,0E0,0E0,0E0,0E0,0E0,0E0,0E0,0E0,0E0,0E0,0E0,0E0,0E0,0E0,0E0,0E0,0E0,0E0,0E0,0E0,0E0,0E0,0E0,0E0,0E0,0E0,0E0,0E0,0E0,0E0,0E0,0E0],"parents":[2147483647,0,0,1,1,2,2,3,3,4,4,5,5,6,6,7,7,8,8,9,9,10,10,11,11,12,12,13,13,14,14,15,15,16,16,17,17,18,18,19,19,20,20,21,21,22,22,23,23,24,24,25,25,26,26,27,27,28,28,29,29,30,30,31,31,32,32,33,33,34,34,35,35,36,36,37,37,38,38,39,39,40,40,41,41,42,42,43,43,44,44,45,45,46,46,47,47,48,48,49,49,50,50,51,51,52,52,53,53,54,54,55,55,56,56,57,57,58,58,59,59,60,60,61,61,62,62],"right_children":[2,4,6,8,10,12,14,16,18,20,22,24,26,28,30,32,34,36,38,40,42,44,46,48,50,52,54,56,58,60,62,64,66,68,70,72,74,76,78,80,82,84,86,88,90,92,94,96,98,100,102,104,106,108,110,112,114,116,118,120,122,124,126,-1,-1,-1,-1,-1,-1,-1,-1,-1,-1,-1,-1,-1,-1,-1,-1,-1,-1,-1,-1,-1,-1,-1,-1,-1,-1,-1,-1,-1,-1,-1,-1,-1,-1,-1,-1,-1,-1,-1,-1,-1,-1,-1,-1,-1,-1,-1,-1,-1,-1,-1,-1,-1,-1,-1,-1,-1,-1,-1,-1,-1,-1,-1,-1],"split_conditions":[3.1281725E-1,1.146932E-1,5.650028E-1,4.2704347E-1,2.5609842E-1,1.3252775E-1,7.5E-1,3.636313E-1,2.7866023E-2,1.3252775E-1,5.5594614E-4,2.5326502E-1,5.7513607E-1,4.7167906E-1,2.5E-4,3.283577E-1,4.901136E-1,2.2128956E-1,6.69873E-2,1.6666666E-4,2.2487562E-2,2.4651039E-1,4.2951906E-1,8.6929643E-1,8.6846983E-1,9.330127E-1,2.533045E-1,6.821212E-1,2.0277819E-1,7.47563E-1,2.4923077E-1,2.4203064E-1,5.750095E-2,7.5E-1,3.5114172E-1,2.8668943E-1,4.8504984E-1,9.034819E-1,9.0886945E-1,1.914417E-1,9.8525E-1,8.182792E-1,2.5534877E-1,6.6527164E-1,4.164914E-1,1.4644662E-1,2.8268552E-1,9.829629E-1,4.3521595E-1,7.5E-1,3.3545604E-1,4.5392492E-1,5.568128E-1,6.69873E-2,4.299961E-1,6.766679E-1,4.9119633E-1,2.3384616E-1,3.447099E-1,4.451827E-1,2.861403E-1,8.18746E-1,6.8778414E-1,-6.844441E-3,2.988325E-4,3.8930983E-3,-7.953811E-3,-5.282275E-3,-1.0507628E-3,4.977956E-3,-2.246088E-3,-7.085815E-3,4.5450605E-3,1.2233868E-2,-1.2643712E-2,-1.0850138E-2,1.1110418E-2,-7.365382E-3,4.9070716E-3,-6.022932E-3,-2.0525565E-3,-1.630193E-3,-1.0723625E-2,-5.798347E-3,2.852246E-3,-2.8404123E-3,1.7740013E-3,4.849442E-3,-6.2927924E-4,-4.11491E-3,-3.118242E-4,-2.6313087E-3,1.6031035E-3,2.3990418E-3,6.7025586E-3,4.505336E-3,3.372651E-4,-1.9900221E-2,-1.775796E-3,-1.2578137E-3,1.5472587E-3,-5.157078E-3,-1.6864626E-2,2.9193268E-3,6.4812438E-3,-2.3735503E-3,-1.7255485E-2,8.152402E-3,5.8515486E-4,1.0588932E-2,6.532538E-3,6.6862716E-3,1.1073734E-2,3.736984E-3,-6.752649E-3,-2.520591E-4,8.38388E-3,1.1122527E-3,-5.957329E-3,1.0100326E-2,4.686357E-3,8.598283E-3,1.4904308E-2,1.223239E-3,1.274532E-2,8.865141E-3,-1.0321593E-3],"split_indices":[431,390,431,808,816,228,99,89,269,298,193,793,539,828,830,436,791,792,452,830,810,829,810,153,829,664,506,824,260,434,140,14,399,33,786,771,623,148,780,158,25,72,539,268,826,169,580,205,553,138,180,771,74,664,719,364,716,35,36,763,436,163,58,0,0,0,0,0,0,0,0,0,0,0,0,0,0,0,0,0,0,0,0,0,0,0,0,0,0,0,0,0,0,0,0,0,0,0,0,0,0,0,0,0,0,0,0,0,0,0,0,0,0,0,0,0,0,0,0,0,0,0,0,0,0,0,0],"split_type":[0,0,0,0,0,0,0,0,0,0,0,0,0,0,0,0,0,0,0,0,0,0,0,0,0,0,0,0,0,0,0,0,0,0,0,0,0,0,0,0,0,0,0,0,0,0,0,0,0,0,0,0,0,0,0,0,0,0,0,0,0,0,0,0,0,0,0,0,0,0,0,0,0,0,0,0,0,0,0,0,0,0,0,0,0,0,0,0,0,0,0,0,0,0,0,0,0,0,0,0,0,0,0,0,0,0,0,0,0,0,0,0,0,0,0,0,0,0,0,0,0,0,0,0,0,0,0],"sum_hessian":[2.8015E4,1.5424E4,1.2591E4,5.355E3,1.0069E4,9.744E3,2.847E3,2.444E3,2.911E3,5.056E3,5.013E3,5.751E3,3.993E3,7E2,2.147E3,1.06E3,1.384E3,1E2,2.811E3,3.369E3,1.687E3,3.132E3,1.881E3,1.472E3,4.279E3,2.835E3,1.158E3,5.53E2,1.47E2,1.883E3,2.64E2,3.36E2,7.24E2,1.112E3,2.72E2,6.9E1,3.1E1,4.56E2,2.355E3,2.559E3,8.1E2,3.84E2,1.303E3,1.014E3,2.118E3,1.056E3,8.25E2,1.442E3,3E1,4.221E3,5.8E1,2.727E3,1.08E2,2.78E2,8.8E2,4.27E2,1.26E2,4.1E1,1.06E2,1.164E3,7.19E2,1.31E2,1.33E2,1.86E2,1.5E2,2E1,7.04E2,6.76E2,4.36E2,1.45E2,1.27E2,5.3E1,1.6E1,2.7E1,4E0,4.5E2,6E0,2.329E3,2.6E1,2.1E3,4.59E2,7.64E2,4.6E1,3.45E2,3.9E1,3.61E2,9.42E2,4.27E2,5.87E2,1.129E3,9.89E2,1.92E2,8.64E2,5.34E2,2.91E2,1.071E3,3.71E2,1.3E1,1.7E1,1.926E3,2.295E3,2.8E1,3E1,2.192E3,5.35E2,9.6E1,1.2E1,6.7E1,2.11E2,4.71E2,4.09E2,3.2E2,1.07E2,1.04E2,2.2E1,1.5E1,2.6E1,6.3E1,4.3E1,1.02E3,1.44E2,2.2E2,4.99E2,1.22E2,9E0,1.09E2,2.4E1],"tree_param":{"num_deleted":"0","num_feature":"840","num_nodes":"127","size_leaf_vector":"1"}},{"base_weights":[3.3457807E-5,-1.7021859E-2,5.6912657E-2,-4.2679347E-2,1.6686731E-3,4.292523E-2,9.14786E-2,-2.3235302E-2,-5.957408E-2,-6.106305E-3,2.947823E-2,2.4992224E-2,5.5818014E-2,1.00976974E-1,3.3638116E-2,-4.5210235E-2,-1.1615552E-2,-6.2179387E-2,8.118809E-3,-2.883204E-2,9.089318E-3,6.425257E-5,3.7997536E-2,1.1334268E-2,4.7520716E-2,7.06466E-2,3.8756642E-2,4.0951733E-2,1.0772011E-1,4.6265863E-2,-4.5085233E-2,1.2132327E-2,-5.1976025E-2,-2.1381833E-2,2.3660084E-2,-5.2098542E-2,-7.765508E-2,-7.935174E-3,2.5694722E-2,-4.043788E-2,-8.907061E-3,1.6994478E-2,-2.3817303E-2,6.1043315E-2,-1.2659851E-2,6.160691E-2,2.790366E-2,3.7090473E-2,-6.7147496E-3,4.3997418E-2,1.8385513E-1,7.560787E-2,1.6794808E-2,2.5904495E-2,5.903229E-2,-5.3673744E-2,5.5323627E-2,6.635764E-2,1.15553446E-1,5.8069125E-2,-2.524037E-2,-6.423718E-2,9.033466E-3,1.3774601E-2,-6.429481E-4,-5.8982833E-3,-1.1473123E-3,-3.1632928E-3,3.4942434E-4,3.2925338E-3,-1.0021937E-2,-3.0218523E-3,-6.308049E-3,9.21144E-3,-7.90042E-3,5.2785445E-3,-5.942973E-3,-1.005682E-3,-5.2946066E-3,-4.142376E-4,-6.5874266E-3,8.2671794E-4,3.9035168E-3,-5.265442E-3,-4.2395473E-5,9.341219E-3,4.0010475E-3,-5.95257E-3,1.830025E-4,7.144642E-3,-1.6932981E-4,6.4664856E-3,2.1648486E-3,-1.2820962E-2,4.216825E-3,1.0909726E-3,-3.978708E-3,5.1700403E-3,-1.0331272E-3,2.4578987E-2,7.571301E-3,1.4245979E-2,7.188983E-3,3.3792332E-3,-5.401977E-3,3.7338203E-4,4.2985748E-3,-5.631781E-3,6.492223E-3,2.356513E-3,