{"learner":{"attributes":{"scikit_learn":"{\"_estimator_type\": \"regressor\"}"},"feature_names":[],"feature_types":[],"gradient_booster":{"model":{"gbtree_model_param":{"num_parallel_tree":"1","num_trees":"100"},"iteration_indptr":[0,1,2,3,4,5,6,7,8,9,10,11,12,13,14,15,16,17,18,19,20,21,22,23,24,25,26,27,28,29,30,31,32,33,34,35,36,37,38,39,40,41,42,43,44,45,46,47,48,49,50,51,52,53,54,55,56,57,58,59,60,61,62,63,64,65,66,67,68,69,70,71,72,73,74,75,76,77,78,79,80,81,82,83,84,85,86,87,88,89,90,91,92,93,94,95,96,97,98,99,100],"tree_info":[0,0,0,0,0,0,0,0,0,0,0,0,0,0,0,0,0,0,0,0,0,0,0,0,0,0,0,0,0,0,0,0,0,0,0,0,0,0,0,0,0,0,0,0,0,0,0,0,0,0,0,0,0,0,0,0,0,0,0,0,0,0,0,0,0,0,0,0,0,0,0,0,0,0,0,0,0,0,0,0,0,0,0,0,0,0,0,0,0,0,0,0,0,0,0,0,0,0,0,0],"trees":[{"base_weights":[2.6029714E-9,-1.599235E-1,1.548364E-1,-2.509042E-1,-7.707586E-2,9.278516E-2,3.1675953E-1,-2.9151362E-1,-2.1026787E-1,-1.2353203E-1,-4.05013E-2,4.979211E-2,1.4831194E-1,2.6494664E-1,4.1994813E-1,-3.025908E-1,-2.6539E-1,-2.3190115E-1,-1.8854629E-1,-1.3549533E-1,-7.209522E-2,-5.2970506E-2,2.2029874E-3,2.593424E-2,7.650729E-2,1.222409E-1,1.756724E-1,2.3534708E-1,3.0619812E-1,3.8891575E-1,5.1121396E-1,-3.0837965E-1,-2.907411E-1,-5.8912714E-3,-2.6561958E-1,-2.4068496E-1,-1.9675544E-1,-2.0198569E-1,-1.4921206E-1,-1.5174215E-1,-1.1159314E-1,-1.116696E-1,-4.933772E-2,-7.5681835E-2,-3.3489548E-2,-3.26512E-2,2.5224261E-2,1.418334E-2,6.1046246E-2,6.460358E-2,1.1120495E-1,1.0950716E-1,1.5144265E-1,1.5663427E-1,2.0448779E-1,2.1266878E-1,2.7181157E-1,2.7326638E-1,3.2971272E-1,3.4694356E-1,4.0966055E-1,3.302416E-2,5.120959E-1,-1.9463409E-2,-9.254899E-2,-1.2458434E-2,-8.730313E-2,-7.982679E-2,-3.610066E-2,-7.505959E-2,-6.888817E-2,-6.4354524E-2,-5.197956E-2,-6.360544E-2,-5.6049954E-2,-4.680407E-2,-2.74442E-2,-5.0365366E-2,-4.2494543E-2,-3.762293E-2,-2.9735683E-2,-4.009384E-2,-2.7623659E-2,-1.8890258E-2,-4.951278E-3,-3.3285294E-2,-2.0875484E-2,-1.7287783E-2,-7.3864586E-3,-1.8202003E-2,-4.521026E-3,-1.0277329E-3,1.1774642E-2,1.410248E-3,9.506194E-3,1.0449263E-2,2.6049877E-2,1.1759462E-2,2.1272285E-2,2.526311E-2,3.9804205E-2,2.8160375E-2,3.6181945E-2,3.984352E-2,5.4905564E-2,3.8758792E-2,4.9034838E-2,5.710117E-2,7.52397E-2,5.517832E-2,6.6633515E-2,7.807651E-2,9.1525435E-2,4.4201E-2,8.2803346E-2,1.14409156E-1,9.6139945E-2,9.5190175E-2,1.0903628E-1,1.1648031E-1,1.3394703E-1,1.5401848E-1,5.9813302E-2],"categories":[],"categories_nodes":[],"categories_segments":[],"categories_sizes":[],"default_left":[0,0,0,0,0,0,0,0,0,0,0,0,0,0,0,0,0,0,0,0,0,0,0,0,0,0,0,0,0,0,0,0,0,0,0,0,0,0,0,0,0,0,0,0,0,0,0,0,0,0,0,0,0,0,0,0,0,0,0,0,0,0,0,0,0,0,0,0,0,0,0,0,0,0,0,0,0,0,0,0,0,0,0,0,0,0,0,0,0,0,0,0,0,0,0,0,0,0,0,0,0,0,0,0,0,0,0,0,0,0,0,0,0,0,0,0,0,0,0,0,0,0,0],"id":0,"left_children":[1,3,5,7,9,11,13,15,17,19,21,23,25,27,29,31,33,35,37,39,41,43,45,47,49,51,53,55,57,59,61,63,65,-1,67,69,71,73,75,77,79,81,83,85,87,89,91,93,95,97,99,101,103,105,107,109,111,113,115,117,119,-1,121,-1,-1,-1,-1,-1,-1,-1,-1,-1,-1,-1,-1,-1,-1,-1,-1,-1,-1,-1,-1,-1,-1,-1,-1,-1,-1,-1,-1,-1,-1,-1,-1,-1,-1,-1,-1,-1,-1,-1,-1,-1,-1,-1,-1,-1,-1,-1,-1,-1,-1,-1,-1,-1,-1,-1,-1,-1,-1,-1,-1],"loss_changes":[6.9405347E2,1.0390823E2,1.4305753E2,1.0782288E1,1.2259197E1,2.4574287E1,2.0980682E1,8.699951E-1,1.5013428E0,1.9464493E0,2.151371E0,3.6979342E0,3.1834564E0,3.1380157E0,3.531189E0,6.80542E-2,5.040741E-2,4.5986176E-1,8.399849E-1,9.841919E-1,5.3665996E-1,1.38097E0,7.34206E-1,1.2649837E0,1.1236954E0,8.4015274E-1,1.1693878E0,1.2115631E0,7.57843E-1,7.1725464E-1,6.073761E-2,2.3498535E-2,3.9741516E-2,0E0,3.5202026E-2,8.036041E-2,1.0216808E-1,1.4645386E-1,1.5182304E-1,2.2583771E-1,1.6802216E-1,8.198166E-2,1.7080599E-1,3.0257034E-1,3.5924208E-1,1.7841402E-1,2.2152832E-1,3.8160884E-1,5.168252E-1,3.2409954E-1,3.9347744E-1,2.678032E-1,3.857298E-1,2.2628021E-1,5.2108765E-1,2.1724701E-1,1.4554977E-1,1.1902237E-1,1.8057251E-1,4.76532E-2,3.427124E-1,0E0,3.1684875E-2,0E0,0E0,0E0,0E0,0E0,0E0,0E0,0E0,0E0,0E0,0E0,0E0,0E0,0E0,0E0,0E0,0E0,0E0,0E0,0E0,0E0,0E0,0E0,0E0,0E0,0E0,0E0,0E0,0E0,0E0,0E0,0E0,0E0,0E0,0E0,0E0,0E0,0E0,0E0,0E0,0E0,0E0,0E0,0E0,0E0,0E0,0E0,0E0,0E0,0E0,0E0,0E0,0E0,0E0,0E0,0E0,0E0,0E0,0E0,0E0],"parents":[2147483647,0,0,1,1,2,2,3,3,4,4,5,5,6,6,7,7,8,8,9,9,10,10,11,11,12,12,13,13,14,14,15,15,16,16,17,17,18,18,19,19,20,20,21,21,22,22,23,23,24,24,25,25,26,26,27,27,28,28,29,29,30,30,31,31,32,32,34,34,35,35,36,36,37,37,38,38,39,39,40,40,41,41,42,42,43,43,44,44,45,45,46,46,47,47,48,48,49,49,50,50,51,51,52,52,53,53,54,54,55,55,56,56,57,57,58,58,59,59,60,60,62,62],"right_children":[2,4,6,8,10,12,14,16,18,20,22,24,26,28,30,32,34,36,38,40,42,44,46,48,50,52,54,56,58,60,62,64,66,-1,68,70,72,74,76,78,80,82,84,86,88,90,92,94,96,98,100,102,104,106,108,110,112,114,116,118,120,-1,122,-1,-1,-1,-1,-1,-1,-1,-1,-1,-1,-1,-1,-1,-1,-1,-1,-1,-1,-1,-1,-1,-1,-1,-1,-1,-1,-1,-1,-1,-1,-1,-1,-1,-1,-1,-1,-1,-1,-1,-1,-1,-1,-1,-1,-1,-1,-1,-1,-1,-1,-1,-1,-1,-1,-1,-1,-1,-1,-1,-1],"split_conditions":[3.215257E-1,1.4991708E-1,5.3665006E-1,5.5456053E-2,2.3555556E-1,4.274627E-1,6.7482585E-1,2.965174E-2,1.0235489E-1,2.4932551E-1,2.341678E-1,3.791708E-1,4.752902E-1,6.051078E-1,7.9635155E-1,1.6915424E-2,2.7184539E-2,2.9162648E-1,1.2199748E-1,2.0106135E-1,1.7235966E-1,2.786733E-1,1.0249031E-1,2.4198374E-1,3.0752E-1,2.997858E-1,2.920189E-1,2.4172212E-1,3.5453832E-1,2.8189741E-2,1.15384616E-1,1.2497696E-2,3.4345914E-2,-5.8912714E-3,9.0886945E-1,8.053068E-2,3.2110125E-1,1.11252114E-1,5.130781E-1,1.3702059E-1,1.8429217E-1,1.9535655E-1,1.9849831E-1,1.6645516E-1,2.3149323E-1,2.7402985E-1,2.66733E-1,3.586733E-1,1.7250682E-1,3.233573E-1,1.0612031E-2,4.124718E-1,3.750511E-1,4.3876904E-1,5.870647E-1,5.1304287E-1,3.1966054E-1,4.4691202E-1,3.6528934E-2,7.030846E-1,7.385738E-1,3.302416E-2,6.5785897E-1,-1.9463409E-2,-9.254899E-2,-1.2458434E-2,-8.730313E-2,-7.982679E-2,-3.610066E-2,-7.505959E-2,-6.888817E-2,-6.4354524E-2,-5.197956E-2,-6.360544E-2,-5.6049954E-2,-4.680407E-2,-2.74442E-2,-5.0365366E-2,-4.2494543E-2,-3.762293E-2,-2.9735683E-2,-4.009384E-2,-2.7623659E-2,-1.8890258E-2,-4.951278E-3,-3.3285294E-2,-2.0875484E-2,-1.7287783E-2,-7.3864586E-3,-1.8202003E-2,-4.521026E-3,-1.0277329E-3,1.1774642E-2,1.410248E-3,9.506194E-3,1.0449263E-2,2.6049877E-2,1.1759462E-2,2.1272285E-2,2.526311E-2,3.9804205E-2,2.8160375E-2,3.6181945E-2,3.984352E-2,5.4905564E-2,3.8758792E-2,4.9034838E-2,5.710117E-2,7.52397E-2,5.517832E-2,6.6633515E-2,7.807651E-2,9.1525435E-2,4.4201E-2,8.2803346E-2,1.14409156E-1,9.6139945E-2,9.5190175E-2,1.0903628E-1,1.1648031E-1,1.3394703E-1,1.5401848E-1,5.9813302E-2],"split_indices":[672,672,672,672,672,672,672,672,672,685,685,672,672,672,672,672,242,47,18,672,105,672,134,685,685,685,685,47,685,47,58,335,139,0,474,672,98,678,127,678,678,672,678,678,678,672,672,672,134,678,163,678,134,678,179,678,613,678,511,672,672,0,218,0,0,0,0,0,0,0,0,0,0,0,0,0,0,0,0,0,0,0,0,0,0,0,0,0,0,0,0,0,0,0,0,0,0,0,0,0,0,0,0,0,0,0,0,0,0,0,0,0,0,0,0,0,0,0,0,0,0,0,0],"split_type":[0,0,0,0,0,0,0,0,0,0,0,0,0,0,0,0,0,0,0,0,0,0,0,0,0,0,0,0,0,0,0,0,0,0,0,0,0,0,0,0,0,0,0,0,0,0,0,0,0,0,0,0,0,0,0,0,0,0,0,0,0,0,0,0,0,0,0,0,0,0,0,0,0,0,0,0,0,0,0,0,0,0,0,0,0,0,0,0,0,0,0,0,0,0,0,0,0,0,0,0,0,0,0,0,0,0,0,0,0,0,0,0,0,0,0,0,0,0,0,0,0,0,0],"sum_hessian":[2.8027E4,1.3787E4,1.424E4,6.57E3,7.217E3,1.0296E4,3.944E3,3.283E3,3.287E3,3.178E3,4.039E3,5.804E3,4.492E3,2.628E3,1.316E3,2.298E3,9.85E2,1.642E3,1.645E3,2.577E3,6.01E2,3.126E3,9.13E2,3.067E3,2.737E3,2.303E3,2.189E3,1.534E3,1.094E3,9.86E2,3.3E2,1.527E3,7.71E2,1E0,9.84E2,1.309E3,3.33E2,1.223E3,4.22E2,1.531E3,1.046E3,2.18E2,3.83E2,1.442E3,1.684E3,3.63E2,5.5E2,2.299E3,7.68E2,2.04E3,6.97E2,1.607E3,6.96E2,1.322E3,8.67E2,9.5E2,5.84E2,4.61E2,6.33E2,3.32E2,6.54E2,1E0,3.29E2,1E0,1.526E3,1E0,7.7E2,9.8E2,4E0,6.92E2,6.17E2,1.85E2,1.48E2,7.28E2,4.95E2,3.76E2,4.6E1,5.83E2,9.48E2,4.92E2,5.54E2,1E2,1.18E2,2.7E2,1.13E2,2.1E2,1.232E3,4.51E2,1.233E3,1.39E2,2.24E2,1.81E2,3.69E2,1.492E3,8.07E2,3.82E2,3.86E2,4.07E2,1.633E3,3.11E2,3.86E2,6.71E2,9.36E2,4.41E2,2.55E2,2.67E2,1.055E3,6.68E2,1.99E2,2.4E2,7.1E2,4.4E2,1.44E2,1.1E1,4.5E2,9E1,5.43E2,1.26E2,2.06E2,4.21E2,2.33E2,3.27E2,2E0],"tree_param":{"num_deleted":"0","num_feature":"696","num_nodes":"123","size_leaf_vector":"1"}},{"base_weights":[2.586391E-5,-1.1564168E-1,1.05356656E-1,-1.76821E-1,-5.8329724E-2,5.8047783E-2,2.1250206E-1,-1.998754E-1,-1.4311956E-1,-9.192762E-2,-3.470062E-2,2.770581E-2,9.3266934E-2,1.735663E-1,2.8727147E-1,-2.1147132E-1,-1.8018962E-1,-1.4987786E-1,-1.0597906E-1,-1.0652155E-1,-6.691125E-2,-4.410532E-2,-3.0817115E-3,1.0736279E-2,4.4578593E-2,7.430387E-2,1.0971726E-1,1.4974506E-1,1.9920997E-1,2.5826216E-1,3.3871415E-1,-2.1517009E-1,-1.9900322E-1,-1.8689862E-1,-1.6418388E-1,-1.5956812E-1,-1.359755E-1,-1.5051463E-1,-9.083702E-2,-1.2312184E-1,-9.673078E-2,-7.3387444E-2,-2.4892073E-2,-5.7144113E-2,-2.6983397E-2,-2.0571167E-2,1.4451983E-2,-6.7152405E-6,3.4758285E-2,3.3720143E-2,6.767008E-2,6.5300934E-2,9.774341E-2,1.4887448E-1,1.0307973E-1,1.3074352E-1,1.716361E-1,1.7733668E-1,2.2212598E-1,2.9204068E-1,2.4493784E-1,3.1242576E-1,3.7597945E-1,-1.6208734E-2,-6.456846E-2,-2.2186683E-2,-5.986203E-2,-6.971702E-4,-5.6179967E-2,-5.1959403E-2,-4.0915955E-2,-4.716661E-2,-5.7522845E-2,-2.921311E-2,-4.16836E-2,-2.1348068E-2,-4.6953354E-2,-2.7568085E-2,3.4872133E-2,-3.720077E-2,1.5893314E-2,-3.2530416E-2,-2.5986899E-2,-2.993507E-2,-1.9674456E-2,-2.1930652E-2,-3.881253E-3,-2.2681048E-2,-1.4918075E-2,-1.1674045E-2,-4.974436E-3,-1.2132957E-2,-2.7382048E-3,9.7727E-3,-1.0735677E-3,-5.8305464E-3,2.4576536E-3,7.2184037E-3,1.5107404E-2,6.5736393E-3,1.2932731E-2,3.079944E-2,1.7729452E-2,5.8547333E-3,2.0287286E-2,2.6979068E-2,4.356785E-2,4.0349755E-2,5.623642E-2,2.5087694E-2,3.2565083E-2,4.151628E-2,3.142246E-2,4.7070023E-2,5.8411144E-2,3.8370445E-2,5.4987337E-2,7.213704E-2,6.2974446E-2,8.7877825E-2,7.5489255E-3,5.9837095E-2,7.5428344E-2,7.963232E-2,9.8235406E-2,1.1308158E-1,2.4458699E-2],"categories":[],"categories_nodes":[],"categories_segments":[],"categories_sizes":[],"default_left":[0,0,0,0,0,0,0,0,0,0,0,0,0,0,0,0,0,0,0,0,0,0,0,0,0,0,0,0,0,0,0,0,0,0,0,0,0,0,0,0,0,0,0,0,0,0,0,0,0,0,0,0,0,0,0,0,0,0,0,0,0,0,0,0,0,0,0,0,0,0,0,0,0,0,0,0,0,0,0,0,0,0,0,0,0,0,0,0,0,0,0,0,0,0,0,0,0,0,0,0,0,0,0,0,0,0,0,0,0,0,0,0,0,0,0,0,0,0,0,0,0,0,0,0,0,0,0],"id":1,"left_children":[1,3,5,7,9,11,13,15,17,19,21,23,25,27,29,31,33,35,37,39,41,43,45,47,49,51,53,55,57,59,61,63,65,67,69,71,73,75,77,79,81,83,85,87,89,91,93,95,97,99,101,103,105,107,109,111,113,115,117,119,121,123,125,-1,-1,-1,-1,-1,-1,-1,-1,-1,-1,-1,-1,-1,-1,-1,-1,-1,-1,-1,-1,-1,-1,-1,-1,-1,-1,-1,-1,-1,-1,-1,-1,-1,-1,-1,-1,-1,-1,-1,-1,-1,-1,-1,-1,-1,-1,-1,-1,-1,-1,-1,-1,-1,-1,-1,-1,-1,-1,-1,-1,-1,-1,-1,-1],"loss_changes":[3.414872E2,4.6830414E1,7.434885E1,4.991379E0,5.4738445E0,1.0873817E1,1.3030197E1,8.3709717E-1,6.437607E-1,1.0326405E0,1.204793E0,1.565423E0,1.4611282E0,1.7764893E0,2.2062073E0,6.81839E-2,1.2265396E-1,2.775116E-1,2.614665E-1,2.80159E-1,2.8444815E-1,6.956649E-1,2.8548625E-1,7.040105E-1,6.8524075E-1,4.5597172E-1,6.396179E-1,6.168976E-1,6.728859E-1,3.726883E-1,4.2232513E-1,5.630493E-3,2.3107529E-2,6.7409515E-2,8.412266E-2,6.820679E-2,9.181595E-2,3.739953E-2,7.785249E-2,1.09396935E-1,1.2487888E-1,1.8116426E-1,8.0893196E-2,2.3885679E-1,1.6713274E-1,1.0560472E-1,1.5206921E-1,3.0058336E-1,1.3945925E-1,2.060399E-1,2.5670815E-1,1.673913E-1,2.11761E-1,1.7610931E-1,2.2058868E-1,1.4988041E-1,2.1113968E-1,1.9202805E-1,1.0397339E-1,5.7374954E-2,1.6059875E-1,1.453476E-1,3.224373E-2,0E0,0E0,0E0,0E0,0E0,0E0,0E0,0E0,0E0,0E0,0E0,0E0,0E0,0E0,0E0,0E0,0E0,0E0,0E0,0E0,0E0,0E0,0E0,0E0,0E0,0E0,0E0,0E0,0E0,0E0,0E0,0E0,0E0,0E0,0E0,0E0,0E0,0E0,0E0,0E0,0E0,0E0,0E0,0E0,0E0,0E0,0E0,0E0,0E0,0E0,0E0,0E0,0E0,0E0,0E0,0E0,0E0,0E0,0E0,0E0,0E0,0E0,0E0,0E0],"parents":[2147483647,0,0,1,1,2,2,3,3,4,4,5,5,6,6,7,7,8,8,9,9,10,10,11,11,12,12,13,13,14,14,15,15,16,16,17,17,18,18,19,19,20,20,21,21,22,22,23,23,24,24,25,25,26,26,27,27,28,28,29,29,30,30,31,31,32,32,33,33,34,34,35,35,36,36,37,37,38,38,39,39,40,40,41,41,42,42,43,43,44,44,45,45,46,46,47,47,48,48,49,49,50,50,51,51,52,52,53,53,54,54,55,55,56,56,57,57,58,58,59,59,60,60,61,61,62,62],"right_children":[2,4,6,8,10,12,14,16,18,20,22,24,26,28,30,32,34,36,38,40,42,44,46,48,50,52,54,56,58,60,62,64,66,68,70,72,74,76,78,80,82,84,86,88,90,92,94,96,98,100,102,104,106,108,110,112,114,116,118,120,122,124,126,-1,-1,-1,-1,-1,-1,-1,-1,-1,-1,-1,-1,-1,-1,-1,-1,-1,-1,-1,-1,-1,-1,-1,-1,-1,-1,-1,-1,-1,-1,-1,-1,-1,-1,-1,-1,-1,-1,-1,-1,-1,-1,-1,-1,-1,-1,-1,-1,-1,-1,-1,-1,-1,-1,-1,-1,-1,-1,-1,-1,-1,-1,-1,-1],"split_conditions":[3.1349918E-1,1.46733E-1,5.185406E-1,7.091211E-2,2.2361526E-1,4.1386402E-1,6.579768E-1,3.2437813E-2,2.341678E-1,6.211881E-2,2.7424496E-1,3.643781E-1,4.5524377E-1,5.763184E-1,7.570813E-1,1.6920473E-2,2.2905472E-1,1.1522388E-1,3.9897314E-3,1.4216723E-1,4.9016497E-1,2.4330232E-1,4.2527363E-1,1.8483575E-1,1.8483575E-1,2.9162648E-1,3.4832504E-1,2.920189E-1,1.4287816E-1,1.1772978E-3,8.256716E-1,1.2147651E-1,9.3441084E-2,7.03514E-2,2.1225698E-1,2.419674E-1,7.402985E-2,4.120489E-1,8.7711805E-1,9.0886945E-1,1.8932007E-1,1.6517413E-1,3.7073708E-1,3.994944E-1,2.853068E-1,2.1263395E-1,5.5011183E-1,2.7679074E-1,3.1211692E-1,2.8239202E-1,3.1728026E-1,3.0685985E-1,4.8593432E-1,6.0987735E-1,4.2294136E-1,3.467601E-1,4.2709747E-1,5.175902E-1,8.175679E-4,7.385738E-1,2.591362E-1,3.751165E-1,5.679711E-1,-1.6208734E-2,-6.456846E-2,-2.2186683E-2,-5.986203E-2,-6.971702E-4,-5.6179967E-2,-5.1959403E-2,-4.0915955E-2,-4.716661E-2,-5.7522845E-2,-2.921311E-2,-4.16836E-2,-2.1348068E-2,-4.6953354E-2,-2.7568085E-2,3.4872133E-2,-3.720077E-2,1.5893314E-2,-3.2530416E-2,-2.5986899E-2,-2.993507E-2,-1.9674456E-2,-2.1930652E-2,-3.881253E-3,-2.2681048E-2,-1.4918075E-2,-1.1674045E-2,-4.974436E-3,-1.2132957E-2,-2.7382048E-3,9.7727E-3,-1.0735677E-3,-5.8305464E-3,2.4576536E-3,7.2184037E-3,1.5107404E-2,6.5736393E-3,1.2932731E-2,3.079944E-2,1.7729452E-2,5.8547333E-3,2.0287286E-2,2.6979068E-2,4.356785E-2,4.0349755E-2,5.623642E-2,2.5087694E-2,3.2565083E-2,4.151628E-2,3.142246E-2,4.7070023E-2,5.8411144E-2,3.8370445E-2,5.4987337E-2,7.213704E-2,6.2974446E-2,8.7877825E-2,7.5489255E-3,5.9837095E-2,7.5428344E-2,7.963232E-2,9.8235406E-2,1.1308158E-1,2.4458699E-2],"split_indices":[672,672,672,672,672,672,672,672,685,18,18,672,672,672,672,678,92,672,134,678,98,678,92,18,18,18,585,685,47,424,672,532,139,487,685,598,643,102,39,648,672,672,642,686,672,678,690,678,642,695,643,678,613,185,678,677,105,678,453,469,695,685,178,0,0,0,0,0,0,0,0,0,0,0,0,0,0,0,0,0,0,0,0,0,0,0,0,0,0,0,0,0,0,0,0,0,0,0,0,0,0,0,0,0,0,0,0,0,0,0,0,0,0,0,0,0,0,0,0,0,0,0,0,0,0,0,0],"split_type":[0,0,0,0,0,0,0,0,0,0,0,0,0,0,0,0,0,0,0,0,0,0,0,0,0,0,0,0,0,0,0,0,0,0,0,0,0,0,0,0,0,0,0,0,0,0,0,0,0,0,0,0,0,0,0,0,0,0,0,0,0,0,0,0,0,0,0,0,0,0,0,0,0,0,0,0,0,0,0,0,0,0,0,0,0,0,0,0,0,0,0,0,0,0,0,0,0,0,0,0,0,0,0,0,0,0,0,0,0,0,0,0,0,0,0,0,0,0,0,0,0,0,0,0,0,0,0],"sum_hessian":[2.8027E4,1.3358E4,1.4669E4,6.46E3,6.898E3,1.0177E4,4.492E3,3.833E3,2.627E3,2.847E3,4.051E3,5.468E3,4.709E3,2.956E3,1.536E3,2.406E3,1.427E3,2.22E3,4.07E2,1.796E3,1.051E3,3.122E3,9.29E2,2.727E3,2.741E3,2.19E3,2.519E3,1.536E3,1.42E3,9.86E2,5.5E2,1.843E3,5.63E2,9.98E2,4.29E2,1.302E3,9.18E2,1.01E2,3.06E2,6.62E2,1.134E3,9.1E2,1.41E2,1.771E3,1.351E3,4.65E2,4.64E2,1.885E3,8.42E2,1.866E3,8.75E2,1.585E3,6.05E2,3.62E2,2.157E3,8.26E2,7.1E2,7.31E2,6.89E2,2.73E2,7.13E2,3.28E2,2.22E2,1E0,1.842E3,3E0,5.6E2,2E0,9.96E2,3.2E2,1.09E2,1.219E3,8.3E1,6.8E1,8.5E2,8E0,9.3E1,3.05E2,1E0,6.59E2,3E0,5.21E2,6.13E2,2.05E2,7.05E2,2.7E1,1.14E2,5.05E2,1.266E3,6.28E2,7.23E2,1.69E2,2.96E2,2.31E2,2.33E2,5.59E2,1.326E3,5.01E2,3.41E2,8.28E2,1.038E3,1.7E2,7.05E2,7.7E1,1.508E3,5.22E2,8.3E1,2.67E2,9.5E1,4.77E2,1.68E3,6.35E2,1.91E2,4.38E2,2.72E2,8.1E1,6.5E2,2.68E2,4.21E2,2.72E2,1E0,9.3E1,6.2E2,8.4E1,2.44E2,2.21E2,1E0],"tree_param":{"num_deleted":"0","num_feature":"696","num_nodes":"127","size_leaf_vector":"1"}},{"base_weights":[3.6876525E-5,-7.511048E-2,8.0061555E-2,-1.218357E-1,-3.3691794E-2,5.058273E-2,1.6116731E-1,-1.385641E-1,-9.494529E-2,-5.85825E-2,-1.5390794E-2,2.958111E-2,7.730618E-2,1.3752976E-1,2.1543407E-1,-1.4763269E-1,-1.2371575E-1,-1.0144428E-1,-7.4031375E-2,-6.7188844E-2,-3.926063E-2,-2.3428878E-2,3.6975984E-3,1.861315E-2,4.2811688E-2,6.557641E-2,9.48367E-2,1.256672E-1,1.6432294E-1,2.0284645E-1,2.6380238E-1,-1.4955989E-1,-1.309122E-1,-1.2666756E-1,-1.0830672E-1,-1.16689235E-1,-9.44771E-2,-9.793894E-2,-6.407368E-2,-7.815057E-2,-5.546011E-2,-5.082255E-2,-2.6607519E-2,-4.0384203E-2,-1.30361E-2,-1.3119491E-3,3.684979E-2,4.446098E-2,1.3173831E-2,6.8293884E-2,3.795892E-2,5.7744354E-2,8.359435E-2,1.3602881E-1,8.880964E-2,1.08973525E-1,1.4115347E-1,1.8794283E-1,1.509973E-1,1.7829391E-1,2.1405968E-1,2.2662656E-1,2.803838E-1,-4.6346627E-2,-4.3836594E-2,-3.959715E-2,-7.3771193E-3,-3.8058043E-2,1.9421058E-2,-3.296604E-2,6.4425063E-3,-1.9999618E-2,-3.5448667E-2,-1.8545482E-2,-2.939118E-2,-3.0366963E-2,-4.2791027E-3,-2.3153743E-2,-1.546406E-2,-2.2772E-2,-3.653129E-2,-1.4688579E-2,-2.4306467E-2,-2.1141568E-2,-1.2348018E-2,1.0822578E-3,-9.227703E-3,-1.0855565E-2,-2.1480354E-2,1.742422E-3,-5.0573694E-3,-2.6273914E-3,4.447423E-3,1.9016782E-2,6.1607263E-3,9.4147045E-3,2.159169E-2,-2.1078284E-3,5.3266906E-3,1.6188147E-2,2.7263755E-2,1.2519059E-2,6.33822E-3,-2.5303443E-3,1.7744549E-2,3.1427193E-2,2.2605551E-2,3.394323E-2,4.787014E-2,2.1019898E-2,2.842647E-2,2.9663078E-2,3.71525E-2,3.9807707E-2,4.8705034E-2,6.591454E-2,5.2916493E-2,4.571523E-2,-4.865903E-3,3.845995E-2,5.4939967E-2,7.077124E-2,6.1250843E-2,2.6846679E-2,6.9348216E-2,8.445277E-2,1.6904417E-2],"categories":[],"categories_nodes":[],"categories_segments":[],"categories_sizes":[],"default_left":[0,0,0,0,0,0,0,0,0,0,0,0,0,0,0,0,0,0,0,0,0,0,0,0,0,0,0,0,0,0,0,0,0,0,0,0,0,0,0,0,0,0,0,0,0,0,0,0,0,0,0,0,0,0,0,0,0,0,0,0,0,0,0,0,0,0,0,0,0,0,0,0,0,0,0,0,0,0,0,0,0,0,0,0,0,0,0,0,0,0,0,0,0,0,0,0,0,0,0,0,0,0,0,0,0,0,0,0,0,0,0,0,0,0,0,0,0,0,0,0,0,0,0,0,0,0,0],"id":2,"left_children":[1,3,5,7,9,11,13,15,17,19,21,23,25,27,29,31,33,35,37,39,41,43,45,47,49,51,53,55,57,59,61,63,65,67,69,71,73,75,77,79,81,83,85,87,89,91,93,95,97,99,101,103,105,107,109,111,113,115,117,119,121,123,125,-1,-1,-1,-1,-1,-1,-1,-1,-1,-1,-1,-1,-1,-1,-1,-1,-1,-1,-1,-1,-1,-1,-1,-1,-1,-1,-1,-1,-1,-1,-1,-1,-1,-1,-1,-1,-1,-1,-1,-1,-1,-1,-1,-1,-1,-1,-1,-1,-1,-1,-1,-1,-1,-1,-1,-1,-1,-1,-1,-1,-1,-1,-1,-1],"loss_changes":[1.6855641E2,2.797062E1,3.2445953E1,3.0421066E0,3.49024E0,5.5859375E0,4.6112976E0,5.4525757E-1,3.469677E-1,5.373087E-1,6.7795837E-1,8.084955E-1,8.9463997E-1,7.812538E-1,6.13781E-1,6.397629E-2,5.87368E-2,2.0002365E-1,1.4180064E-1,2.842989E-1,1.4538085E-1,5.4731977E-1,2.1760984E-1,4.2836845E-1,3.0989456E-1,3.6602974E-1,4.2338085E-1,4.37809E-1,2.1429062E-1,2.0245743E-1,7.39212E-2,1.670456E-2,2.8396606E-2,5.7275772E-2,5.6292057E-2,3.7733078E-2,1.5013695E-1,4.8297167E-2,6.858456E-2,1.0410166E-1,1.7675304E-1,9.639704E-2,6.044635E-2,1.5221405E-1,1.3902184E-1,1.3698542E-1,7.316844E-2,1.884408E-1,2.3354125E-1,1.2555695E-1,1.3400555E-1,1.7101431E-1,1.3060904E-1,1.0153055E-1,1.6418934E-1,1.1505413E-1,1.4094543E-1,6.1834335E-2,1.1795807E-1,4.439926E-2,8.038139E-2,2.5326967E-2,2.1958351E-2,0E0,0E0,0E0,0E0,0E0,0E0,0E0,0E0,0E0,0E0,0E0,0E0,0E0,0E0,0E0,0E0,0E0,0E0,0E0,0E0,0E0,0E0,0E0,0E0,0E0,0E0,0E0,0E0,0E0,0E0,0E0,0E0,0E0,0E0,0E0,0E0,0E0,0E0,0E0,0E0,0E0,0E0,0E0,0E0,0E0,0E0,0E0,0E0,0E0,0E0,0E0,0E0,0E0,0E0,0E0,0E0,0E0,0E0,0E0,0E0,0E0,0E0,0E0,0E0],"parents":[2147483647,0,0,1,1,2,2,3,3,4,4,5,5,6,6,7,7,8,8,9,9,10,10,11,11,12,12,13,13,14,14,15,15,16,16,17,17,18,18,19,19,20,20,21,21,22,22,23,23,24,24,25,25,26,26,27,27,28,28,29,29,30,30,31,31,32,32,33,33,34,34,35,35,36,36,37,37,38,38,39,39,40,40,41,41,42,42,43,43,44,44,45,45,46,46,47,47,48,48,49,49,50,50,51,51,52,52,53,53,54,54,55,55,56,56,57,57,58,58,59,59,60,60,61,61,62,62],"right_children":[2,4,6,8,10,12,14,16,18,20,22,24,26,28,30,32,34,36,38,40,42,44,46,48,50,52,54,56,58,60,62,64,66,68,70,72,74,76,78,80,82,84,86,88,90,92,94,96,98,100,102,104,106,108,110,112,114,116,118,120,122,124,126,-1,-1,-1,-1,-1,-1,-1,-1,-1,-1,-1,-1,-1,-1,-1,-1,-1,-1,-1,-1,-1,-1,-1,-1,-1,-1,-1,-1,-1,-1,-1,-1,-1,-1,-1,-1,-1,-1,-1,-1,-1,-1,-1,-1,-1,-1,-1,-1,-1,-1,-1,-1,-1,-1,-1,-1,-1,-1,-1,-1,-1,-1,-1,-1],"split_conditions":[3.3419567E-1,1.5681592E-1,5.481924E-1,5.9151158E-2,2.0322195E-1,4.3621892E-1,6.9353235E-1,3.840796E-2,1.9842373E-1,1.06529094E-1,1.8483575E-1,3.9038143E-1,4.9373135E-1,6.370149E-1,8.256716E-1,3.5422763E-1,6.479858E-1,9.625208E-2,2.4583748E-1,2.068325E-1,5.269737E-1,2.7402985E-1,5.8978426E-1,3.1728026E-1,3.643781E-1,2.4172212E-1,3.4175786E-1,3.2145134E-1,5.5594614E-4,5.6493235E-1,2.8238796E-2,1.2868988E-2,4.4013268E-1,9.846154E-1,9.0886945E-1,2.8905809E-2,6.207699E-2,7.886678E-1,1.1522388E-1,4.195595E-1,2.4132825E-1,1.2252072E-1,2.3998846E-1,2.835489E-1,2.338903E-1,2.7679074E-1,2.2507362E-1,4.6733E-1,2.8355893E-1,4.8258707E-1,4.2354235E-1,3.0685985E-1,4.0185738E-1,6.4198E-1,2.7242523E-1,5.829808E-1,6.305141E-1,5.818242E-1,6.3767695E-1,2.0598006E-1,6.573246E-3,8.7756686E-2,5.056821E-1,-4.6346627E-2,-4.3836594E-2,-3.959715E-2,-7.3771193E-3,-3.8058043E-2,1.9421058E-2,-3.296604E-2,6.4425063E-3,-1.9999618E-2,-3.5448667E-2,-1.8545482E-2,-2.939118E-2,-3.0366963E-2,-4.2791027E-3,-2.3153743E-2,-1.546406E-2,-2.2772E-2,-3.653129E-2,-1.4688579E-2,-2.4306467E-2,-2.1141568E-2,-1.2348018E-2,1.0822578E-3,-9.227703E-3,-1.0855565E-2,-2.1480354E-2,1.742422E-3,-5.0573694E-3,-2.6273914E-3,4.447423E-3,1.9016782E-2,6.1607263E-3,9.4147045E-3,2.159169E-2,-2.1078284E-3,5.3266906E-3,1.6188147E-2,2.7263755E-2,1.2519059E-2,6.33822E-3,-2.5303443E-3,1.7744549E-2,3.1427193E-2,2.2605551E-2,3.394323E-2,4.787014E-2,2.1019898E-2,2.842647E-2,2.9663078E-2,3.71525E-2,3.9807707E-2,4.8705034E-2,6.591454E-2,5.2916493E-2,4.571523E-2,-4.865903E-3,3.845995E-2,5.4939967E-2,7.077124E-2,6.1250843E-2,2.6846679E-2,6.9348216E-2,8.445277E-2,1.6904417E-2],"split_indices":[672,672,672,678,678,672,672,672,18,18,18,672,672,672,672,47,300,672,92,672,657,672,98,643,643,18,585,685,395,69,76,672,440,638,474,649,649,619,672,598,649,685,81,598,649,678,369,63,678,92,33,678,643,130,695,678,121,643,677,695,453,490,66,0,0,0,0,0,0,0,0,0,0,0,0,0,0,0,0,0,0,0,0,0,0,0,0,0,0,0,0,0,0,0,0,0,0,0,0,0,0,0,0,0,0,0,0,0,0,0,0,0,0,0,0,0,0,0,0,0,0,0,0,0,0,0,0],"split_type":[0,0,0,0,0,0,0,0,0,0,0,0,0,0,0,0,0,0,0,0,0,0,0,0,0,0,0,0,0,0,0,0,0,0,0,0,0,0,0,0,0,0,0,0,0,0,0,0,0,0,0,0,0,0,0,0,0,0,0,0,0,0,0,0,0,0,0,0,0,0,0,0,0,0,0,0,0,0,0,0,0,0,0,0,0,0,0,0,0,0,0,0,0,0,0,0,0,0,0,0,0,0,0,0,0,0,0,0,0,0,0,0,0,0,0,0,0,0,0,0,0,0,0,0,0,0,0],"sum_hessian":[2.8027E4,1.4454E4,1.3573E4,6.791E3,7.663E3,9.956E3,3.617E3,4.184E3,2.607E3,3.246E3,4.417E3,5.576E3,4.38E3,2.522E3,1.095E3,2.592E3,1.592E3,1.986E3,6.21E2,2.244E3,1.002E3,3.108E3,1.309E3,3.05E3,2.526E3,2.627E3,1.753E3,1.752E3,7.7E2,8.73E2,2.22E2,2.317E3,2.75E2,1.33E3,2.62E2,6.18E2,1.368E3,1.8E2,4.41E2,1.157E3,1.087E3,5.22E2,4.8E2,1.18E3,1.928E3,1.138E3,1.71E2,5.29E2,2.521E3,4.02E2,2.124E3,1.834E3,7.93E2,2.21E2,1.532E3,8.47E2,9.05E2,2.73E2,4.97E2,2.79E2,5.94E2,7.3E1,1.49E2,9.34E2,1.383E3,2.72E2,3E0,1.329E3,1E0,2.59E2,3E0,1.9E1,5.99E2,1.34E2,1.234E3,1.73E2,7E0,2.13E2,2.28E2,1.103E3,5.4E1,8.69E2,2.18E2,1.7E2,3.52E2,5.8E1,4.22E2,1.042E3,1.38E2,3.25E2,1.603E3,7.79E2,3.59E2,6.4E1,1.07E2,3.6E2,1.69E2,4.66E2,2.055E3,2.48E2,1.54E2,1.734E3,3.9E2,3.8E1,1.796E3,2.19E2,5.74E2,1.15E2,1.06E2,3.72E2,1.16E3,5.09E2,3.38E2,6.52E2,2.53E2,6.8E1,2.05E2,4.93E2,4E0,2.7E1,2.52E2,1.78E2,4.16E2,3E0,7E1,1.48E2,1E0],"tree_param":{"num_deleted":"0","num_feature":"696","num_nodes":"127","size_leaf_vector":"1"}},{"base_weights":[4.4632812E-5,-5.7226606E-2,5.2130673E-2,-8.6281754E-2,-2.809752E-2,2.8081035E-2,1.03075E-1,-1.0034805E-1,-7.170976E-2,-4.1753702E-2,-1.2887676E-2,1.1164789E-2,4.3072216E-2,8.210881E-2,1.383585E-1,-1.0620593E-1,-9.3336925E-2,-7.67378E-2,-5.7070892E-2,-2.1545745E-2,-4.686469E-2,-2.8330022E-2,-7.640852E-3,5.1235384E-3,2.5727773E-2,3.6336266E-2,5.8543902E-2,7.611246E-2,1.070111E-1,1.24064624E-1,1.6931528E-1,-1.0629308E-1,-1.7297253E-2,-9.4958834E-2,-7.315034E-2,-7.4381776E-2,-1.0351708E-1,-6.5800264E-2,-4.3342892E-2,-3.3609297E-2,-2.8564604E-3,-5.9551753E-2,-4.0410757E-2,-2.6572412E-2,-8.4052205E-2,3.533536E-3,-1.7658392E-2,-6.007895E-3,1.0559495E-2,1.4327695E-2,3.9982416E-2,2.6779829E-2,4.641075E-2,5.054731E-2,7.648225E-2,6.634018E-2,8.795928E-2,9.702713E-2,1.3227129E-1,1.15509816E-1,1.4279112E-1,1.384883E-1,1.7831613E-1,-2.8313624E-4,-3.190494E-2,-1.6286686E-3,-6.1550955E-3,-2.8541014E-2,6.5163528E-3,-3.8542334E-2,-1.9568408E-2,-2.4798697E-2,-2.0102728E-2,-3.2529414E-2,-1.6528632E-2,-2.2105265E-2,-1.4866608E-2,-9.581436E-3,-1.8286182E-2,-1.4048459E-2,-4.9578394E-3,4.630487E-3,-5.376717E-3,-1.656469E-2,-2.4796827E-2,-1.0862054E-2,-1.8006343E-2,-1.0299627E-2,-4.949391E-3,-1.772362E-2,-3.5733107E-2,-1.7302263E-3,5.4094535E-3,-3.956968E-3,-1.2615025E-2,-5.602569E-3,7.6746044E-5,1.2540484E-3,5.6240777E-3,4.9931847E-4,6.603789E-3,1.8010512E-2,9.760757E-3,5.6541595E-3,1.0377839E-2,1.2167857E-2,1.6239556E-2,2.0053037E-2,1.3555353E-2,1.896025E-2,2.7948111E-2,2.1453464E-2,1.4625056E-2,2.1648299E-2,2.8773718E-2,9.2683425E-3,2.9627966E-2,4.6630383E-2,3.4113854E-2,2.5509268E-2,3.5784557E-2,3.870349E-2,4.992156E-2,4.2149294E-2,2.1790445E-3,5.0680086E-2,6.307097E-2],"categories":[],"categories_nodes":[],"categories_segments":[],"categories_sizes":[],"default_left":[0,0,0,0,0,0,0,0,0,0,0,0,0,0,0,0,0,0,0,0,0,0,0,0,0,0,0,0,0,0,0,0,0,0,0,0,0,0,0,0,0,0,0,0,0,0,0,0,0,0,0,0,0,0,0,0,0,0,0,0,0,0,0,0,0,0,0,0,0,0,0,0,0,0,0,0,0,0,0,0,0,0,0,0,0,0,0,0,0,0,0,0,0,0,0,0,0,0,0,0,0,0,0,0,0,0,0,0,0,0,0,0,0,0,0,0,0,0,0,0,0,0,0,0,0,0,0],"id":3,"left_children":[1,3,5,7,9,11,13,15,17,19,21,23,25,27,29,31,33,35,37,39,41,43,45,47,49,51,53,55,57,59,61,63,65,67,69,71,73,75,77,79,81,83,85,87,89,91,93,95,97,99,101,103,105,107,109,111,113,115,117,119,121,123,125,-1,-1,-1,-1,-1,-1,-1,-1,-1,-1,-1,-1,-1,-1,-1,-1,-1,-1,-1,-1,-1,-1,-1,-1,-1,-1,-1,-1,-1,-1,-1,-1,-1,-1,-1,-1,-1,-1,-1,-1,-1,-1,-1,-1,-1,-1,-1,-1,-1,-1,-1,-1,-1,-1,-1,-1,-1,-1,-1,-1,-1,-1,-1,-1],"loss_changes":[8.361141E1,1.1296345E1,1.7981709E1,1.3626442E0,1.3844614E0,2.5286174E0,3.4706917E0,1.2964249E-1,2.3748589E-1,3.6182213E-1,2.5549304E-1,4.12224E-1,5.488663E-1,4.3310547E-1,7.5468063E-1,1.24492645E-2,4.3966293E-2,1.4643669E-1,9.8290205E-2,1.6020545E-1,2.2710705E-1,7.611674E-2,2.639047E-1,2.005935E-1,2.2270775E-1,3.5363102E-1,2.2593355E-1,2.7027702E-1,1.3117027E-1,1.7622948E-1,1.281929E-1,1.0904312E-2,3.2541575E-6,3.1870842E-2,4.4215262E-2,1.3176155E-1,4.0427923E-2,6.217861E-2,6.4534545E-2,9.67806E-2,7.743824E-2,8.990884E-2,1.5124822E-1,6.017512E-2,1.397568E-2,1.5045622E-1,1.3492522E-1,8.6331666E-2,1.1623867E-1,7.44106E-2,8.91338E-2,1.1673319E-1,7.8808546E-2,9.4073296E-2,1.0309458E-1,1.15767956E-1,1.2814808E-1,4.4275045E-2,5.0675392E-2,8.539581E-2,9.990215E-2,3.2993555E-2,9.116936E-2,0E0,0E0,0E0,0E0,0E0,0E0,0E0,0E0,0E0,0E0,0E0,0E0,0E0,0E0,0E0,0E0,0E0,0E0,0E0,0E0,0E0,0E0,0E0,0E0,0E0,0E0,0E0,0E0,0E0,0E0,0E0,0E0,0E0,0E0,0E0,0E0,0E0,0E0,0E0,0E0,0E0,0E0,0E0,0E0,0E0,0E0,0E0,0E0,0E0,0E0,0E0,0E0,0E0,0E0,0E0,0E0,0E0,0E0,0E0,0E0,0E0,0E0,0E0,0E0],"parents":[2147483647,0,0,1,1,2,2,3,3,4,4,5,5,6,6,7,7,8,8,9,9,10,10,11,11,12,12,13,13,14,14,15,15,16,16,17,17,18,18,19,19,20,20,21,21,22,22,23,23,24,24,25,25,26,26,27,27,28,28,29,29,30,30,31,31,32,32,33,33,34,34,35,35,36,36,37,37,38,38,39,39,40,40,41,41,42,42,43,43,44,44,45,45,46,46,47,47,48,48,49,49,50,50,51,51,52,52,53,53,54,54,55,55,56,56,57,57,58,58,59,59,60,60,61,61,62,62],"right_children":[2,4,6,8,10,12,14,16,18,20,22,24,26,28,30,32,34,36,38,40,42,44,46,48,50,52,54,56,58,60,62,64,66,68,70,72,74,76,78,80,82,84,86,88,90,92,94,96,98,100,102,104,106,108,110,112,114,116,118,120,122,124,126,-1,-1,-1,-1,-1,-1,-1,-1,-1,-1,-1,-1,-1,-1,-1,-1,-1,-1,-1,-1,-1,-1,-1,-1,-1,-1,-1,-1,-1,-1,-1,-1,-1,-1,-1,-1,-1,-1,-1,-1,-1,-1,-1,-1,-1,-1,-1,-1,-1,-1,-1,-1,-1,-1,-1,-1,-1,-1,-1,-1,-1,-1,-1,-1],"split_conditions":[2.7153835E-1,1.2299069E-1,5.1230514E-1,3.8740836E-2,2.4623549E-1,3.6445996E-1,6.4378107E-1,2.0696517E-2,2.9412934E-1,1.1371969E-1,1.7694981E-1,3.3008146E-1,2.4172212E-1,6.0296816E-1,7.570813E-1,5.364511E-1,1.1800995E-1,3.2941446E-1,1.2252072E-1,1.8932007E-1,1.802985E-1,7.817122E-1,1.3148856E-1,3.875493E-1,4.637245E-2,4.445108E-1,5.7106596E-1,5.651741E-1,2.6198334E-1,4.4268033E-1,4.195595E-1,1.2497696E-2,2.8076923E-1,5.092005E-1,3.1076923E-1,9.625208E-2,5.107347E-1,1.4991708E-1,1.3502109E-1,2.8278607E-1,2.1245266E-1,1.4835587E-1,2.739635E-1,5.23918E-1,1.1421843E-1,4.8902276E-1,5.107347E-1,3.0234772E-1,3.2575437E-1,5.471415E-1,1.6611296E-1,5.310295E-1,5.09045E-1,2.4059701E-1,2.4197422E-1,5.651741E-1,3.2225913E-1,7.78292E-2,2.026578E-1,2.2923589E-1,3.6811057E-1,8.7594897E-1,8.6401325E-1,-2.8313624E-4,-3.190494E-2,-1.6286686E-3,-6.1550955E-3,-2.8541014E-2,6.5163528E-3,-3.8542334E-2,-1.9568408E-2,-2.4798697E-2,-2.0102728E-2,-3.2529414E-2,-1.6528632E-2,-2.2105265E-2,-1.4866608E-2,-9.581436E-3,-1.8286182E-2,-1.4048459E-2,-4.9578394E-3,4.630487E-3,-5.376717E-3,-1.656469E-2,-2.4796827E-2,-1.0862054E-2,-1.8006343E-2,-1.0299627E-2,-4.949391E-3,-1.772362E-2,-3.5733107E-2,-1.7302263E-3,5.4094535E-3,-3.956968E-3,-1.2615025E-2,-5.602569E-3,7.6746044E-5,1.2540484E-3,5.6240777E-3,4.9931847E-4,6.603789E-3,1.8010512E-2,9.760757E-3,5.6541595E-3,1.0377839E-2,1.2167857E-2,1.6239556E-2,2.0053037E-2,1.3555353E-2,1.896025E-2,2.7948111E-2,2.1453464E-2,1.4625056E-2,2.1648299E-2,2.8773718E-2,9.2683425E-3,2.9627966E-2,4.6630383E-2,3.4113854E-2,2.5509268E-2,3.5784557E-2,3.870349E-2,4.992156E-2,4.2149294E-2,2.1790445E-3,5.0680086E-2,6.307097E-2],"split_indices":[678,678,672,678,672,678,672,672,63,620,617,646,18,98,672,150,672,598,685,672,672,66,438,686,163,672,98,672,671,76,685,335,0,446,638,672,685,672,467,121,659,598,643,599,496,648,569,678,678,686,550,686,688,556,669,643,695,282,521,695,674,328,672,0,0,0,0,0,0,0,0,0,0,0,0,0,0,0,0,0,0,0,0,0,0,0,0,0,0,0,0,0,0,0,0,0,0,0,0,0,0,0,0,0,0,0,0,0,0,0,0,0,0,0,0,0,0,0,0,0,0,0,0,0,0,0,0],"split_type":[0,0,0,0,0,0,0,0,0,0,0,0,0,0,0,0,0,0,0,0,0,0,0,0,0,0,0,0,0,0,0,0,0,0,0,0,0,0,0,0,0,0,0,0,0,0,0,0,0,0,0,0,0,0,0,0,0,0,0,0,0,0,0,0,0,0,0,0,0,0,0,0,0,0,0,0,0,0,0,0,0,0,0,0,0,0,0,0,0,0,0,0,0,0,0,0,0,0,0,0,0,0,0,0,0,0,0,0,0,0,0,0,0,0,0,0,0,0,0,0,0,0,0,0,0,0,0],"sum_hessian":[2.8027E4,1.3349E4,1.4678E4,6.682E3,6.667E3,9.972E3,4.706E3,3.397E3,3.285E3,3.512E3,3.155E3,4.686E3,5.286E3,2.954E3,1.752E3,1.843E3,1.554E3,2.442E3,8.43E2,7.1E2,2.802E3,7.99E2,2.356E3,3.313E3,1.373E3,3.685E3,1.601E3,2.384E3,5.7E2,1.202E3,5.5E2,1.841E3,2E0,1.435E3,1.19E2,2.248E3,1.94E2,5.13E2,3.3E2,4.31E2,2.79E2,9.42E2,1.86E3,7.76E2,2.3E1,1.114E3,1.242E3,1.087E3,2.226E3,7.64E2,6.09E2,1.893E3,1.792E3,1.11E3,4.91E2,1.31E3,1.074E3,4.12E2,1.58E2,8.3E2,3.72E2,1.28E2,4.22E2,1E0,1.84E3,1E0,1E0,1.433E3,2E0,1.3E1,1.06E2,1.054E3,1.194E3,1.75E2,1.9E1,3.43E2,1.7E2,2.02E2,1.28E2,2.42E2,1.89E2,1.26E2,1.53E2,7.96E2,1.46E2,1.534E3,3.26E2,4.37E2,3.39E2,1.5E1,8E0,6.79E2,4.35E2,1.051E3,1.91E2,3.59E2,7.28E2,1.252E3,9.74E2,2.89E2,4.75E2,1.63E2,4.46E2,9.41E2,9.52E2,1.023E3,7.69E2,2.72E2,8.38E2,2.76E2,2.15E2,1.01E3,3E2,3.63E2,7.11E2,1.1E1,4.01E2,6.7E1,9.1E1,9.4E1,7.36E2,2.39E2,1.33E2,1.26E2,2E0,3.31E2,9.1E1],"tree_param":{"num_deleted":"0","num_feature":"696","num_nodes":"127","size_leaf_vector":"1"}},{"base_weights":[3.9264836E-5,-4.220939E-2,3.507231E-2,-6.238212E-2,-2.3424957E-2,1.8278655E-2,7.286307E-2,-7.013706E-2,-5.136905E-2,-3.4839995E-2,-1.3951391E-2,8.761594E-3,3.2423943E-2,6.2426206E-2,1.07341155E-1,-4.8956405E-2,-7.1227044E-2,-5.611486E-2,-4.2379916E-2,-2.151347E-2,-4.051196E-2,-1.9364547E-2,-1.8951031E-3,5.0214585E-3,2.336825E-2,2.696782E-2,4.4746347E-2,5.221072E-2,7.55008E-2,9.649638E-2,1.2312011E-1,-5.077191E-2,1.2949503E-2,-7.3143244E-2,-6.358393E-2,-5.986015E-2,-4.6536617E-2,-3.1183878E-2,-5.2816764E-2,-3.1654935E-2,-7.864402E-3,-3.799933E-2,-6.81636E-2,-2.808817E-2,-1.2325928E-2,-2.20177E-2,4.0901233E-3,-4.232702E-3,1.0305933E-2,1.6183142E-2,3.9662033E-2,1.631388E-2,3.0719431E-2,6.6164084E-2,4.0331E-2,7.494667E-2,4.8467316E-2,8.9775816E-2,6.768645E-2,8.8258944E-2,1.0722234E-1,1.0433642E-1,1.3290107E-1,1.1941447E-2,-1.5612537E-2,-2.196886E-2,8.850194E-3,-1.3721977E-2,-2.0860652E-2,-1.6143888E-2,-2.0841165E-2,-2.076653E-2,-1.1897735E-2,-6.3975737E-3,-1.4609949E-2,2.2443673E-2,-1.6064102E-2,5.214694E-3,-1.0856385E-2,5.6114118E-3,-4.8352703E-3,-1.2086804E-2,-4.480305E-3,-2.2526305E-2,-9.357821E-3,-9.941772E-3,-5.0885626E-3,-5.3207194E-3,-4.5444185E-4,-2.3084005E-2,-5.483881E-3,4.8673223E-3,-8.402284E-4,-4.730049E-4,-1.2566056E-2,1.9002064E-3,6.4927726E-3,4.895691E-4,6.6984002E-3,1.7929085E-2,8.517452E-3,-1.1907626E-2,5.3791977E-3,1.1460519E-2,7.764692E-3,1.46559905E-2,2.464057E-2,1.0394766E-2,1.5658863E-2,1.8407887E-2,2.5956316E-2,1.2691E-2,1.6498853E-2,2.535549E-2,3.617515E-2,1.6016236E-2,2.1880351E-2,2.6829928E-2,9.171965E-3,3.0337123E-2,3.9395902E-2,3.1779803E-2,5.1588044E-3,2.7277265E-2,4.168261E-2],"categories":[],"categories_nodes":[],"categories_segments":[],"categories_sizes":[],"default_left":[0,0,0,0,0,0,0,0,0,0,0,0,0,0,0,0,0,0,0,0,0,0,0,0,0,0,0,0,0,0,0,0,0,0,0,0,0,0,0,0,0,0,0,0,0,0,0,0,0,0,0,0,0,0,0,0,0,0,0,0,0,0,0,0,0,0,0,0,0,0,0,0,0,0,0,0,0,0,0,0,0,0,0,0,0,0,0,0,0,0,0,0,0,0,0,0,0,0,0,0,0,0,0,0,0,0,0,0,0,0,0,0,0,0,0,0,0,0,0,0,0,0,0,0,0],"id":4,"left_children":[1,3,5,7,9,11,13,15,17,19,21,23,25,27,29,31,33,35,37,39,41,43,45,47,49,51,53,55,57,59,61,63,-1,65,67,69,71,73,75,77,79,81,83,85,87,89,91,93,95,97,99,101,103,105,107,109,111,113,115,117,119,121,123,-1,-1,-1,-1,-1,-1,-1,-1,-1,-1,-1,-1,-1,-1,-1,-1,-1,-1,-1,-1,-1,-1,-1,-1,-1,-1,-1,-1,-1,-1,-1,-1,-1,-1,-1,-1,-1,-1,-1,-1,-1,-1,-1,-1,-1,-1,-1,-1,-1,-1,-1,-1,-1,-1,-1,-1,-1,-1,-1,-1,-1,-1],"loss_changes":[4.14857E1,4.813265E0,9.723333E0,5.195923E-1,7.1119046E-1,1.4280503E0,1.6896E0,7.943916E-2,1.0576773E-1,2.2468162E-1,2.3477799E-1,3.4646097E-1,2.8567505E-1,4.7969055E-1,1.7532349E-1,3.212878E-2,4.535103E-2,5.6619644E-2,1.01181984E-1,1.2336156E-1,1.4275837E-1,1.5211558E-1,1.3449919E-1,2.471035E-1,1.50733E-1,1.1780834E-1,1.2102485E-1,1.6965103E-1,1.7084122E-1,4.823208E-2,6.733847E-2,2.2315204E-2,0E0,2.6277542E-2,7.030988E-2,6.524563E-2,7.058263E-2,7.269725E-2,4.6319008E-2,1.14439785E-1,8.4066145E-2,1.0081124E-1,4.1943967E-2,6.170708E-2,8.044995E-2,5.115789E-2,7.203878E-2,1.8365255E-1,1.4467344E-1,8.034794E-2,8.7792575E-2,7.070628E-2,7.8201294E-2,5.7364523E-2,7.147205E-2,3.9667964E-2,6.814051E-2,8.018923E-2,7.332468E-2,2.2665262E-2,2.772212E-2,1.9877434E-2,6.0144424E-2,0E0,0E0,0E0,0E0,0E0,0E0,0E0,0E0,0E0,0E0,0E0,0E0,0E0,0E0,0E0,0E0,0E0,0E0,0E0,0E0,0E0,0E0,0E0,0E0,0E0,0E0,0E0,0E0,0E0,0E0,0E0,0E0,0E0,0E0,0E0,0E0,0E0,0E0,0E0,0E0,0E0,0E0,0E0,0E0,0E0,0E0,0E0,0E0,0E0,0E0,0E0,0E0,0E0,0E0,0E0,0E0,0E0,0E0,0E0,0E0,0E0,0E0],"parents":[2147483647,0,0,1,1,2,2,3,3,4,4,5,5,6,6,7,7,8,8,9,9,10,10,11,11,12,12,13,13,14,14,15,15,16,16,17,17,18,18,19,19,20,20,21,21,22,22,23,23,24,24,25,25,26,26,27,27,28,28,29,29,30,30,31,31,33,33,34,34,35,35,36,36,37,37,38,38,39,39,40,40,41,41,42,42,43,43,44,44,45,45,46,46,47,47,48,48,49,49,50,50,51,51,52,52,53,53,54,54,55,55,56,56,57,57,58,58,59,59,60,60,61,61,62,62],"right_children":[2,4,6,8,10,12,14,16,18,20,22,24,26,28,30,32,34,36,38,40,42,44,46,48,50,52,54,56,58,60,62,64,-1,66,68,70,72,74,76,78,80,82,84,86,88,90,92,94,96,98,100,102,104,106,108,110,112,114,116,118,120,122,124,-1,-1,-1,-1,-1,-1,-1,-1,-1,-1,-1,-1,-1,-1,-1,-1,-1,-1,-1,-1,-1,-1,-1,-1,-1,-1,-1,-1,-1,-1,-1,-1,-1,-1,-1,-1,-1,-1,-1,-1,-1,-1,-1,-1,-1,-1,-1,-1,-1,-1,-1,-1,-1,-1,-1,-1,-1,-1,-1,-1,-1,-1],"split_conditions":[3.0076286E-1,1.08537786E-1,4.9048224E-1,6.474295E-2,1.8429217E-1,3.850113E-1,6.9353235E-1,8.6743206E-2,5.835298E-1,1.2605754E-1,1.7250682E-1,3.5453832E-1,3.2941446E-1,5.870647E-1,7.7479273E-1,7.026578E-1,3.3488438E-2,2.8353255E-2,4.3174297E-1,1.3702059E-1,3.8413426E-1,4.3063504E-1,1.028664E-1,2.7345392E-1,4.8258707E-1,1.8026002E-1,2.313841E-1,4.6178794E-1,5.5594614E-4,6.4364845E-1,4.0028125E-2,6.1684668E-2,1.2949503E-2,8.750526E-1,3.140863E-2,6.671354E-3,1.7168926E-3,5.098167E-1,5.240464E-3,5.4004513E-2,1.3672696E-1,6.081935E-1,5.5104075E-3,2.562042E-1,2.0833334E-3,3.4843785E-1,1.9141775E-1,6.2123716E-1,3.9436153E-1,8.680936E-2,2.4400505E-1,6.4411275E-2,4.2294136E-1,3.4276286E-1,4.5537224E-1,4.7482586E-1,3.5215947E-1,4.4268033E-1,2.1725184E-1,8.6401325E-1,1.2185032E-1,7.5843215E-1,2.5866547E-1,1.1941447E-2,-1.5612537E-2,-2.196886E-2,8.850194E-3,-1.3721977E-2,-2.0860652E-2,-1.6143888E-2,-2.0841165E-2,-2.076653E-2,-1.1897735E-2,-6.3975737E-3,-1.4609949E-2,2.2443673E-2,-1.6064102E-2,5.214694E-3,-1.0856385E-2,5.6114118E-3,-4.8352703E-3,-1.2086804E-2,-4.480305E-3,-2.2526305E-2,-9.357821E-3,-9.941772E-3,-5.0885626E-3,-5.3207194E-3,-4.5444185E-4,-2.3084005E-2,-5.483881E-3,4.8673223E-3,-8.402284E-4,-4.730049E-4,-1.2566056E-2,1.9002064E-3,6.4927726E-3,4.895691E-4,6.6984002E-3,1.7929085E-2,8.517452E-3,-1.1907626E-2,5.3791977E-3,1.1460519E-2,7.764692E-3,1.46559905E-2,2.464057E-2,1.0394766E-2,1.5658863E-2,1.8407887E-2,2.5956316E-2,1.2691E-2,1.6498853E-2,2.535549E-2,3.617515E-2,1.6016236E-2,2.1880351E-2,2.6829928E-2,9.171965E-3,3.0337123E-2,3.9395902E-2,3.1779803E-2,5.1588044E-3,2.7277265E-2,4.168261E-2],"split_indices":[672,678,678,672,678,678,672,438,642,649,47,685,685,672,672,28,678,685,216,678,598,686,685,688,208,686,659,649,395,92,76,241,0,282,649,76,105,633,266,649,659,648,76,678,663,574,398,569,672,76,688,382,649,613,678,208,57,192,272,643,192,292,393,0,0,0,0,0,0,0,0,0,0,0,0,0,0,0,0,0,0,0,0,0,0,0,0,0,0,0,0,0,0,0,0,0,0,0,0,0,0,0,0,0,0,0,0,0,0,0,0,0,0,0,0,0,0,0,0,0,0,0,0,0,0],"split_type":[0,0,0,0,0,0,0,0,0,0,0,0,0,0,0,0,0,0,0,0,0,0,0,0,0,0,0,0,0,0,0,0,0,0,0,0,0,0,0,0,0,0,0,0,0,0,0,0,0,0,0,0,0,0,0,0,0,0,0,0,0,0,0,0,0,0,0,0,0,0,0,0,0,0,0,0,0,0,0,0,0,0,0,0,0,0,0,0,0,0,0,0,0,0,0,0,0,0,0,0,0,0,0,0,0,0,0,0,0,0,0,0,0,0,0,0,0,0,0,0,0,0,0,0,0],"sum_hessian":[2.8027E4,1.2705E4,1.5322E4,6.125E3,6.58E3,1.0609E4,4.713E3,3.591E3,2.534E3,2.983E3,3.597E3,6.343E3,4.266E3,3.62E3,1.093E3,1.78E2,3.413E3,1.655E3,8.79E2,8.92E2,2.091E3,2.482E3,1.115E3,5.051E3,1.292E3,2.959E3,1.307E3,2.035E3,1.585E3,6.52E2,4.41E2,1.75E2,3E0,2.722E3,6.91E2,1.186E3,4.69E2,4.26E2,4.53E2,5.11E2,3.81E2,1.919E3,1.72E2,1.107E3,1.375E3,2.55E2,8.6E2,1.836E3,3.215E3,8.98E2,3.94E2,7.72E2,2.187E3,2.21E2,1.086E3,2.85E2,1.75E3,5.57E2,1.028E3,3.74E2,2.78E2,1.55E2,2.86E2,2E0,1.73E2,2.72E3,2E0,1.75E2,5.16E2,7.32E2,4.54E2,1.07E2,3.62E2,2.74E2,1.52E2,2E0,4.51E2,4.3E1,4.68E2,9E1,2.91E2,1.745E3,1.74E2,1.44E2,2.8E1,7.6E2,3.47E2,9.16E2,4.59E2,1.5E1,2.4E2,3.11E2,5.49E2,1.716E3,1.2E2,2.382E3,8.33E2,2.67E2,6.31E2,1.4E2,2.54E2,2.1E1,7.51E2,8.56E2,1.331E3,1.08E2,1.13E2,7.37E2,3.49E2,1.34E2,1.51E2,9.04E2,8.46E2,4.79E2,7.8E1,2.79E2,7.49E2,3.66E2,8E0,2.26E2,5.2E1,1.52E2,3E0,3.8E1,2.48E2],"tree_param":{"num_deleted":"0","num_feature":"696","num_nodes":"125","size_leaf_vector":"1"}},{"base_weights":[3.713021E-5,-2.5330752E-2,2.925518E-2,-4.09708E-2,-9.477433E-3,1.9400256E-2,5.8424532E-2,-4.6957247E-2,-2.9710056E-2,-1.7650422E-2,-3.4161306E-3,1.2113431E-2,2.9652858E-2,5.128575E-2,8.2031384E-2,-5.0995667E-2,-4.1953363E-2,-1.8129576E-2,-3.5095524E-2,-1.978385E-2,1.9011302E-2,9.448322E-3,-8.230427E-3,7.769578E-3,2.0114124E-2,4.6463195E-2,2.622397E-2,4.241275E-2,5.8212698E-2,7.785583E-2,1.0581903E-1,-5.303514E-2,-4.431583E-2,-3.578839E-2,-4.6929855E-2,-2.7304323E-2,-5.4005673E-3,-3.2831203E-2,-5.410267E-2,-2.5116455E-2,-1.266109E-2,1.3154552E-2,9.7469255E-2,1.0490976E-2,-6.1639998E-2,-4.3424284E-3,-2.0209761E-2,8.088233E-4,1.3362951E-2,1.6373795E-2,3.657786E-2,5.680262E-2,3.4593992E-2,1.865383E-2,2.98328E-2,4.770813E-2,2.9774087E-2,5.637984E-2,9.025692E-2,1.0121442E-2,7.857524E-2,8.0971844E-2,1.3674405E-1,-4.877334E-4,-1.5954902E-2,-1.4346233E-2,-1.04232235E-2,7.238546E-3,-1.0945879E-2,-1.2151909E-2,-1.5733186E-2,3.2360457E-2,-8.341943E-3,-6.3351183E-3,1.2506437E-3,-1.2323652E-2,-8.282862E-3,-1.8967014E-2,-3.199043E-3,-6.6254428E-3,-1.2269979E-2,-1.4856205E-2,-3.4038422E-3,5.0394163E-3,-2.12891E-2,1.220293E-2,3.9667398E-2,2.3023074E-3,9.378448E-3,-3.0930592E-2,-3.9987415E-3,-4.8531103E-3,-7.1299076E-4,-1.4501075E-2,-5.2695917E-3,-1.4226969E-2,6.489454E-4,-7.652778E-4,4.790991E-3,5.202356E-3,-6.212341E-3,9.700421E-3,2.411561E-2,1.3622159E-2,2.0311061E-2,7.300894E-3,1.2060668E-2,6.960984E-3,2.7105536E-3,1.847067E-3,9.34102E-3,1.2701342E-2,1.9630104E-2,5.7744286E-3,1.3709213E-2,1.4468848E-2,1.8793328E-2,9.296186E-3,3.0316355E-2,-2.2689253E-3,1.2635006E-2,1.6286924E-2,2.4197323E-2,-3.559679E-3,2.5247395E-2,4.296089E-2,-2.3621977E-3],"categories":[],"categories_nodes":[],"categories_segments":[],"categories_sizes":[],"default_left":[0,0,0,0,0,0,0,0,0,0,0,0,0,0,0,0,0,0,0,0,0,0,0,0,0,0,0,0,0,0,0,0,0,0,0,0,0,0,0,0,0,0,0,0,0,0,0,0,0,0,0,0,0,0,0,0,0,0,0,0,0,0,0,0,0,0,0,0,0,0,0,0,0,0,0,0,0,0,0,0,0,0,0,0,0,0,0,0,0,0,0,0,0,0,0,0,0,0,0,0,0,0,0,0,0,0,0,0,0,0,0,0,0,0,0,0,0,0,0,0,0,0,0,0,0,0,0],"id":5,"left_children":[1,3,5,7,9,11,13,15,17,19,21,23,25,27,29,31,33,35,37,39,41,43,45,47,49,51,53,55,57,59,61,63,65,67,69,71,73,75,77,79,81,83,85,87,89,91,93,95,97,99,101,103,105,107,109,111,113,115,117,119,121,123,125,-1,-1,-1,-1,-1,-1,-1,-1,-1,-1,-1,-1,-1,-1,-1,-1,-1,-1,-1,-1,-1,-1,-1,-1,-1,-1,-1,-1,-1,-1,-1,-1,-1,-1,-1,-1,-1,-1,-1,-1,-1,-1,-1,-1,-1,-1,-1,-1,-1,-1,-1,-1,-1,-1,-1,-1,-1,-1,-1,-1,-1,-1,-1,-1],"loss_changes":[2.0775097E1,3.719555E0,3.7433443E0,5.0769997E-1,3.6910397E-1,7.271559E-1,5.5006886E-1,9.746361E-2,1.6301298E-1,2.4855286E-1,2.6515228E-1,1.9773203E-1,2.319386E-1,1.5290976E-1,6.744814E-2,3.474617E-2,6.603098E-2,9.736839E-2,7.526231E-2,1.13592505E-1,7.9131834E-2,8.707127E-2,1.4499535E-1,1.4373389E-1,1.22745395E-1,8.197582E-2,9.129119E-2,7.300186E-2,7.813501E-2,3.097558E-2,7.421994E-2,1.5733242E-2,1.9910097E-2,4.2276382E-2,4.1017056E-2,3.5919726E-2,5.2877408E-2,6.78581E-2,7.420689E-2,8.111155E-2,6.1768636E-2,5.145555E-2,1.8307842E-2,6.703812E-2,3.2677807E-2,5.4702647E-2,5.5903673E-2,1.0762264E-1,8.496624E-2,5.8974564E-2,6.617656E-2,4.2142034E-2,1.7487943E-2,4.7400773E-2,7.004142E-2,7.166982E-2,5.459875E-2,6.555033E-2,4.4866323E-2,4.8450977E-3,2.8241873E-2,1.992935E-2,4.5963228E-2,0E0,0E0,0E0,0E0,0E0,0E0,0E0,0E0,0E0,0E0,0E0,0E0,0E0,0E0,0E0,0E0,0E0,0E0,0E0,0E0,0E0,0E0,0E0,0E0,0E0,0E0,0E0,0E0,0E0,0E0,0E0,0E0,0E0,0E0,0E0,0E0,0E0,0E0,0E0,0E0,0E0,0E0,0E0,0E0,0E0,0E0,0E0,0E0,0E0,0E0,0E0,0E0,0E0,0E0,0E0,0E0,0E0,0E0,0E0,0E0,0E0,0E0,0E0,0E0],"parents":[2147483647,0,0,1,1,2,2,3,3,4,4,5,5,6,6,7,7,8,8,9,9,10,10,11,11,12,12,13,13,14,14,15,15,16,16,17,17,18,18,19,19,20,20,21,21,22,22,23,23,24,24,25,25,26,26,27,27,28,28,29,29,30,30,31,31,32,32,33,33,34,34,35,35,36,36,37,37,38,38,39,39,40,40,41,41,42,42,43,43,44,44,45,45,46,46,47,47,48,48,49,49,50,50,51,51,52,52,53,53,54,54,55,55,56,56,57,57,58,58,59,59,60,60,61,61,62,62],"right_children":[2,4,6,8,10,12,14,16,18,20,22,24,26,28,30,32,34,36,38,40,42,44,46,48,50,52,54,56,58,60,62,64,66,68,70,72,74,76,78,80,82,84,86,88,90,92,94,96,98,100,102,104,106,108,110,112,114,116,118,120,122,124,126,-1,-1,-1,-1,-1,-1,-1,-1,-1,-1,-1,-1,-1,-1,-1,-1,-1,-1,-1,-1,-1,-1,-1,-1,-1,-1,-1,-1,-1,-1,-1,-1,-1,-1,-1,-1,-1,-1,-1,-1,-1,-1,-1,-1,-1,-1,-1,-1,-1,-1,-1,-1,-1,-1,-1,-1,-1,-1,-1,-1,-1,-1,-1,-1],"split_conditions":[3.4421226E-1,1.449168E-1,5.4402846E-1,7.5965874E-2,2.566501E-1,4.1987452E-1,7.270315E-1,4.13267E-2,9.3344614E-2,7.0709014E-1,2.739635E-1,1.5988357E-1,3.6650452E-1,3.4712297E-1,8.483855E-1,1.5913765E-1,4.364072E-2,5.0201195E-1,6.3767695E-1,2.8271973E-1,5.881093E-1,8.378068E-1,3.1007752E-1,3.2393774E-1,5.151386E-1,3.494307E-1,4.5537224E-1,4.9302614E-1,8.028229E-1,2.872262E-1,4.3129298E-1,4.592287E-2,1.9842373E-1,5.6070894E-2,4.0274078E-1,3.722429E-3,4.4349685E-1,2.3315184E-1,7.4588555E-1,2.640796E-1,3.179276E-2,8.182792E-1,2.4431777E-1,5.9389716E-1,4.6923077E-1,4.4776518E-2,6.1359867E-2,1.1569205E-1,4.2838432E-2,2.9949147E-1,6.88315E-1,3.6481315E-1,2.1419805E-1,4.6538353E-1,1.11641794E-1,6.3934714E-1,3.9787728E-1,6.2374794E-1,1.4128555E-1,3.999542E-2,2.5249168E-1,1.8769231E-1,5.018587E-1,-4.877334E-4,-1.5954902E-2,-1.4346233E-2,-1.04232235E-2,7.238546E-3,-1.0945879E-2,-1.2151909E-2,-1.5733186E-2,3.2360457E-2,-8.341943E-3,-6.3351183E-3,1.2506437E-3,-1.2323652E-2,-8.282862E-3,-1.8967014E-2,-3.199043E-3,-6.6254428E-3,-1.2269979E-2,-1.4856205E-2,-3.4038422E-3,5.0394163E-3,-2.12891E-2,1.220293E-2,3.9667398E-2,2.3023074E-3,9.378448E-3,-3.0930592E-2,-3.9987415E-3,-4.8531103E-3,-7.1299076E-4,-1.4501075E-2,-5.2695917E-3,-1.4226969E-2,6.489454E-4,-7.652778E-4,4.790991E-3,5.202356E-3,-6.212341E-3,9.700421E-3,2.411561E-2,1.3622159E-2,2.0311061E-2,7.300894E-3,1.2060668E-2,6.960984E-3,2.7105536E-3,1.847067E-3,9.34102E-3,1.2701342E-2,1.9630104E-2,5.7744286E-3,1.3709213E-2,1.4468848E-2,1.8793328E-2,9.296186E-3,3.0316355E-2,-2.2689253E-3,1.2635006E-2,1.6286924E-2,2.4197323E-2,-3.559679E-3,2.5247395E-2,4.296089E-2,-2.3621977E-3],"split_indices":[672,678,678,678,672,678,672,672,649,648,643,18,620,685,678,92,649,677,474,92,308,155,61,688,648,687,678,627,196,283,677,496,18,357,103,77,541,425,131,643,612,118,458,150,261,560,440,398,560,337,681,679,303,649,295,678,237,672,294,18,695,29,123,0,0,0,0,0,0,0,0,0,0,0,0,0,0,0,0,0,0,0,0,0,0,0,0,0,0,0,0,0,0,0,0,0,0,0,0,0,0,0,0,0,0,0,0,0,0,0,0,0,0,0,0,0,0,0,0,0,0,0,0,0,0,0,0],"split_type":[0,0,0,0,0,0,0,0,0,0,0,0,0,0,0,0,0,0,0,0,0,0,0,0,0,0,0,0,0,0,0,0,0,0,0,0,0,0,0,0,0,0,0,0,0,0,0,0,0,0,0,0,0,0,0,0,0,0,0,0,0,0,0,0,0,0,0,0,0,0,0,0,0,0,0,0,0,0,0,0,0,0,0,0,0,0,0,0,0,0,0,0,0,0,0,0,0,0,0,0,0,0,0,0,0,0,0,0,0,0,0,0,0,0,0,0,0,0,0,0,0,0,0,0,0,0,0],"sum_hessian":[2.8027E4,1.5002E4,1.3025E4,7.551E3,7.451E3,9.737E3,3.288E3,4.928E3,2.623E3,3.172E3,4.279E3,5.693E3,4.044E3,2.527E3,7.61E2,2.722E3,2.206E3,8.34E2,1.789E3,2.998E3,1.74E2,1.165E3,3.114E3,3.691E3,2.002E3,6.83E2,3.361E3,1.111E3,1.416E3,6.51E2,1.1E2,2.08E3,6.42E2,9.89E2,1.217E3,4.84E2,3.5E2,1.601E3,1.88E2,1.713E3,1.285E3,1.63E2,1.1E1,1.149E3,1.6E1,2.352E3,7.62E2,1.645E3,2.046E3,1.633E3,3.69E2,3.63E2,3.2E2,1.087E3,2.274E3,7.81E2,3.3E2,1.342E3,7.4E1,7E0,6.44E2,6.3E1,4.7E1,6E0,2.074E3,4.67E2,1.75E2,1.1E1,9.78E2,5.66E2,6.51E2,1E0,4.83E2,1.32E2,2.18E2,6.18E2,9.83E2,1.55E2,3.3E1,1.439E3,2.74E2,4.3E1,1.242E3,1.57E2,6E0,5E0,6E0,1.013E3,1.36E2,8E0,8E0,3.34E2,2.018E3,6.4E1,6.98E2,4.4E1,1.601E3,2.88E2,1.758E3,1.592E3,4.1E1,3.38E2,3.1E1,1.8E2,1.83E2,1.15E2,2.05E2,7.37E2,3.5E2,1.19E2,2.155E3,6.02E2,1.79E2,2E2,1.3E2,5.87E2,7.55E2,1.2E1,6.2E1,5E0,2E0,5.3E1,5.91E2,2E0,6.1E1,4.5E1,2E0],"tree_param":{"num_deleted":"0","num_feature":"696","num_nodes":"127","size_leaf_vector":"1"}},{"base_weights":[3.2713822E-5,-1.8852528E-2,1.981042E-2,-2.9413344E-2,-7.7713905E-3,1.0417822E-2,3.5409782E-2,-3.400176E-2,-2.3011683E-2,-1.5372472E-2,-3.9862664E-3,5.623691E-3,1.5153771E-2,2.932634E-2,5.127019E-2,-3.0164571E-2,-3.6903962E-2,-9.131641E-3,-2.545009E-2,-3.8597815E-2,-1.3685029E-2,-2.5586335E-3,-2.6206752E-2,1.5490032E-2,5.176749E-4,1.9996611E-2,1.0771571E-2,3.6238972E-2,2.438525E-2,4.7270413E-2,6.988007E-2,-3.306329E-2,-2.2885418E-2,-3.5326466E-2,-4.5264713E-2,1.7998993E-2,-1.3802765E-2,-2.274295E-2,-3.494431E-2,-2.7580356E-2,-6.0956053E-2,-1.9693607E-2,-8.532659E-3,-2.3381207E-2,-8.8338985E-4,-7.6481345E-4,-3.6104035E-2,1.2887993E-2,3.5253864E-2,2.8460473E-3,-1.3067653E-2,1.8877145E-2,5.0792024E-2,1.3945204E-2,2.7564443E-3,3.0462027E-2,4.808658E-2,-7.516835E-2,2.4787834E-2,4.9346495E-2,2.9419925E-2,6.1410856E-2,1.00201294E-1,-9.990925E-3,1.0970271E-2,5.0232336E-3,-7.2223493E-3,-1.0929766E-2,-7.4598724E-3,-1.2519334E-2,-1.6256778E-2,-6.3490802E-3,1.154572E-2,4.6683857E-3,-5.152266E-3,-8.233418E-3,-4.404063E-3,-1.0684052E-2,3.148973E-2,-9.602045E-3,4.1880817E-3,5.2693626E-3,-2.0403713E-2,-6.2552546E-3,5.1568286E-3,-2.1684912E-3,-1.0453222E-2,-9.568602E-3,1.6954632E-3,-2.6012058E-3,1.3137283E-3,-2.4342006E-3,9.4867805E-3,-1.761418E-2,-6.2763193E-3,2.7269316E-3,6.408924E-3,7.7223303E-3,2.1596476E-2,3.0990428E-4,6.4744665E-3,-1.069415E-3,-8.702042E-3,5.283858E-3,1.13681825E-2,1.2795532E-2,4.4913895E-2,3.6752E-3,1.0858128E-2,4.3050316E-3,-1.6293029E-3,-6.715713E-3,9.329468E-3,1.2107393E-2,1.8667255E-2,2.6007951E-3,-2.601952E-2,5.956911E-3,9.186233E-3,1.3667472E-2,1.7083388E-2,9.974082E-3,-5.374623E-3,1.9138483E-2,-7.6536927E-3,1.8770764E-2,3.5330173E-2],"categories":[],"categories_nodes":[],"categories_segments":[],"categories_sizes":[],"default_left":[0,0,0,0,0,0,0,0,0,0,0,0,0,0,0,0,0,0,0,0,0,0,0,0,0,0,0,0,0,0,0,0,0,0,0,0,0,0,0,0,0,0,0,0,0,0,0,0,0,0,0,0,0,0,0,0,0,0,0,0,0,0,0,0,0,0,0,0,0,0,0,0,0,0,0,0,0,0,0,0,0,0,0,0,0,0,0,0,0,0,0,0,0,0,0,0,0,0,0,0,0,0,0,0,0,0,0,0,0,0,0,0,0,0,0,0,0,0,0,0,0,0,0,0,0,0,0],"id":6,"left_children":[1,3,5,7,9,11,13,15,17,19,21,23,25,27,29,31,33,35,37,39,41,43,45,47,49,51,53,55,57,59,61,63,65,67,69,71,73,75,77,79,81,83,85,87,89,91,93,95,97,99,101,103,105,107,109,111,113,115,117,119,121,123,125,-1,-1,-1,-1,-1,-1,-1,-1,-1,-1,-1,-1,-1,-1,-1,-1,-1,-1,-1,-1,-1,-1,-1,-1,-1,-1,-1,-1,-1,-1,-1,-1,-1,-1,-1,-1,-1,-1,-1,-1,-1,-1,-1,-1,-1,-1,-1,-1,-1,-1,-1,-1,-1,-1,-1,-1,-1,-1,-1,-1,-1,-1,-1,-1],"loss_changes":[1.0469022E1,1.6776886E0,2.0056162E0,2.1484852E-1,2.0127845E-1,1.9397241E-1,4.9491644E-1,4.648304E-2,1.0360479E-1,9.063113E-2,1.481731E-1,2.1404678E-1,9.101915E-2,1.2621045E-1,1.0276699E-1,3.81943E-2,3.0437231E-2,5.8544483E-2,6.6262126E-2,3.699276E-2,6.7011744E-2,1.5318497E-1,7.098168E-2,7.406235E-2,8.863759E-2,6.940359E-2,5.742392E-2,1.0455346E-1,8.895457E-2,4.2129993E-2,5.8045864E-2,2.3224711E-2,2.533102E-2,2.2789001E-2,9.785354E-3,5.537183E-2,3.9174072E-2,7.6666474E-2,5.7760954E-2,2.0121753E-2,2.9451981E-2,4.3083638E-2,3.9901875E-2,8.101097E-2,1.6666478E-1,1.9298282E-2,6.845859E-2,4.107371E-2,5.6853816E-2,8.122939E-2,6.1998785E-2,4.6720624E-2,5.0786614E-2,6.055689E-2,6.1018217E-2,3.5797298E-2,5.2776337E-2,9.476922E-3,6.1668158E-2,2.768612E-2,2.3239754E-2,4.265958E-2,2.7666688E-2,0E0,0E0,0E0,0E0,0E0,0E0,0E0,0E0,0E0,0E0,0E0,0E0,0E0,0E0,0E0,0E0,0E0,0E0,0E0,0E0,0E0,0E0,0E0,0E0,0E0,0E0,0E0,0E0,0E0,0E0,0E0,0E0,0E0,0E0,0E0,0E0,0E0,0E0,0E0,0E0,0E0,0E0,0E0,0E0,0E0,0E0,0E0,0E0,0E0,0E0,0E0,0E0,0E0,0E0,0E0,0E0,0E0,0E0,0E0,0E0,0E0,0E0,0E0,0E0],"parents":[2147483647,0,0,1,1,2,2,3,3,4,4,5,5,6,6,7,7,8,8,9,9,10,10,11,11,12,12,13,13,14,14,15,15,16,16,17,17,18,18,19,19,20,20,21,21,22,22,23,23,24,24,25,25,26,26,27,27,28,28,29,29,30,30,31,31,32,32,33,33,34,34,35,35,36,36,37,37,38,38,39,39,40,40,41,41,42,42,43,43,44,44,45,45,46,46,47,47,48,48,49,49,50,50,51,51,52,52,53,53,54,54,55,55,56,56,57,57,58,58,59,59,60,60,61,61,62,62],"right_children":[2,4,6,8,10,12,14,16,18,20,22,24,26,28,30,32,34,36,38,40,42,44,46,48,50,52,54,56,58,60,62,64,66,68,70,72,74,76,78,80,82,84,86,88,90,92,94,96,98,100,102,104,106,108,110,112,114,116,118,120,122,124,126,-1,-1,-1,-1,-1,-1,-1,-1,-1,-1,-1,-1,-1,-1,-1,-1,-1,-1,-1,-1,-1,-1,-1,-1,-1,-1,-1,-1,-1,-1,-1,-1,-1,-1,-1,-1,-1,-1,-1,-1,-1,-1,-1,-1,-1,-1,-1,-1,-1,-1,-1,-1,-1,-1,-1,-1,-1,-1,-1,-1,-1,-1,-1,-1],"split_conditions":[2.9159617E-1,1.7154229E-1,4.993035E-1,8.325042E-2,3.875493E-1,4.0782753E-1,6.570079E-1,5.0044155E-1,7.7147596E-2,3.8857814E-2,5.30111E-1,3.0220672E-1,4.445108E-1,4.8096448E-1,7.9269826E-1,6.129356E-1,1.4307438E-1,4.6749404E-1,1.5566836E-1,3.9868197E-1,2.1263395E-1,9.8864116E-2,1.7427142E-1,5.9843194E-1,4.5635006E-1,6.936321E-1,1.8369149E-1,4.125548E-1,1.5545685E-2,4.0307692E-1,2.6198334E-1,7.419355E-1,1.2286689E-1,4.8752114E-2,6.450931E-2,4.2654386E-1,2.7483314E-2,1.3804312E-1,8.5436976E-1,4.9054073E-5,1.4482196E-1,6.013428E-1,7.3015875E-1,3.0544337E-2,2.4972497E-1,6.320841E-1,2.090879E-1,3.4059504E-1,4.3030018E-1,4.4022736E-1,3.5219237E-1,6.720601E-1,7.537179E-1,4.5699647E-1,8.988323E-2,4.0552735E-1,3.1486174E-1,6.825939E-2,5.6493235E-1,7.423505E-1,2.8977758E-1,9.858326E-1,3.0375427E-1,-9.990925E-3,1.0970271E-2,5.0232336E-3,-7.2223493E-3,-1.0929766E-2,-7.4598724E-3,-1.2519334E-2,-1.6256778E-2,-6.3490802E-3,1.154572E-2,4.6683857E-3,-5.152266E-3,-8.233418E-3,-4.404063E-3,-1.0684052E-2,3.148973E-2,-9.602045E-3,4.1880817E-3,5.2693626E-3,-2.0403713E-2,-6.2552546E-3,5.1568286E-3,-2.1684912E-3,-1.0453222E-2,-9.568602E-3,1.6954632E-3,-2.6012058E-3,1.3137283E-3,-2.4342006E-3,9.4867805E-3,-1.761418E-2,-6.2763193E-3,2.7269316E-3,6.408924E-3,7.7223303E-3,2.1596476E-2,3.0990428E-4,6.4744665E-3,-1.069415E-3,-8.702042E-3,5.283858E-3,1.13681825E-2,1.2795532E-2,4.4913895E-2,3.6752E-3,1.0858128E-2,4.3050316E-3,-1.6293029E-3,-6.715713E-3,9.329468E-3,1.2107393E-2,1.8667255E-2,2.6007951E-3,-2.601952E-2,5.956911E-3,9.186233E-3,1.3667472E-2,1.7083388E-2,9.974082E-3,-5.374623E-3,1.9138483E-2,-7.6536927E-3,1.8770764E-2,3.5330173E-2],"split_indices":[678,672,672,672,686,672,678,583,643,612,569,620,643,591,109,648,598,487,649,8,678,688,670,689,569,681,61,650,359,29,671,346,30,678,649,624,658,672,300,627,299,689,62,685,642,386,34,678,671,648,4,156,395,619,322,678,192,1,678,678,618,396,436,0,0,0,0,0,0,0,0,0,0,0,0,0,0,0,0,0,0,0,0,0,0,0,0,0,0,0,0,0,0,0,0,0,0,0,0,0,0,0,0,0,0,0,0,0,0,0,0,0,0,0,0,0,0,0,0,0,0,0,0,0,0,0,0],"split_type":[0,0,0,0,0,0,0,0,0,0,0,0,0,0,0,0,0,0,0,0,0,0,0,0,0,0,0,0,0,0,0,0,0,0,0,0,0,0,0,0,0,0,0,0,0,0,0,0,0,0,0,0,0,0,0,0,0,0,0,0,0,0,0,0,0,0,0,0,0,0,0,0,0,0,0,0,0,0,0,0,0,0,0,0,0,0,0,0,0,0,0,0,0,0,0,0,0,0,0,0,0,0,0,0,0,0,0,0,0,0,0,0,0,0,0,0,0,0,0,0,0,0,0,0,0,0,0],"sum_hessian":[2.8027E4,1.4337E4,1.369E4,7.34E3,6.997E3,8.546E3,5.144E3,4.273E3,3.067E3,2.325E3,4.672E3,4.248E3,4.298E3,3.72E3,1.424E3,1.845E3,2.428E3,4.59E2,2.608E3,1.56E2,2.169E3,4.391E3,2.81E2,1.448E3,2.8E3,2.04E3,2.258E3,1.548E3,2.172E3,1.175E3,2.49E2,1.317E3,5.28E2,2.047E3,3.81E2,6.7E1,3.92E2,2.032E3,5.76E2,1.06E2,5E1,1E3,1.169E3,3.26E2,4.065E3,7.9E1,2.02E2,1.281E3,1.67E2,2.391E3,4.09E2,1.97E3,7E1,1.617E3,6.41E2,1.043E3,5.05E2,8E0,2.164E3,1.051E3,1.24E2,1.97E2,5.2E1,1.313E3,4E0,1.5E1,5.13E2,1.849E3,1.98E2,2.77E2,1.04E2,2.3E1,4.4E1,4E1,3.52E2,1.282E3,7.5E2,5.74E2,2E0,9.6E1,1E1,4E0,4.6E1,9.7E2,3E1,1.115E3,5.4E1,2.52E2,7.4E1,1.639E3,2.426E3,6.5E1,1.4E1,8E1,1.22E2,8.86E2,3.95E2,1.34E2,3.3E1,2.181E3,2.1E2,2.57E2,1.52E2,1.849E3,1.21E2,6.6E1,4E0,1.504E3,1.13E2,2.65E2,3.76E2,1.2E1,1.031E3,3.29E2,1.76E2,1E0,7E0,1.175E3,9.89E2,7.06E2,3.45E2,1.15E2,9E0,1.92E2,5E0,1.8E1,3.4E1],"tree_param":{"num_deleted":"0","num_feature":"696","num_nodes":"127","size_leaf_vector":"1"}},{"base_weights":[2.8513223E-5,-1.5541749E-2,1.21462885E-2,-2.2868397E-2,-9.63825E-3,5.2124527E-3,2.4038622E-2,-2.5119593E-2,-1.7677808E-2,-6.499887E-3,-1.5920423E-2,8.476107E-4,8.440945E-3,1.829709E-2,3.277397E-2,-2.4251517E-2,-3.5246365E-2,-1.2896395E-2,-2.3850014E-2,-1.0166162E-2,1.9482868E-4,-1.3602394E-2,-3.4699563E-2,1.1485199E-2,-2.5004225E-3,2.1867638E-2,6.9315094E-3,3.221503E-2,1.6241666E-2,2.9444827E-2,4.329404E-2,-2.529492E-2,-1.557139E-2,-3.617353E-2,-4.833934E-3,-6.732288E-3,-1.7720928E-2,-1.574083E-2,-2.6752505E-2,-1.8382542E-2,-7.851645E-3,1.8924759E-3,-2.807034E-2,-1.1178306E-2,-3.4619566E-2,-1.8985786E-2,-4.9763814E-2,8.1928205E-3,2.7442994E-2,2.3921697E-4,-1.1224884E-2,3.4690507E-2,1.25946365E-2,-2.1541003E-2,7.5114374E-3,2.3187896E-2,3.96737E-2,1.8682938E-2,9.044782E-3,4.065371E-2,2.6625602E-2,3.7062585E-2,5.5827595E-2,1.8891681E-2,-7.619842E-3,1.3397988E-2,-5.6069074E-3,-1.0991863E-2,1.8918463E-3,4.4121146E-3,-1.1346652E-2,-4.757165E-3,1.1254038E-3,-5.464359E-3,1.5337316E-2,1.66874E-2,-5.148125E-3,9.938645E-3,-8.1466455E-3,-9.2973765E-3,-3.954886E-3,-5.6338916E-3,-1.6106585E-3,7.901907E-5,8.998747E-3,-2.4130098E-3,-1.4783997E-2,3.1555186E-3,-3.7645493E-3,-1.8272398E-2,-7.431417E-3,-7.4766683E-3,1.7693486E-2,-1.9606508E-2,-3.1482815E-3,4.1379924E-3,2.401323E-4,1.7339347E-2,5.6279134E-3,-1.811116E-3,1.4987111E-3,-1.2303785E-3,-6.603994E-3,9.83401E-3,3.560731E-2,4.5559737E-3,-7.562267E-3,-3.3157554E-3,-1.8590922E-2,2.0693988E-3,8.328684E-3,8.281343E-3,-7.904577E-4,1.1198523E-2,2.1943878E-2,4.9574086E-3,8.333391E-3,4.45463E-3,-9.0356E-4,1.0624409E-2,1.905366E-2,8.215071E-3,-2.685455E-3,1.0514429E-2,1.6138079E-2,2.6602095E-2,1.403166E-2],"categories":[],"categories_nodes":[],"categories_segments":[],"categories_sizes":[],"default_left":[0,0,0,0,0,0,0,0,0,0,0,0,0,0,0,0,0,0,0,0,0,0,0,0,0,0,0,0,0,0,0,0,0,0,0,0,0,0,0,0,0,0,0,0,0,0,0,0,0,0,0,0,0,0,0,0,0,0,0,0,0,0,0,0,0,0,0,0,0,0,0,0,0,0,0,0,0,0,0,0,0,0,0,0,0,0,0,0,0,0,0,0,0,0,0,0,0,0,0,0,0,0,0,0,0,0,0,0,0,0,0,0,0,0,0,0,0,0,0,0,0,0,0,0,0,0,0],"id":7,"left_children":[1,3,5,7,9,11,13,15,17,19,21,23,25,27,29,31,33,35,37,39,41,43,45,47,49,51,53,55,57,59,61,63,65,67,69,71,73,75,77,79,81,83,85,87,89,91,93,95,97,99,101,103,105,107,109,111,113,115,117,119,121,123,125,-1,-1,-1,-1,-1,-1,-1,-1,-1,-1,-1,-1,-1,-1,-1,-1,-1,-1,-1,-1,-1,-1,-1,-1,-1,-1,-1,-1,-1,-1,-1,-1,-1,-1,-1,-1,-1,-1,-1,-1,-1,-1,-1,-1,-1,-1,-1,-1,-1,-1,-1,-1,-1,-1,-1,-1,-1,-1,-1,-1,-1,-1,-1,-1],"loss_changes":[5.288426E0,5.303626E-1,1.2996011E0,6.3507795E-2,1.33865E-1,1.4031962E-1,2.9054594E-1,3.268218E-2,4.865259E-2,1.1126295E-1,9.803772E-2,1.5085825E-1,1.1585519E-1,9.9745154E-2,7.931256E-2,3.1459093E-2,8.256137E-3,2.7746066E-2,1.659605E-2,5.5556267E-2,7.70679E-2,1.02323115E-1,5.7760835E-2,5.3049818E-2,7.7014536E-2,6.829104E-2,8.514914E-2,2.9378712E-2,5.352348E-2,5.4249763E-2,4.096532E-2,3.0558825E-2,7.2206035E-2,5.9719086E-3,7.002478E-3,3.956806E-2,1.8771857E-2,2.0507257E-2,1.3713121E-2,4.1746616E-2,6.19497E-2,6.9352694E-2,3.825725E-2,5.3911105E-2,5.2340955E-2,5.839787E-2,7.64589E-2,3.4848537E-2,4.4514984E-2,7.325955E-2,5.908627E-2,3.4945667E-2,3.3402435E-2,4.2990807E-2,6.2481046E-2,2.3566656E-2,1.6502768E-2,4.4315338E-2,5.434656E-2,3.966534E-2,3.8051784E-2,1.0618985E-2,4.96881E-2,0E0,0E0,0E0,0E0,0E0,0E0,0E0,0E0,0E0,0E0,0E0,0E0,0E0,0E0,0E0,0E0,0E0,0E0,0E0,0E0,0E0,0E0,0E0,0E0,0E0,0E0,0E0,0E0,0E0,0E0,0E0,0E0,0E0,0E0,0E0,0E0,0E0,0E0,0E0,0E0,0E0,0E0,0E0,0E0,0E0,0E0,0E0,0E0,0E0,0E0,0E0,0E0,0E0,0E0,0E0,0E0,0E0,0E0,0E0,0E0,0E0,0E0,0E0,0E0],"parents":[2147483647,0,0,1,1,2,2,3,3,4,4,5,5,6,6,7,7,8,8,9,9,10,10,11,11,12,12,13,13,14,14,15,15,16,16,17,17,18,18,19,19,20,20,21,21,22,22,23,23,24,24,25,25,26,26,27,27,28,28,29,29,30,30,31,31,32,32,33,33,34,34,35,35,36,36,37,37,38,38,39,39,40,40,41,41,42,42,43,43,44,44,45,45,46,46,47,47,48,48,49,49,50,50,51,51,52,52,53,53,54,54,55,55,56,56,57,57,58,58,59,59,60,60,61,61,62,62],"right_children":[2,4,6,8,10,12,14,16,18,20,22,24,26,28,30,32,34,36,38,40,42,44,46,48,50,52,54,56,58,60,62,64,66,68,70,72,74,76,78,80,82,84,86,88,90,92,94,96,98,100,102,104,106,108,110,112,114,116,118,120,122,124,126,-1,-1,-1,-1,-1,-1,-1,-1,-1,-1,-1,-1,-1,-1,-1,-1,-1,-1,-1,-1,-1,-1,-1,-1,-1,-1,-1,-1,-1,-1,-1,-1,-1,-1,-1,-1,-1,-1,-1,-1,-1,-1,-1,-1,-1,-1,-1,-1,-1,-1,-1,-1,-1,-1,-1,-1,-1,-1,-1,-1,-1,-1,-1,-1],"split_conditions":[2.4950649E-1,1.1800995E-1,4.8298508E-1,4.310218E-2,3.4736532E-1,3.337211E-1,6.115423E-1,4.007718E-2,3.923077E-1,4.0734783E-1,4.9037647E-1,2.5363085E-1,3.0886915E-1,4.625539E-1,7.423505E-1,5.833333E-4,6.2333333E-1,7.509921E-1,1.3289036E-1,1.3289036E-1,4.195595E-1,3.680854E-1,2.6760417E-1,6.0317653E-1,3.450014E-1,2.797644E-1,5.1741295E-2,4.016584E-1,3.107025E-1,5.60796E-1,4.0146592E-1,3.55691E-2,4.65499E-1,8.5436976E-1,4.0641207E-1,4.8461026E-1,7.641196E-1,8.073139E-2,1.8868605E-2,1.9277611E-1,1.3507342E-1,4.8802653E-1,3.8346693E-1,2.9013637E-1,8.834665E-2,4.8307693E-1,1.3081086E-4,3.121319E-1,5.395948E-4,4.9152732E-1,1.8800902E-1,3.9919356E-1,5.745429E-1,4.3365678E-1,4.8593432E-1,7.5087506E-1,6.429001E-1,3.418458E-1,2.4972497E-1,2.3791052E-1,6.911834E-1,6.52578E-1,2.698173E-1,1.8891681E-2,-7.619842E-3,1.3397988E-2,-5.6069074E-3,-1.0991863E-2,1.8918463E-3,4.4121146E-3,-1.1346652E-2,-4.757165E-3,1.1254038E-3,-5.464359E-3,1.5337316E-2,1.66874E-2,-5.148125E-3,9.938645E-3,-8.1466455E-3,-9.2973765E-3,-3.954886E-3,-5.6338916E-3,-1.6106585E-3,7.901907E-5,8.998747E-3,-2.4130098E-3,-1.4783997E-2,3.1555186E-3,-3.7645493E-3,-1.8272398E-2,-7.431417E-3,-7.4766683E-3,1.7693486E-2,-1.9606508E-2,-3.1482815E-3,4.1379924E-3,2.401323E-4,1.7339347E-2,5.6279134E-3,-1.811116E-3,1.4987111E-3,-1.2303785E-3,-6.603994E-3,9.83401E-3,3.560731E-2,4.5559737E-3,-7.562267E-3,-3.3157554E-3,-1.8590922E-2,2.0693988E-3,8.328684E-3,8.281343E-3,-7.904577E-4,1.1198523E-2,2.1943878E-2,4.9574086E-3,8.333391E-3,4.45463E-3,-9.0356E-4,1.0624409E-2,1.905366E-2,8.215071E-3,-2.685455E-3,1.0514429E-2,1.6138079E-2,2.6602095E-2,1.403166E-2],"split_indices":[678,672,672,18,90,678,672,656,87,646,301,649,649,643,678,663,365,690,405,695,598,540,675,648,649,659,382,324,33,614,677,242,392,155,265,686,347,415,284,650,588,556,4,110,282,0,656,339,627,686,61,636,183,617,642,280,155,674,671,669,62,558,334,0,0,0,0,0,0,0,0,0,0,0,0,0,0,0,0,0,0,0,0,0,0,0,0,0,0,0,0,0,0,0,0,0,0,0,0,0,0,0,0,0,0,0,0,0,0,0,0,0,0,0,0,0,0,0,0,0,0,0,0,0,0,0,0],"split_type":[0,0,0,0,0,0,0,0,0,0,0,0,0,0,0,0,0,0,0,0,0,0,0,0,0,0,0,0,0,0,0,0,0,0,0,0,0,0,0,0,0,0,0,0,0,0,0,0,0,0,0,0,0,0,0,0,0,0,0,0,0,0,0,0,0,0,0,0,0,0,0,0,0,0,0,0,0,0,0,0,0,0,0,0,0,0,0,0,0,0,0,0,0,0,0,0,0,0,0,0,0,0,0,0,0,0,0,0,0,0,0,0,0,0,0,0,0,0,0,0,0,0,0,0,0,0,0],"sum_hessian":[2.8027E4,1.2266E4,1.5761E4,5.472E3,6.794E3,9.957E3,5.804E3,3.814E3,1.658E3,4.532E3,2.262E3,4.234E3,5.723E3,3.504E3,2.3E3,3.516E3,2.98E2,9.36E2,7.22E2,2.928E3,1.604E3,2.015E3,2.47E2,1.013E3,3.221E3,5.77E2,5.146E3,4.49E2,3.055E3,1.75E3,5.5E2,3.137E3,3.79E2,2.89E2,9E0,4.12E2,5.24E2,1.92E2,5.3E2,6.42E2,2.286E3,1.514E3,9E1,1.808E3,2.07E2,1.22E2,1.25E2,8.41E2,1.72E2,2.452E3,7.69E2,2.41E2,3.36E2,1.02E2,5.044E3,2.05E2,2.44E2,2.28E3,7.75E2,3.49E2,1.401E3,3.7E2,1.8E2,3E0,3.134E3,1.8E1,3.61E2,2.86E2,3E0,6E0,3E0,2.2E2,1.92E2,5.21E2,3E0,3E0,1.89E2,3E0,5.27E2,1.86E2,4.56E2,4.22E2,1.864E3,1.432E3,8.2E1,4.7E1,4.3E1,1.07E2,1.701E3,5.5E1,1.52E2,1.14E2,8E0,8.9E1,3.6E1,4.78E2,3.63E2,3.7E1,1.35E2,1.057E3,1.395E3,4.64E2,3.05E2,2.37E2,4E0,3.15E2,2.1E1,8.2E1,2E1,4.897E3,1.47E2,1.75E2,3E1,2.3E2,1.4E1,1.845E3,4.35E2,5.23E2,2.52E2,2.86E2,6.3E1,1.372E3,2.9E1,3.33E2,3.7E1,3.7E1,1.43E2],"tree_param":{"num_deleted":"0","num_feature":"696","num_nodes":"127","size_leaf_vector":"1"}},{"base_weights":[2.5854326E-5,-1.0981374E-2,8.5886605E-3,-1.4378549E-2,-3.95922E-3,3.1369706E-3,1.6206123E-2,-3.6026065E-3,-1.5378298E-2,5.924695E-3,-6.3667516E-3,4.486187E-3,-4.9968283E-3,1.3154745E-2,2.5220152E-2,3.997756E-4,-1.9417651E-2,-1.4878725E-2,-3.117047E-2,4.14207E-3,4.2848628E-2,-3.8316317E-3,-1.2403293E-2,-1.4433439E-3,7.402972E-3,-1.858594E-2,-1.226775E-3,1.1380856E-2,1.8992119E-2,2.7402535E-2,-2.3090206E-3,-3.0530817E-3,1.8784659E-2,-2.807957E-2,8.922551E-3,-1.8292004E-2,-1.234804E-2,6.1056588E-2,-3.306459E-2,-3.1660933E-3,1.15175005E-2,5.4331418E-2,-1.877896E-2,-4.328417E-3,2.5422657E-2,-1.1124404E-2,-5.1294334E-2,2.3417787E-3,-9.962797E-3,6.070748E-3,1.6841654E-2,-5.0961882E-2,-1.1450218E-2,-3.337859E-3,2.8070819E-2,1.7165327E-2,8.7147895E-3,1.764257E-4,1.9996846E-2,2.283827E-2,3.734371E-2,-1.1195478E-2,3.8996782E-2,-1.6886623E-3,5.387613E-3,-9.159157E-3,7.414275E-3,1.0937167E-2,-9.265598E-3,8.471429E-3,-1.0209478E-2,-5.511568E-3,1.4560391E-2,-5.114749E-3,-2.559648E-3,2.3290366E-2,7.2379303E-3,-8.532846E-3,-2.1291574E-2,1.4394452E-3,-4.825801E-3,-4.4295103E-3,4.7178348E-3,3.7566565E-3,2.0846438E-2,-9.013348E-4,-5.1966417E-3,2.493517E-2,1.3954006E-3,-3.6982337E-3,8.7632295E-3,-4.963763E-4,-1.8346831E-2,8.1438123E-4,-1.3632178E-2,8.137807E-4,-6.133502E-3,-1.3686141E-3,2.2058177E-3,3.6523931E-3,1.034809E-2,-1.1229755E-2,-2.754388E-2,-4.0888004E-3,1.8348735E-2,-2.6580335E-3,8.9475553E-4,-1.4183663E-2,1.2492988E-2,8.891804E-3,4.604906E-3,2.9004915E-3,-3.1820151E-3,-9.899376E-3,2.8045664E-3,5.727172E-3,1.2620908E-2,6.247987E-3,1.1473185E-2,1.289631E-3,1.1764298E-2,-1.1069245E-4,-1.2848397E-2,5.989337E-3,1.795174E-2],"categories":[],"categories_nodes":[],"categories_segments":[],"categories_sizes":[],"default_left":[0,0,0,0,0,0,0,0,0,0,0,0,0,0,0,0,0,0,0,0,0,0,0,0,0,0,0,0,0,0,0,0,0,0,0,0,0,0,0,0,0,0,0,0,0,0,0,0,0,0,0,0,0,0,0,0,0,0,0,0,0,0,0,0,0,0,0,0,0,0,0,0,0,0,0,0,0,0,0,0,0,0,0,0,0,0,0,0,0,0,0,0,0,0,0,0,0,0,0,0,0,0,0,0,0,0,0,0,0,0,0,0,0,0,0,0,0,0,0,0,0,0,0,0,0],"id":8,"left_children":[1,3,5,7,9,11,13,15,17,19,21,23,25,27,29,31,33,35,37,39,41,43,45,47,49,51,53,55,57,59,61,63,65,67,69,71,73,75,77,79,81,83,-1,85,87,89,91,93,95,97,99,101,103,105,107,109,111,113,115,117,119,121,123,-1,-1,-1,-1,-1,-1,-1,-1,-1,-1,-1,-1,-1,-1,-1,-1,-1,-1,-1,-1,-1,-1,-1,-1,-1,-1,-1,-1,-1,-1,-1,-1,-1,-1,-1,-1,-1,-1,-1,-1,-1,-1,-1,-1,-1,-1,-1,-1,-1,-1,-1,-1,-1,-1,-1,-1,-1,-1,-1,-1,-1,-1],"loss_changes":[2.6418107E0,2.925067E-1,6.5463877E-1,8.898544E-2,9.5221095E-2,1.0087582E-1,1.8054247E-1,4.4506155E-2,5.9203386E-2,5.1426604E-2,4.918337E-2,1.3634849E-1,6.698823E-2,5.0677896E-2,9.991491E-2,3.573332E-2,3.510877E-2,6.311607E-2,4.2371944E-2,4.0408198E-2,4.6989918E-2,3.3056583E-2,4.6729535E-2,8.386598E-2,6.634107E-2,6.5027766E-2,6.348962E-2,5.8021396E-2,2.1623373E-2,6.902325E-2,4.5585245E-2,2.575492E-2,2.6779812E-2,2.0863108E-2,2.9170198E-2,1.7548442E-2,7.544923E-2,1.1880882E-3,3.7751496E-2,3.886947E-2,4.149087E-2,2.0041637E-2,0E0,3.8311247E-2,4.515231E-2,4.5100026E-2,1.4584877E-2,3.2207217E-2,1.06348395E-1,6.3172325E-2,5.3375468E-2,2.4750337E-2,3.785975E-2,3.3428326E-2,7.253387E-2,2.647394E-2,4.7708496E-2,1.8260963E-2,2.092129E-2,3.199172E-2,2.9687703E-2,3.491608E-2,7.5322688E-3,0E0,0E0,0E0,0E0,0E0,0E0,0E0,0E0,0E0,0E0,0E0,0E0,0E0,0E0,0E0,0E0,0E0,0E0,0E0,0E0,0E0,0E0,0E0,0E0,0E0,0E0,0E0,0E0,0E0,0E0,0E0,0E0,0E0,0E0,0E0,0E0,0E0,0E0,0E0,0E0,0E0,0E0,0E0,0E0,0E0,0E0,0E0,0E0,0E0,0E0,0E0,0E0,0E0,0E0,0E0,0E0,0E0,0E0,0E0,0E0,0E0,0E0],"parents":[2147483647,0,0,1,1,2,2,3,3,4,4,5,5,6,6,7,7,8,8,9,9,10,10,11,11,12,12,13,13,14,14,15,15,16,16,17,17,18,18,19,19,20,20,21,21,22,22,23,23,24,24,25,25,26,26,27,27,28,28,29,29,30,30,31,31,32,32,33,33,34,34,35,35,36,36,37,37,38,38,39,39,40,40,41,41,43,43,44,44,45,45,46,46,47,47,48,48,49,49,50,50,51,51,52,52,53,53,54,54,55,55,56,56,57,57,58,58,59,59,60,60,61,61,62,62],"right_children":[2,4,6,8,10,12,14,16,18,20,22,24,26,28,30,32,34,36,38,40,42,44,46,48,50,52,54,56,58,60,62,64,66,68,70,72,74,76,78,80,82,84,-1,86,88,90,92,94,96,98,100,102,104,106,108,110,112,114,116,118,120,122,124,-1,-1,-1,-1,-1,-1,-1,-1,-1,-1,-1,-1,-1,-1,-1,-1,-1,-1,-1,-1,-1,-1,-1,-1,-1,-1,-1,-1,-1,-1,-1,-1,-1,-1,-1,-1,-1,-1,-1,-1,-1,-1,-1,-1,-1,-1,-1,-1,-1,-1,-1,-1,-1,-1,-1,-1,-1,-1,-1,-1,-1,-1],"split_conditions":[2.9227197E-1,1.6377608E-1,4.3876904E-1,1.3243932E-1,1.662789E-1,4.743202E-1,6.305141E-1,4.5967743E-1,2.7177447E-1,8.5436976E-1,4.0656924E-1,1.5484406E-1,2.192691E-1,5.9510714E-1,1.25E-3,6.911834E-1,7.1203196E-1,3.3488438E-2,1.0200419E-1,4.763876E-1,3.9124948E-1,6.173858E-1,3.429921E-1,1.11406654E-1,6.484223E-1,3.2949653E-1,5.394811E-1,4.6538353E-1,2.9446408E-2,4.2936864E-1,4.8375E-1,5.9628457E-1,3.533569E-2,7.6612905E-2,2.2275111E-1,5.1304287E-1,3.6665925E-1,3.139932E-1,6.697765E-1,3.7231806E-1,2.5204455E-2,1.6845839E-1,-1.877896E-2,6.6584367E-1,1.05033614E-1,8.5436976E-1,1.22461E-1,5.1304287E-1,2.7422863E-1,1.6407236E-1,6.6223574E-1,3.1451613E-1,6.171279E-1,1.1445951E-4,1.3631313E-1,3.714749E-1,3.876923E-1,5.6127954E-2,8.559311E-1,7.385738E-1,2.3529021E-1,5.933261E-1,5.4839194E-1,-1.6886623E-3,5.387613E-3,-9.159157E-3,7.414275E-3,1.0937167E-2,-9.265598E-3,8.471429E-3,-1.0209478E-2,-5.511568E-3,1.4560391E-2,-5.114749E-3,-2.559648E-3,2.3290366E-2,7.2379303E-3,-8.532846E-3,-2.1291574E-2,1.4394452E-3,-4.825801E-3,-4.4295103E-3,4.7178348E-3,3.7566565E-3,2.0846438E-2,-9.013348E-4,-5.1966417E-3,2.493517E-2,1.3954006E-3,-3.6982337E-3,8.7632295E-3,-4.963763E-4,-1.8346831E-2,8.1438123E-4,-1.3632178E-2,8.137807E-4,-6.133502E-3,-1.3686141E-3,2.2058177E-3,3.6523931E-3,1.034809E-2,-1.1229755E-2,-2.754388E-2,-4.0888004E-3,1.8348735E-2,-2.6580335E-3,8.9475553E-4,-1.4183663E-2,1.2492988E-2,8.891804E-3,4.604906E-3,2.9004915E-3,-3.1820151E-3,-9.899376E-3,2.8045664E-3,5.727172E-3,1.2620908E-2,6.247987E-3,1.1473185E-2,1.289631E-3,1.1764298E-2,-1.1069245E-4,-1.2848397E-2,5.989337E-3,1.795174E-2],"split_indices":[672,678,678,466,649,569,34,375,643,648,62,617,695,678,692,671,340,678,615,657,659,504,649,676,167,399,562,649,165,648,663,37,687,230,100,475,425,1,96,166,388,89,0,308,628,10,148,649,250,688,681,317,503,76,628,649,667,119,449,179,266,461,421,0,0,0,0,0,0,0,0,0,0,0,0,0,0,0,0,0,0,0,0,0,0,0,0,0,0,0,0,0,0,0,0,0,0,0,0,0,0,0,0,0,0,0,0,0,0,0,0,0,0,0,0,0,0,0,0,0,0,0,0,0,0],"split_type":[0,0,0,0,0,0,0,0,0,0,0,0,0,0,0,0,0,0,0,0,0,0,0,0,0,0,0,0,0,0,0,0,0,0,0,0,0,0,0,0,0,0,0,0,0,0,0,0,0,0,0,0,0,0,0,0,0,0,0,0,0,0,0,0,0,0,0,0,0,0,0,0,0,0,0,0,0,0,0,0,0,0,0,0,0,0,0,0,0,0,0,0,0,0,0,0,0,0,0,0,0,0,0,0,0,0,0,0,0,0,0,0,0,0,0,0,0,0,0,0,0,0,0,0,0],"sum_hessian":[2.8027E4,1.2263E4,1.5764E4,8.264E3,3.999E3,9.189E3,6.575E3,7.02E2,7.562E3,7.83E2,3.216E3,7.882E3,1.307E3,4.914E3,1.661E3,5.61E2,1.41E2,7.332E3,2.3E2,7.48E2,3.5E1,2.266E3,9.5E2,2.599E3,5.283E3,2.83E2,1.024E3,3.771E3,1.143E3,1.539E3,1.22E2,4.73E2,8.8E1,1.08E2,3.3E1,3.119E3,4.213E3,4E0,2.26E2,3.76E2,3.72E2,3.2E1,3E0,2.229E3,3.7E1,9.21E2,2.9E1,1.8E3,7.99E2,4.631E3,6.52E2,5E1,2.33E2,9.56E2,6.8E1,1.188E3,2.583E3,5.8E1,1.085E3,1.057E3,4.82E2,1.01E2,2.1E1,4.22E2,5.1E1,9E0,7.9E1,4E0,1.04E2,2.3E1,1E1,3.116E3,3E0,1.886E3,2.327E3,2E0,2E0,2.03E2,2.3E1,2.33E2,1.43E2,5.1E1,3.21E2,9E0,2.3E1,2.024E3,2.05E2,9E0,2.8E1,8.95E2,2.6E1,5E0,2.4E1,1.787E3,1.3E1,3.62E2,4.37E2,4.98E2,4.133E3,5.17E2,1.35E2,3.9E1,1.1E1,2.27E2,6E0,5.1E2,4.46E2,1E1,5.8E1,1.49E2,1.039E3,2.462E3,1.21E2,1.2E1,4.6E1,1.044E3,4.1E1,9.37E2,1.2E2,2.6E1,4.56E2,7.6E1,2.5E1,1.2E1,9E0],"tree_param":{"num_deleted":"0","num_feature":"696","num_nodes":"125","size_leaf_vector":"1"}},{"base_weights":[1.9814917E-5,-5.870012E-3,8.348051E-3,-1.0247639E-2,-1.598604E-3,5.6616375E-3,1.5146519E-2,-8.49798E-3,-1.3917603E-2,1.2725355E-2,-2.429832E-3,4.2583523E-3,1.1062949E-2,9.773738E-3,1.8024173E-2,-1.0396909E-2,-2.79224E-3,-1.3167591E-2,-2.901201E-2,5.35819E-2,1.0629794E-2,-5.7891808E-3,2.2239599E-4,5.1955115E-3,-4.126113E-3,6.9095492E-3,1.9902844E-2,1.66325E-2,-2.7831152E-4,1.837394E-2,-3.640293E-2,-2.2273935E-2,-9.438418E-3,4.741027E-3,-8.66301E-3,-1.2308151E-2,-2.2910805E-2,2.1451741E-2,-3.042204E-2,1.0964679E-1,2.570464E-2,1.7601246E-2,-3.4100597E-4,-2.120403E-2,-4.1494444E-3,2.1273089E-3,-7.904585E-3,6.738324E-3,9.32657E-4,-4.3025918E-4,-3.1934265E-2,8.335616E-3,-2.1582384E-2,6.799621E-2,1.7762063E-2,1.5522684E-2,7.739607E-2,-4.05783E-2,2.0929056E-3,2.2088127E-2,1.429839E-2,-2.1472447E-2,8.99394E-3,2.5253616E-2,-6.974395E-3,-3.2385045E-3,-3.8893684E-4,1.2650144E-2,1.0744049E-3,-1.1711658E-3,-4.8291124E-3,-1.1744127E-2,-3.5949643E-3,-1.421856E-2,-5.9372964E-3,7.862803E-3,-9.919859E-3,3.8612653E-2,1.2398336E-2,1.608373E-2,3.580303E-3,6.1618933E-3,-3.093725E-3,-1.5702352E-2,9.7084104E-4,-5.994583E-3,-3.5017535E-2,-1.6493809E-3,2.5403923E-3,5.008044E-4,9.06794E-3,-4.5840316E-3,1.2151503E-3,8.8414777E-4,2.766456E-3,-3.8199744E-4,2.761183E-3,-1.7515037E-2,2.9445704E-4,-1.848237E-3,-1.4118669E-2,1.3583468E-2,2.1919438E-3,-1.1466311E-2,1.0917969E-2,4.6568822E-2,1.2438407E-2,1.0539169E-3,7.161089E-3,4.259869E-3,1.8842166E-2,-6.345519E-3,3.377866E-2,-4.233914E-3,-2.261528E-2,6.6354754E-3,-2.9680665E-4,1.0511676E-2,5.8689606E-3,1.1164505E-3,4.8982706E-3,6.0983305E-3,1.1845709E-4],"categories":[],"categories_nodes":[],"categories_segments":[],"categories_sizes":[],"default_left":[0,0,0,0,0,0,0,0,0,0,0,0,0,0,0,0,0,0,0,0,0,0,0,0,0,0,0,0,0,0,0,0,0,0,0,0,0,0,0,0,0,0,0,0,0,0,0,0,0,0,0,0,0,0,0,0,0,0,0,0,0,0,0,0,0,0,0,0,0,0,0,0,0,0,0,0,0,0,0,0,0,0,0,0,0,0,0,0,0,0,0,0,0,0,0,0,0,0,0,0,0,0,0,0,0,0,0,0,0,0,0,0,0,0,0,0,0,0,0,0,0,0,0],"id":9,"left_children":[1,3,5,7,9,11,13,15,17,19,21,23,25,27,29,31,33,35,37,39,41,43,45,47,49,51,53,55,57,59,61,63,65,67,69,71,73,-1,75,77,79,81,83,85,87,89,91,93,95,97,99,101,103,105,107,109,111,113,115,117,119,-1,121,-1,-1,-1,-1,-1,-1,-1,-1,-1,-1,-1,-1,-1,-1,-1,-1,-1,-1,-1,-1,-1,-1,-1,-1,-1,-1,-1,-1,-1,-1,-1,-1,-1,-1,-1,-1,-1,-1,-1,-1,-1,-1,-1,-1,-1,-1,-1,-1,-1,-1,-1,-1,-1,-1,-1,-1,-1,-1,-1,-1],"loss_changes":[1.374875E0,3.069777E-1,2.1197164E-1,5.1944673E-2,9.8985635E-2,6.304535E-2,5.0659657E-2,5.948648E-2,2.9233694E-2,3.8471974E-2,6.999636E-2,5.195217E-2,6.2866464E-2,7.9221964E-2,4.1407645E-2,4.670337E-2,6.0763467E-2,2.0602018E-2,1.960852E-2,3.156615E-2,3.3275846E-2,8.751963E-2,6.7994736E-2,3.9092705E-2,6.833154E-2,4.767802E-2,5.5212855E-2,4.485762E-2,4.4711452E-2,3.1881332E-2,2.2997452E-2,3.3789754E-2,4.2124063E-2,2.5977122E-2,2.7250115E-2,1.9536823E-2,1.4415771E-2,0E0,1.9135192E-2,3.7968457E-3,5.508949E-3,2.2029512E-2,3.1791423E-2,3.654036E-2,5.3369947E-2,4.5735013E-2,7.3599815E-2,4.1065812E-2,2.885913E-2,4.8165884E-2,3.0122265E-2,4.2022362E-2,5.541059E-2,4.680255E-2,4.5697227E-2,4.11506E-2,4.400754E-2,2.2885967E-2,2.7303599E-2,3.5643995E-2,2.1766484E-2,0E0,6.74197E-4,0E0,0E0,0E0,0E0,0E0,0E0,0E0,0E0,0E0,0E0,0E0,0E0,0E0,0E0,0E0,0E0,0E0,0E0,0E0,0E0,0E0,0E0,0E0,0E0,0E0,0E0,0E0,0E0,0E0,0E0,0E0,0E0,0E0,0E0,0E0,0E0,0E0,0E0,0E0,0E0,0E0,0E0,0E0,0E0,0E0,0E0,0E0,0E0,0E0,0E0,0E0,0E0,0E0,0E0,0E0,0E0,0E0,0E0,0E0,0E0],"parents":[2147483647,0,0,1,1,2,2,3,3,4,4,5,5,6,6,7,7,8,8,9,9,10,10,11,11,12,12,13,13,14,14,15,15,16,16,17,17,18,18,19,19,20,20,21,21,22,22,23,23,24,24,25,25,26,26,27,27,28,28,29,29,30,30,31,31,32,32,33,33,34,34,35,35,36,36,38,38,39,39,40,40,41,41,42,42,43,43,44,44,45,45,46,46,47,47,48,48,49,49,50,50,51,51,52,52,53,53,54,54,55,55,56,56,57,57,58,58,59,59,60,60,62,62],"right_children":[2,4,6,8,10,12,14,16,18,20,22,24,26,28,30,32,34,36,38,40,42,44,46,48,50,52,54,56,58,60,62,64,66,68,70,72,74,-1,76,78,80,82,84,86,88,90,92,94,96,98,100,102,104,106,108,110,112,114,116,118,120,-1,122,-1,-1,-1,-1,-1,-1,-1,-1,-1,-1,-1,-1,-1,-1,-1,-1,-1,-1,-1,-1,-1,-1,-1,-1,-1,-1,-1,-1,-1,-1,-1,-1,-1,-1,-1,-1,-1,-1,-1,-1,-1,-1,-1,-1,-1,-1,-1,-1,-1,-1,-1,-1,-1,-1,-1,-1,-1,-1,-1,-1],"split_conditions":[3.7094527E-1,1.9243781E-1,5.60796E-1,5.771759E-1,1.6782753E-1,2.9168633E-1,2.835816E-1,6.638651E-2,4.4636816E-1,3.0029446E-2,4.7141507E-1,5.7417417E-1,5.574123E-1,1.7495953E-2,1.5383333E-1,5.8276303E-2,4.2704347E-1,3.3835864E-1,3.3655867E-2,1.1177446E-1,4.5553827E-1,3.9642822E-2,2.6595485E-1,3.841261E-1,6.6539764E-1,5.753846E-1,4.317535E-2,2.818173E-1,3.577975E-2,3.2587358E-1,3.3982444E-1,6.6259995E-2,5.833333E-4,2.3222105E-1,2.192691E-1,1.8425731E-1,3.7426725E-1,2.1451741E-2,2.2302942E-1,7.029535E-1,1.4945273E-1,5.767918E-1,1.647791E-1,4.401951E-1,5.900747E-1,7.05642E-1,4.022434E-3,5.351964E-1,6.6584367E-1,2.625846E-1,2.7614614E-1,1.6117334E-2,6.927885E-1,1.8845701E-1,2.3055414E-3,7.411892E-1,2.6670688E-1,1.4303744E-1,5.4836434E-1,2.9843423E-1,3.302482E-1,-2.1472447E-2,2.1846154E-1,2.5253616E-2,-6.974395E-3,-3.2385045E-3,-3.8893684E-4,1.2650144E-2,1.0744049E-3,-1.1711658E-3,-4.8291124E-3,-1.1744127E-2,-3.5949643E-3,-1.421856E-2,-5.9372964E-3,7.862803E-3,-9.919859E-3,3.8612653E-2,1.2398336E-2,1.608373E-2,3.580303E-3,6.1618933E-3,-3.093725E-3,-1.5702352E-2,9.7084104E-4,-5.994583E-3,-3.5017535E-2,-1.6493809E-3,2.5403923E-3,5.008044E-4,9.06794E-3,-4.5840316E-3,1.2151503E-3,8.8414777E-4,2.766456E-3,-3.8199744E-4,2.761183E-3,-1.7515037E-2,2.9445704E-4,-1.848237E-3,-1.4118669E-2,1.3583468E-2,2.1919438E-3,-1.1466311E-2,1.0917969E-2,4.6568822E-2,1.2438407E-2,1.0539169E-3,7.161089E-3,4.259869E-3,1.8842166E-2,-6.345519E-3,3.377866E-2,-4.233914E-3,-2.261528E-2,6.6354754E-3,-2.9680665E-4,1.0511676E-2,5.8689606E-3,1.1164505E-3,4.8982706E-3,6.0983305E-3,1.1845709E-4],"split_indices":[672,672,672,90,643,642,685,685,266,77,599,39,246,685,684,531,612,598,485,643,403,612,598,569,388,0,670,641,330,687,222,166,692,15,521,674,470,0,182,16,34,175,519,530,681,642,76,628,685,678,2,285,454,426,569,80,16,398,649,342,630,0,0,0,0,0,0,0,0,0,0,0,0,0,0,0,0,0,0,0,0,0,0,0,0,0,0,0,0,0,0,0,0,0,0,0,0,0,0,0,0,0,0,0,0,0,0,0,0,0,0,0,0,0,0,0,0,0,0,0,0,0,0],"split_type":[0,0,0,0,0,0,0,0,0,0,0,0,0,0,0,0,0,0,0,0,0,0,0,0,0,0,0,0,0,0,0,0,0,0,0,0,0,0,0,0,0,0,0,0,0,0,0,0,0,0,0,0,0,0,0,0,0,0,0,0,0,0,0,0,0,0,0,0,0,0,0,0,0,0,0,0,0,0,0,0,0,0,0,0,0,0,0,0,0,0,0,0,0,0,0,0,0,0,0,0,0,0,0,0,0,0,0,0,0,0,0,0,0,0,0,0,0,0,0,0,0,0,0],"sum_hessian":[2.8027E4,1.6417E4,1.161E4,8.107E3,8.31E3,8.323E3,3.287E3,5.492E3,2.615E3,4.55E2,7.855E3,6.608E3,1.715E3,1.148E3,2.139E3,4.12E3,1.372E3,2.493E3,1.22E2,2.1E1,4.34E2,3.465E3,4.39E3,5.944E3,6.64E2,1.168E3,5.47E2,6.82E2,4.66E2,2.126E3,1.3E1,3.06E2,3.814E3,6.01E2,7.71E2,2.293E3,2E2,1E0,1.21E2,6E0,1.5E1,2.65E2,1.69E2,3.32E2,3.133E3,3.557E3,8.33E2,4.364E3,1.58E3,5.87E2,7.7E1,1.113E3,5.5E1,2.2E1,5.25E2,6.71E2,1.1E1,2.5E1,4.41E2,1.11E3,1.016E3,7E0,6E0,2E0,3.04E2,3.269E3,5.45E2,1.7E1,5.84E2,4.71E2,3E2,2.6E1,2.267E3,2.1E1,1.79E2,5E0,1.16E2,4E0,2E0,4E0,1.1E1,2.4E2,2.5E1,1E1,1.59E2,3.29E2,3E0,2.831E3,3.02E2,3.501E3,5.6E1,5.15E2,3.18E2,1.728E3,2.636E3,1.248E3,3.32E2,1.3E1,5.74E2,2.9E1,4.8E1,2.9E1,1.084E3,4.3E1,1.2E1,4E0,1.8E1,1.58E2,3.67E2,6.54E2,1.7E1,3E0,8E0,1.5E1,1E1,5.8E1,3.83E2,1.79E2,9.31E2,1.64E2,8.52E2,2E0,4E0],"tree_param":{"num_deleted":"0","num_feature":"696","num_nodes":"123","size_leaf_vector":"1"}},{"base_weights":[1.8289807E-5,-6.3477876E-3,3.968746E-3,-6.933701E-3,3.8279146E-3,1.11143E-3,8.507274E-3,-1.0037573E-2,-4.9583935E-3,1.49772195E-2,-5.508576E-4,1.2451466E-2,5.2015437E-4,7.2721215E-3,1.6653253E-2,-1.8668085E-2,-8.951898E-3,-9.109596E-3,-1.0586052E-3,2.8649908E-2,6.0296752E-3,1.4336729E-4,-7.295965E-2,-2.6692508E-2,1.3399132E-2,2.3992737E-3,-2.902016E-3,9.561765E-3,3.5333638E-3,1.2461401E-2,2.2280054E-2,-9.439118E-3,-2.631956E-2,-3.4623127E-3,-1.0695877E-2,-1.0945285E-2,9.92489E-4,-1.6335481E-3,4.9517866E-2,-1.5094387E-3,3.8528662E-2,3.6471177E-2,1.1181902E-3,2.119395E-2,-1.8356519E-3,-3.0462516E-2,1.9179852E-3,1.2042463E-2,5.555111E-2,2.0247498E-3,1.9071072E-2,-1.6534819E-3,-1.2595523E-2,5.301922E-3,1.3011114E-2,-6.6028265E-3,6.0339184E-3,1.1652976E-2,5.580961E-2,1.1367782E-2,2.9062662E-2,-9.849116E-3,-1.9583239E-3,-9.998207E-3,-2.5408217E-3,-1.4032392E-3,9.292387E-3,-1.4750947E-2,-3.098121E-3,-3.0535758E-3,-8.930956E-3,7.679806E-3,-4.1847592E-4,-1.5204133E-3,1.4672924E-3,2.0550724E-2,3.198122E-3,-3.6282286E-3,1.0774265E-2,1.27585E-2,-1.5522239E-3,1.5036558E-2,4.698069E-3,2.7043587E-3,-3.8946315E-3,-3.3892372E-3,1.0237549E-2,-1.0812107E-3,7.0895287E-3,7.017722E-3,2.2426695E-3,2.0349689E-2,5.24848E-4,-1.4181834E-3,9.365402E-4,3.221324E-3,1.3343563E-2,-8.47255E-5,-4.2106644E-3,-2.6363535E-3,-1.2710779E-2,1.998409E-3,-5.248009E-3,3.308409E-3,7.1880254E-3,-4.117011E-3,4.7284625E-3,5.85436E-3,1.3258766E-3,-1.5736582E-3,4.0401425E-3,2.4989849E-2,5.1473416E-3,1.2837723E-3,5.49018E-3,9.770799E-3,-7.179916E-4],"categories":[],"categories_nodes":[],"categories_segments":[],"categories_sizes":[],"default_left":[0,0,0,0,0,0,0,0,0,0,0,0,0,0,0,0,0,0,0,0,0,0,0,0,0,0,0,0,0,0,0,0,0,0,0,0,0,0,0,0,0,0,0,0,0,0,0,0,0,0,0,0,0,0,0,0,0,0,0,0,0,0,0,0,0,0,0,0,0,0,0,0,0,0,0,0,0,0,0,0,0,0,0,0,0,0,0,0,0,0,0,0,0,0,0,0,0,0,0,0,0,0,0,0,0,0,0,0,0,0,0,0,0,0,0,0,0],"id":10,"left_children":[1,3,5,7,9,11,13,15,17,19,21,23,25,27,29,31,33,35,37,39,41,43,45,-1,47,49,51,53,55,57,59,61,63,65,67,69,71,73,75,77,79,81,83,85,87,-1,-1,89,91,93,95,97,99,101,103,105,107,109,111,113,115,-1,-1,-1,-1,-1,-1,-1,-1,-1,-1,-1,-1,-1,-1,-1,-1,-1,-1,-1,-1,-1,-1,-1,-1,-1,-1,-1,-1,-1,-1,-1,-1,-1,-1,-1,-1,-1,-1,-1,-1,-1,-1,-1,-1,-1,-1,-1,-1,-1,-1,-1,-1,-1,-1,-1,-1],"loss_changes":[7.048989E-1,6.4017594E-2,2.2428522E-1,6.2174797E-2,2.8568108E-2,7.116802E-2,6.710997E-2,3.6806643E-2,1.00425735E-1,2.0012852E-2,2.1173285E-2,5.1750407E-2,6.489238E-2,4.9650908E-2,2.0455077E-2,3.0822247E-2,3.3537984E-2,5.5736408E-2,9.313236E-2,1.9424051E-2,1.5060028E-2,1.7452577E-2,9.721469E-3,0E0,2.9182248E-2,4.0634725E-2,4.327044E-2,5.281359E-2,5.595333E-2,1.7081782E-2,2.7350739E-2,1.3473932E-2,2.9739395E-2,3.5588514E-2,3.725037E-2,3.6399513E-2,2.7235404E-2,7.094752E-2,2.5826626E-2,7.1683303E-3,8.785069E-3,3.1922497E-3,9.915008E-3,1.5511047E-2,1.7334016E-2,0E0,0E0,2.6104987E-2,1.04532875E-2,4.721418E-2,2.9799607E-2,5.3811856E-2,4.5882143E-2,5.0070535E-2,4.290071E-2,6.980699E-2,3.8432784E-2,1.5337661E-2,8.133566E-3,7.0475023E-3,2.5448233E-2,0E0,0E0,0E0,0E0,0E0,0E0,0E0,0E0,0E0,0E0,0E0,0E0,0E0,0E0,0E0,0E0,0E0,0E0,0E0,0E0,0E0,0E0,0E0,0E0,0E0,0E0,0E0,0E0,0E0,0E0,0E0,0E0,0E0,0E0,0E0,0E0,0E0,0E0,0E0,0E0,0E0,0E0,0E0,0E0,0E0,0E0,0E0,0E0,0E0,0E0,0E0,0E0,0E0,0E0,0E0,0E0],"parents":[2147483647,0,0,1,1,2,2,3,3,4,4,5,5,6,6,7,7,8,8,9,9,10,10,11,11,12,12,13,13,14,14,15,15,16,16,17,17,18,18,19,19,20,20,21,21,22,22,24,24,25,25,26,26,27,27,28,28,29,29,30,30,31,31,32,32,33,33,34,34,35,35,36,36,37,37,38,38,39,39,40,40,41,41,42,42,43,43,44,44,47,47,48,48,49,49,50,50,51,51,52,52,53,53,54,54,55,55,56,56,57,57,58,58,59,59,60,60],"right_children":[2,4,6,8,10,12,14,16,18,20,22,24,26,28,30,32,34,36,38,40,42,44,46,-1,48,50,52,54,56,58,60,62,64,66,68,70,72,74,76,78,80,82,84,86,88,-1,-1,90,92,94,96,98,100,102,104,106,108,110,112,114,116,-1,-1,-1,-1,-1,-1,-1,-1,-1,-1,-1,-1,-1,-1,-1,-1,-1,-1,-1,-1,-1,-1,-1,-1,-1,-1,-1,-1,-1,-1,-1,-1,-1,-1,-1,-1,-1,-1,-1,-1,-1,-1,-1,-1,-1,-1,-1,-1,-1,-1,-1,-1,-1,-1,-1,-1],"split_conditions":[2.175691E-1,4.8306817E-1,4.625539E-1,2.1803989E-1,4.2704347E-1,1.347927E-1,7.04632E-1,7.3005594E-2,1.766933E-1,1.6407236E-1,3.359204E-1,4.467853E-2,1.9232656E-1,5.20709E-1,4.6202567E-1,1.7796995E-1,1.727014E-1,4.9613875E-1,4.8802653E-1,1.3545348E-1,2.2246422E-1,2.0598006E-1,2.8076923E-1,-2.6692508E-2,9.034819E-1,7.3008317E-1,5.5513465E-1,1.5842457E-1,2.757475E-1,8.896063E-1,3.0195078E-1,9.5550716E-2,1.4640369E-1,3.710116E-1,1.5920478E-1,3.1349918E-1,2.1594033E-2,1.7610412E-2,5.6182325E-1,5.027691E-1,5.078991E-1,2.247959E-1,4.7799876E-1,8.222679E-2,4.8504984E-1,-3.0462516E-2,1.9179852E-3,1.0195011E-1,5.638457E-1,1.6827935E-1,5.543882E-1,6.173858E-1,5.412541E-1,2.6607585E-1,2.9538462E-1,4.9833888E-1,1.9703386E-2,2.2525597E-1,1.9630939E-1,3.323517E-1,5.067076E-1,-9.849116E-3,-1.9583239E-3,-9.998207E-3,-2.5408217E-3,-1.4032392E-3,9.292387E-3,-1.4750947E-2,-3.098121E-3,-3.0535758E-3,-8.930956E-3,7.679806E-3,-4.1847592E-4,-1.5204133E-3,1.4672924E-3,2.0550724E-2,3.198122E-3,-3.6282286E-3,1.0774265E-2,1.27585E-2,-1.5522239E-3,1.5036558E-2,4.698069E-3,2.7043587E-3,-3.8946315E-3,-3.3892372E-3,1.0237549E-2,-1.0812107E-3,7.0895287E-3,7.017722E-3,2.2426695E-3,2.0349689E-2,5.24848E-4,-1.4181834E-3,9.365402E-4,3.221324E-3,1.3343563E-2,-8.47255E-5,-4.2106644E-3,-2.6363535E-3,-1.2710779E-2,1.998409E-3,-5.248009E-3,3.308409E-3,7.1880254E-3,-4.117011E-3,4.7284625E-3,5.85436E-3,1.3258766E-3,-1.5736582E-3,4.0401425E-3,2.4989849E-2,5.1473416E-3,1.2837723E-3,5.49018E-3,9.770799E-3,-7.179916E-4],"split_indices":[678,685,672,686,612,585,678,612,688,340,672,646,61,569,19,676,467,101,556,136,490,695,0,0,588,185,472,646,695,159,619,316,641,614,674,643,542,366,258,287,525,2,454,570,666,0,0,483,55,688,7,388,671,677,667,608,685,436,252,543,94,0,0,0,0,0,0,0,0,0,0,0,0,0,0,0,0,0,0,0,0,0,0,0,0,0,0,0,0,0,0,0,0,0,0,0,0,0,0,0,0,0,0,0,0,0,0,0,0,0,0,0,0,0,0,0,0],"split_type":[0,0,0,0,0,0,0,0,0,0,0,0,0,0,0,0,0,0,0,0,0,0,0,0,0,0,0,0,0,0,0,0,0,0,0,0,0,0,0,0,0,0,0,0,0,0,0,0,0,0,0,0,0,0,0,0,0,0,0,0,0,0,0,0,0,0,0,0,0,0,0,0,0,0,0,0,0,0,0,0,0,0,0,0,0,0,0,0,0,0,0,0,0,0,0,0,0,0,0,0,0,0,0,0,0,0,0,0,0,0,0,0,0,0,0,0,0],"sum_hessian":[2.8027E4,1.0732E4,1.7295E4,1.0148E4,5.84E2,1.0614E4,6.681E3,3.945E3,6.203E3,1.64E2,4.2E2,5.25E2,1.0089E4,5.803E3,8.78E2,4.39E2,3.506E3,3.004E3,3.199E3,6.4E1,1E2,4.17E2,3E0,4E0,5.21E2,6.513E3,3.576E3,3.598E3,2.205E3,5.05E2,3.73E2,2E2,2.39E2,8.46E2,2.66E3,2.542E3,4.62E2,3.164E3,3.5E1,1.6E1,4.8E1,1.3E1,8.7E1,3.5E1,3.82E2,2E0,1E0,5.06E2,1.5E1,6.371E3,1.42E2,3.169E3,4.07E2,1.611E3,1.987E3,4.36E2,1.769E3,4.97E2,8E0,1.44E2,2.29E2,2.1E1,1.79E2,1.71E2,6.8E1,8.18E2,2.8E1,2.4E1,2.636E3,2.444E3,9.8E1,4E1,4.22E2,2.073E3,1.091E3,2.3E1,1.2E1,1.3E1,3E0,4.4E1,4E0,7E0,6E0,5.6E1,3.1E1,1E1,2.5E1,3.58E2,2.4E1,1.44E2,3.62E2,1.2E1,3E0,8.9E2,5.481E3,1.08E2,3.4E1,2.854E3,3.15E2,3.62E2,4.5E1,1.521E3,9E1,1.684E3,3.03E2,3.31E2,1.05E2,1.88E2,1.581E3,4.8E1,4.49E2,4E0,4E0,7.2E1,7.2E1,2.06E2,2.3E1],"tree_param":{"num_deleted":"0","num_feature":"696","num_nodes":"117","size_leaf_vector":"1"}},{"base_weights":[1.527147E-5,-3.2050097E-3,4.0870607E-3,-6.4640325E-3,-1.7062045E-3,1.4475335E-3,6.6128485E-3,-5.8132866E-3,-1.50686735E-2,-4.7927824E-4,-6.6638687E-3,8.308118E-3,2.0230594E-4,3.4227252E-3,9.128072E-3,-3.7186116E-3,-8.167345E-3,-1.6929243E-2,3.0262604E-2,-2.7524156E-3,4.049757E-3,-4.8344512E-3,-2.1954875E-2,7.8435205E-3,9.2690036E-2,-6.423662E-4,8.749363E-3,4.7244574E-3,-8.022245E-4,1.6179472E-2,7.4618165E-3,-4.8256507E-3,4.3645105E-3,1.73203E-2,-8.285878E-3,2.4095099E-4,-2.1500172E-2,-4.594731E-3,9.392475E-2,-5.9790234E-3,4.582872E-4,7.5122057E-3,-1.1519609E-3,3.330024E-3,-7.458022E-3,-3.969326E-2,-1.4119007E-2,3.463399E-3,1.4445862E-2,3.4506902E-2,5.037278E-4,-1.04061905E-2,3.210632E-4,-5.633277E-3,1.0833299E-2,4.3460233E-3,3.1107793E-2,4.3927846E-4,-2.2913529E-2,1.2635129E-2,2.8500441E-2,8.312896E-3,-6.727743E-4,-1.5700393E-3,4.8420783E-3,1.0686898E-2,3.947058E-4,-2.3833096E-3,-9.0016415E-3,4.484214E-3,-9.958112E-3,1.2374829E-2,-6.862839E-3,4.447245E-3,-6.003403E-3,3.483333E-2,1.2129051E-2,-3.07473E-3,7.3421403E-4,-2.8659977E-4,2.158005E-3,2.0497397E-3,1.2978356E-2,7.1370637E-4,-2.6505014E-3,4.782874E-3,-7.763449E-4,-4.1071507E-3,-8.448395E-4,-1.4839654E-2,4.899007E-3,-2.6656864E-3,-1.0149528E-2,1.2938064E-3,-1.46467155E-2,-3.5839165E-3,5.0450102E-3,-1.864024E-2,-2.6968597E-3,-2.6331752E-4,2.5814488E-3,2.2519901E-3,-4.271021E-3,2.602054E-3,7.3893885E-3,1.3878797E-3,-9.098983E-3,1.1312406E-2,-2.830478E-3,-4.5882743E-3,5.869965E-4,-1.5947631E-3,-1.8247543E-2,-1.8107834E-3,4.570399E-3,4.822974E-3,1.231285E-2,9.392166E-3,2.3682541E-3,1.3504143E-2,-5.617571E-4],"categories":[],"categories_nodes":[],"categories_segments":[],"categories_sizes":[],"default_left":[0,0,0,0,0,0,0,0,0,0,0,0,0,0,0,0,0,0,0,0,0,0,0,0,0,0,0,0,0,0,0,0,0,0,0,0,0,0,0,0,0,0,0,0,0,0,0,0,0,0,0,0,0,0,0,0,0,0,0,0,0,0,0,0,0,0,0,0,0,0,0,0,0,0,0,0,0,0,0,0,0,0,0,0,0,0,0,0,0,0,0,0,0,0,0,0,0,0,0,0,0,0,0,0,0,0,0,0,0,0,0,0,0,0,0,0,0,0,0,0,0],"id":11,"left_children":[1,3,5,7,9,11,13,15,17,19,21,23,25,27,29,31,33,35,37,39,41,43,45,47,49,51,53,55,57,59,61,63,65,-1,67,69,71,73,75,77,79,81,83,85,87,89,91,93,95,-1,-1,97,99,101,103,105,107,109,111,113,115,117,119,-1,-1,-1,-1,-1,-1,-1,-1,-1,-1,-1,-1,-1,-1,-1,-1,-1,-1,-1,-1,-1,-1,-1,-1,-1,-1,-1,-1,-1,-1,-1,-1,-1,-1,-1,-1,-1,-1,-1,-1,-1,-1,-1,-1,-1,-1,-1,-1,-1,-1,-1,-1,-1,-1,-1,-1,-1,-1],"loss_changes":[3.675248E-1,7.643847E-2,8.251314E-2,2.7517617E-2,6.5215394E-2,5.171758E-2,5.0719768E-2,2.2578195E-2,2.9694632E-2,8.8507995E-2,5.939378E-2,3.5732396E-2,3.7005354E-2,1.5348099E-2,4.1425258E-2,2.1747619E-2,1.7335698E-2,2.6140273E-2,3.1498857E-2,5.9301533E-2,5.1753346E-2,4.0744398E-2,3.0991584E-2,2.6729014E-2,9.969588E-3,4.3885857E-2,1.3878349E-2,2.1161407E-2,1.8072989E-2,2.9116973E-2,1.9819736E-2,1.8347647E-2,2.7876507E-2,0E0,1.5746385E-2,3.5407167E-2,2.3651265E-2,3.290385E-3,1.2398511E-3,1.0275193E-1,2.7331615E-2,4.162194E-2,3.1191885E-2,3.460007E-2,4.159242E-2,3.8583457E-2,1.610253E-2,2.4988944E-2,2.3289867E-2,0E0,0E0,3.0146122E-2,4.2182304E-2,6.7767436E-3,1.1796046E-2,2.0586278E-2,8.383507E-3,1.4927101E-2,2.3027098E-2,2.5621936E-2,2.2713915E-2,2.4699256E-2,1.4993273E-2,0E0,0E0,0E0,0E0,0E0,0E0,0E0,0E0,0E0,0E0,0E0,0E0,0E0,0E0,0E0,0E0,0E0,0E0,0E0,0E0,0E0,0E0,0E0,0E0,0E0,0E0,0E0,0E0,0E0,0E0,0E0,0E0,0E0,0E0,0E0,0E0,0E0,0E0,0E0,0E0,0E0,0E0,0E0,0E0,0E0,0E0,0E0,0E0,0E0,0E0,0E0,0E0,0E0,0E0,0E0,0E0,0E0,0E0],"parents":[2147483647,0,0,1,1,2,2,3,3,4,4,5,5,6,6,7,7,8,8,9,9,10,10,11,11,12,12,13,13,14,14,15,15,16,16,17,17,18,18,19,19,20,20,21,21,22,22,23,23,24,24,25,25,26,26,27,27,28,28,29,29,30,30,31,31,32,32,34,34,35,35,36,36,37,37,38,38,39,39,40,40,41,41,42,42,43,43,44,44,45,45,46,46,47,47,48,48,51,51,52,52,53,53,54,54,55,55,56,56,57,57,58,58,59,59,60,60,61,61,62,62],"right_children":[2,4,6,8,10,12,14,16,18,20,22,24,26,28,30,32,34,36,38,40,42,44,46,48,50,52,54,56,58,60,62,64,66,-1,68,70,72,74,76,78,80,82,84,86,88,90,92,94,96,-1,-1,98,100,102,104,106,108,110,112,114,116,118,120,-1,-1,-1,-1,-1,-1,-1,-1,-1,-1,-1,-1,-1,-1,-1,-1,-1,-1,-1,-1,-1,-1,-1,-1,-1,-1,-1,-1,-1,-1,-1,-1,-1,-1,-1,-1,-1,-1,-1,-1,-1,-1,-1,-1,-1,-1,-1,-1,-1,-1,-1,-1,-1,-1,-1,-1,-1,-1],"split_conditions":[3.1715313E-1,7.5965874E-2,4.315091E-1,9.3344614E-2,1.6678385E-1,7.920397E-2,2.0923077E-1,4.913348E-1,4.2795447E-1,4.3789068E-1,6.719655E-1,8.9785033E-1,6.142061E-1,5.7792956E-1,1.8510728E-1,1.7134328E-1,1.7212743E-2,2.0304887E-1,4.3362966E-1,1.22968346E-1,3.807281E-1,6.047334E-1,3.987201E-1,7.438307E-2,3.2923076E-1,1.2267344E-1,9.677419E-2,8.186426E-1,5.186667E-1,7.3008317E-1,6.279864E-1,8.1975E-1,5.8798645E-2,1.73203E-2,1.5681592E-1,3.3870968E-1,1.6351358E-5,1.5725806E-1,4.4923076E-1,1.9703386E-2,4.8380312E-1,5.5701494E-1,6.916805E-1,1.4516129E-1,2.591362E-1,6.3918686E-1,7.8890985E-1,6.3767695E-1,1.7775358E-1,3.4506902E-2,5.037278E-4,2.080267E-2,3.1698886E-1,1.0963455E-1,4.1201353E-1,7.627548E-1,8.5812867E-1,5.4614145E-2,2.6507193E-1,4.1525364E-1,3.9891106E-1,1.0963455E-1,8.8709675E-2,-1.5700393E-3,4.8420783E-3,1.0686898E-2,3.947058E-4,-2.3833096E-3,-9.0016415E-3,4.484214E-3,-9.958112E-3,1.2374829E-2,-6.862839E-3,4.447245E-3,-6.003403E-3,3.483333E-2,1.2129051E-2,-3.07473E-3,7.3421403E-4,-2.8659977E-4,2.158005E-3,2.0497397E-3,1.2978356E-2,7.1370637E-4,-2.6505014E-3,4.782874E-3,-7.763449E-4,-4.1071507E-3,-8.448395E-4,-1.4839654E-2,4.899007E-3,-2.6656864E-3,-1.0149528E-2,1.2938064E-3,-1.46467155E-2,-3.5839165E-3,5.0450102E-3,-1.864024E-2,-2.6968597E-3,-2.6331752E-4,2.5814488E-3,2.2519901E-3,-4.271021E-3,2.602054E-3,7.3893885E-3,1.3878797E-3,-9.098983E-3,1.1312406E-2,-2.830478E-3,-4.5882743E-3,5.869965E-4,-1.5947631E-3,-1.8247543E-2,-1.8107834E-3,4.570399E-3,4.822974E-3,1.231285E-2,9.392166E-3,2.3682541E-3,1.3504143E-2,-5.617571E-4],"split_indices":[678,678,63,649,569,546,667,287,687,648,32,268,685,370,543,585,334,497,445,531,612,342,16,132,0,388,520,631,452,156,146,663,562,0,672,375,685,56,0,685,572,585,682,114,695,627,437,590,229,0,0,641,642,405,127,565,602,19,645,516,367,86,520,0,0,0,0,0,0,0,0,0,0,0,0,0,0,0,0,0,0,0,0,0,0,0,0,0,0,0,0,0,0,0,0,0,0,0,0,0,0,0,0,0,0,0,0,0,0,0,0,0,0,0,0,0,0,0,0,0,0],"split_type":[0,0,0,0,0,0,0,0,0,0,0,0,0,0,0,0,0,0,0,0,0,0,0,0,0,0,0,0,0,0,0,0,0,0,0,0,0,0,0,0,0,0,0,0,0,0,0,0,0,0,0,0,0,0,0,0,0,0,0,0,0,0,0,0,0,0,0,0,0,0,0,0,0,0,0,0,0,0,0,0,0,0,0,0,0,0,0,0,0,0,0,0,0,0,0,0,0,0,0,0,0,0,0,0,0,0,0,0,0,0,0,0,0,0,0,0,0,0,0,0,0],"sum_hessian":[2.8027E4,1.565E4,1.2377E4,4.929E3,1.0721E4,6.053E3,6.324E3,4.584E3,3.45E2,8.595E3,2.126E3,9.29E2,5.124E3,2.789E3,3.535E3,2.427E3,2.157E3,3.32E2,1.3E1,5.723E3,2.872E3,1.9E3,2.26E2,9.25E2,4E0,4.664E3,4.6E2,2.132E3,6.57E2,6.74E2,2.861E3,2.135E3,2.92E2,3E0,2.154E3,7E1,2.62E2,9E0,4E0,2.854E3,2.869E3,1.724E3,1.148E3,4.62E2,1.438E3,6.8E1,1.58E2,5.57E2,3.68E2,3E0,1E0,4.18E2,4.246E3,5.8E1,4.02E2,2.103E3,2.9E1,6.23E2,3.4E1,5.25E2,1.49E2,2.59E3,2.71E2,2.095E3,4E1,2.5E1,2.67E2,2.122E3,3.2E1,4.9E1,2.1E1,5E0,2.57E2,4E0,5E0,2E0,2E0,1.894E3,9.6E2,2.372E3,4.97E2,1.693E3,3.1E1,7.87E2,3.61E2,1.47E2,3.15E2,6.13E2,8.25E2,5.8E1,1E1,1.26E2,3.2E1,5.49E2,8E0,3E1,3.38E2,1E1,4.08E2,3.71E3,5.36E2,2.3E1,3.5E1,3.49E2,5.3E1,2.087E3,1.6E1,2.5E1,4E0,5.4E1,5.69E2,2.4E1,1E1,6.4E1,4.61E2,7.6E1,7.3E1,4.5E1,2.545E3,6E0,2.65E2],"tree_param":{"num_deleted":"0","num_feature":"696","num_nodes":"121","size_leaf_vector":"1"}},{"base_weights":[1.3836315E-5,-1.9838635E-3,3.3949562E-3,-3.9418885E-3,1.9360056E-4,1.9187088E-3,5.927531E-3,-1.3087956E-2,-3.3192032E-3,-7.856307E-3,1.3751711E-3,4.648298E-3,-5.304466E-4,5.2721472E-3,1.8896136E-2,9.012965E-3,-1.656562E-2,-3.857631E-3,8.207267E-3,-8.428083E-3,4.7852393E-2,9.345749E-4,2.432759E-2,3.956904E-3,2.3653878E-2,-7.5137205E-2,-4.010296E-4,5.721962E-3,-1.19935805E-2,4.2782575E-2,9.9093355E-3,-2.4036137E-2,1.6277496E-2,-4.7379094E-3,-2.2711786E-2,-1.3895727E-2,-3.3020207E-3,-3.0882708E-3,2.211723E-2,-1.43334195E-2,-4.7140955E-3,2.723597E-2,2.0403758E-2,1.5947059E-3,-1.037212E-2,-1.6878453E-3,3.624622E-2,-9.347415E-4,5.9171924E-3,-1.1838598E-3,3.6963988E-2,4.0238947E-4,-2.721035E-2,5.0144117E-6,-2.0673448E-2,1.2792406E-3,6.746527E-3,-4.2398006E-2,-4.6347226E-3,4.7155954E-2,-4.1452367E-2,7.4129337E-3,2.6943982E-2,9.567788E-4,-1.0267865E-2,3.1600685E-3,1.5637072E-2,2.7169047E-2,-1.9061423E-3,-4.9696607E-3,-1.1507664E-2,-3.5881074E-3,-1.3164168E-2,-1.7853226E-3,-3.6450374E-4,6.175054E-3,-2.7898883E-3,1.6615044E-2,5.3771385E-3,-3.0907383E-3,-8.251777E-3,-1.720771E-3,6.665887E-3,9.416053E-3,-2.5090994E-3,1.046211E-3,-8.3498086E-4,3.0749524E-3,-4.6240725E-3,2.4742736E-3,-9.673169E-3,2.1678478E-2,7.66075E-3,-1.0734849E-3,4.2632897E-3,4.0525044E-3,1.313332E-3,-5.555834E-3,8.336313E-3,3.0923303E-2,9.118078E-3,-2.8244036E-4,3.545173E-3,5.1782527E-3,-1.0096999E-2,-1.8143192E-3,1.945628E-3,1.5676006E-3,3.5825267E-3,-2.3636332E-2,-3.6235077E-3,-3.4655866E-4,-1.6143892E-2,1.7897591E-2,8.900493E-3,-3.3053132E-3,-1.5348253E-2,-6.1356933E-3,3.771444E-3],"categories":[],"categories_nodes":[],"categories_segments":[],"categories_sizes":[],"default_left":[0,0,0,0,0,0,0,0,0,0,0,0,0,0,0,0,0,0,0,0,0,0,0,0,0,0,0,0,0,0,0,0,0,0,0,0,0,0,0,0,0,0,0,0,0,0,0,0,0,0,0,0,0,0,0,0,0,0,0,0,0,0,0,0,0,0,0,0,0,0,0,0,0,0,0,0,0,0,0,0,0,0,0,0,0,0,0,0,0,0,0,0,0,0,0,0,0,0,0,0,0,0,0,0,0,0,0,0,0,0,0,0,0,0,0,0,0,0,0],"id":12,"left_children":[1,3,5,7,9,11,13,15,17,19,21,23,25,27,29,31,33,35,37,39,41,43,45,47,49,51,53,55,57,59,61,63,65,67,69,71,73,75,77,79,81,-1,83,85,87,89,91,93,95,97,99,-1,-1,101,103,105,107,109,111,113,115,117,-1,-1,-1,-1,-1,-1,-1,-1,-1,-1,-1,-1,-1,-1,-1,-1,-1,-1,-1,-1,-1,-1,-1,-1,-1,-1,-1,-1,-1,-1,-1,-1,-1,-1,-1,-1,-1,-1,-1,-1,-1,-1,-1,-1,-1,-1,-1,-1,-1,-1,-1,-1,-1,-1,-1,-1,-1],"loss_changes":[1.893208E-1,7.511988E-2,3.8908564E-2,5.2790195E-2,7.936552E-2,4.3977637E-2,3.2478616E-2,4.557333E-2,5.3944692E-2,3.442222E-2,7.35576E-2,4.0786013E-2,3.345473E-2,2.841591E-2,3.907399E-2,1.9838233E-2,3.7039563E-2,4.6245426E-2,6.103106E-2,2.3136854E-2,1.1110943E-2,5.330878E-2,4.2540558E-2,2.8801411E-2,3.60784E-2,7.2635077E-3,2.8505767E-2,1.6186863E-2,2.061149E-2,2.037429E-2,2.6262986E-2,4.270591E-3,1.3246087E-2,2.7678953E-2,3.167799E-2,2.4718978E-2,4.348073E-2,3.1803705E-2,2.32803E-2,2.1380536E-2,1.804367E-2,0E0,2.790149E-3,5.5915598E-2,4.112006E-2,1.3623776E-2,3.4414172E-2,3.4483787E-2,2.4995588E-2,2.0101937E-2,2.7709E-2,0E0,0E0,3.7978623E-2,3.4071546E-2,2.5520466E-2,2.2784978E-2,1.8908218E-2,1.2942731E-2,8.724853E-3,3.2274704E-4,1.9231342E-2,0E0,0E0,0E0,0E0,0E0,0E0,0E0,0E0,0E0,0E0,0E0,0E0,0E0,0E0,0E0,0E0,0E0,0E0,0E0,0E0,0E0,0E0,0E0,0E0,0E0,0E0,0E0,0E0,0E0,0E0,0E0,0E0,0E0,0E0,0E0,0E0,0E0,0E0,0E0,0E0,0E0,0E0,0E0,0E0,0E0,0E0,0E0,0E0,0E0,0E0,0E0,0E0,0E0,0E0,0E0,0E0,0E0],"parents":[2147483647,0,0,1,1,2,2,3,3,4,4,5,5,6,6,7,7,8,8,9,9,10,10,11,11,12,12,13,13,14,14,15,15,16,16,17,17,18,18,19,19,20,20,21,21,22,22,23,23,24,24,25,25,26,26,27,27,28,28,29,29,30,30,31,31,32,32,33,33,34,34,35,35,36,36,37,37,38,38,39,39,40,40,42,42,43,43,44,44,45,45,46,46,47,47,48,48,49,49,50,50,53,53,54,54,55,55,56,56,57,57,58,58,59,59,60,60,61,61],"right_children":[2,4,6,8,10,12,14,16,18,20,22,24,26,28,30,32,34,36,38,40,42,44,46,48,50,52,54,56,58,60,62,64,66,68,70,72,74,76,78,80,82,-1,84,86,88,90,92,94,96,98,100,-1,-1,102,104,106,108,110,112,114,116,118,-1,-1,-1,-1,-1,-1,-1,-1,-1,-1,-1,-1,-1,-1,-1,-1,-1,-1,-1,-1,-1,-1,-1,-1,-1,-1,-1,-1,-1,-1,-1,-1,-1,-1,-1,-1,-1,-1,-1,-1,-1,-1,-1,-1,-1,-1,-1,-1,-1,-1,-1,-1,-1,-1,-1,-1,-1],"split_conditions":[3.9243782E-1,4.8666593E-1,5.216088E-1,3.762564E-2,9.676062E-2,4.1719544E-1,5.424228E-1,7.612008E-2,4.8802653E-1,6.579768E-1,7.647039E-1,7.6384306E-1,1.1343284E-2,4.5962122E-1,3.6128148E-1,2.320819E-1,3.86335E-1,4.670788E-2,1.8256773E-1,6.036539E-1,2.0006223E-1,3.6653978E-1,2.4923077E-1,1.943463E-1,1.04333386E-1,3.2923076E-1,6.498176E-1,4.5137867E-2,1.8771331E-1,7.1623063E-1,5.338073E-1,2.8441194E-1,7.3649174E-1,4.6898838E-2,5.2797645E-1,6.719864E-1,2.4821202E-1,2.55985E-1,1.4303744E-1,3.1409502E-1,8.118333E-1,2.723597E-2,4.8888826E-1,4.392274E-1,1.2263155E-1,2.3384616E-1,2.519394E-1,5.495393E-1,2.4821202E-1,3.0144244E-1,1.1960133E-1,4.0238947E-4,-2.721035E-2,6.4364845E-1,1.3306452E-1,5.347797E-1,4.6274345E-3,2.757475E-1,5.604839E-1,2.3949745E-1,1.7230769E-1,8.8709675E-2,2.6943982E-2,9.567788E-4,-1.0267865E-2,3.1600685E-3,1.5637072E-2,2.7169047E-2,-1.9061423E-3,-4.9696607E-3,-1.1507664E-2,-3.5881074E-3,-1.3164168E-2,-1.7853226E-3,-3.6450374E-4,6.175054E-3,-2.7898883E-3,1.6615044E-2,5.3771385E-3,-3.0907383E-3,-8.251777E-3,-1.720771E-3,6.665887E-3,9.416053E-3,-2.5090994E-3,1.046211E-3,-8.3498086E-4,3.0749524E-3,-4.6240725E-3,2.4742736E-3,-9.673169E-3,2.1678478E-2,7.66075E-3,-1.0734849E-3,4.2632897E-3,4.0525044E-3,1.313332E-3,-5.555834E-3,8.336313E-3,3.0923303E-2,9.118078E-3,-2.8244036E-4,3.545173E-3,5.1782527E-3,-1.0096999E-2,-1.8143192E-3,1.945628E-3,1.5676006E-3,3.5825267E-3,-2.3636332E-2,-3.6235077E-3,-3.4655866E-4,-1.6143892E-2,1.7897591E-2,8.900493E-3,-3.3053132E-3,-1.5348253E-2,-6.1356933E-3,3.771444E-3],"split_indices":[672,657,678,560,688,649,677,328,556,92,366,457,324,32,342,407,179,322,687,624,171,649,551,484,450,0,643,670,59,416,37,26,564,498,224,437,688,509,659,484,54,0,19,500,509,58,372,587,659,235,550,0,0,585,665,541,221,115,259,310,0,346,0,0,0,0,0,0,0,0,0,0,0,0,0,0,0,0,0,0,0,0,0,0,0,0,0,0,0,0,0,0,0,0,0,0,0,0,0,0,0,0,0,0,0,0,0,0,0,0,0,0,0,0,0,0,0,0,0],"split_type":[0,0,0,0,0,0,0,0,0,0,0,0,0,0,0,0,0,0,0,0,0,0,0,0,0,0,0,0,0,0,0,0,0,0,0,0,0,0,0,0,0,0,0,0,0,0,0,0,0,0,0,0,0,0,0,0,0,0,0,0,0,0,0,0,0,0,0,0,0,0,0,0,0,0,0,0,0,0,0,0,0,0,0,0,0,0,0,0,0,0,0,0,0,0,0,0,0,0,0,0,0,0,0,0,0,0,0,0,0,0,0,0,0,0,0,0,0,0,0],"sum_hessian":[2.8027E4,1.7618E4,1.0409E4,9.276E3,8.342E3,6.577E3,3.832E3,5.9E2,8.686E3,1.067E3,7.275E3,3.11E3,3.467E3,3.649E3,1.83E2,8E1,5.1E2,8.299E3,3.87E2,1.057E3,1E1,7.139E3,1.36E2,3.002E3,1.08E2,5E0,3.462E3,3.557E3,9.2E1,4.9E1,1.34E2,1.4E1,6.6E1,1.75E2,3.35E2,4.34E2,7.865E3,2.14E2,1.73E2,4.07E2,6.5E2,3E0,7E0,6.746E3,3.93E2,4.3E1,9.3E1,8.59E2,2.143E3,3.8E1,7E1,1E0,4E0,3.395E3,6.7E1,6.67E2,2.89E3,1.7E1,7.5E1,4.7E1,2E0,1.31E2,3E0,4E0,1E1,5.8E1,8E0,2E0,1.73E2,2.42E2,9.3E1,4.09E2,2.5E1,3.465E3,4.4E3,4.4E1,1.7E2,1.8E1,1.55E2,3.13E2,9.4E1,6.27E2,2.3E1,5E0,2E0,4.71E3,2.036E3,7.7E1,3.16E2,3.3E1,1E1,2E1,7.3E1,7.32E2,1.27E2,3.6E2,1.783E3,2.4E1,1.4E1,5E0,6.5E1,3.144E3,2.51E2,1.7E1,5E1,2.77E2,3.9E2,2.237E3,6.53E2,7E0,1E1,7.1E1,4E0,2.6E1,2.1E1,1E0,1E0,2E1,1.11E2],"tree_param":{"num_deleted":"0","num_feature":"696","num_nodes":"119","size_leaf_vector":"1"}},{"base_weights":[1.2913257E-5,-1.2113703E-3,3.1367585E-3,-3.1759008E-3,1.7518556E-4,1.0598889E-2,2.7379878E-3,3.4838768E-3,-3.7426827E-3,-3.9263684E-3,1.5729357E-3,7.0225643E-3,2.7653102E-2,2.1005496E-3,7.784148E-3,-2.3876032E-2,5.7882997E-3,-4.4799605E-3,1.9079035E-3,-6.5528653E-3,1.5797837E-3,9.491127E-3,3.8944554E-4,1.0037697E-2,-1.0596215E-2,1.763942E-2,5.724557E-2,3.5965804E-3,-6.828283E-4,2.0348312E-2,5.9811296E-3,-1.2781445E-2,-4.73466E-2,1.2370795E-2,-2.9684275E-3,-3.797578E-3,-1.185258E-2,5.0752517E-3,-8.65408E-3,-1.0686278E-2,-2.2001204E-3,-1.0779646E-2,5.8400584E-3,7.7662007E-3,4.4884592E-2,2.3392234E-3,-3.6928868E-3,8.737731E-3,4.878802E-2,-3.0633546E-2,2.0265444E-3,2.3598827E-2,-9.892722E-3,5.9353113E-3,6.369125E-2,2.621807E-3,1.2981013E-2,-8.503623E-3,2.212971E-3,5.6291565E-2,1.5543341E-2,-9.54628E-4,8.8639725E-3,-1.0965012E-2,-1.0514626E-3,-4.7157155E-3,-1.697376E-2,1.8342064E-3,7.599759E-3,-2.5844388E-3,5.7740733E-3,-9.0169837E-4,-2.747421E-3,-8.010157E-3,-1.6347717E-3,2.0260666E-3,-3.937906E-3,-6.9980384E-3,-8.53647E-4,-7.565918E-3,-2.2743812E-3,3.4160465E-3,-1.1885251E-3,-5.9435903E-3,-3.6442658E-4,6.5694014E-3,1.0380989E-3,3.7342978E-3,1.7427019E-5,3.5921656E-2,9.83433E-3,9.287935E-5,2.2394455E-3,4.1169953E-2,-1.1586642E-3,-2.714561E-4,3.9321096E-3,4.3247044E-3,1.6964791E-2,3.260738E-3,-1.0846673E-2,5.117029E-3,-2.9328635E-3,1.3879052E-2,5.1546823E-3,3.950608E-3,-1.2797178E-3,9.510528E-3,2.0714045E-2,1.4568539E-3,-1.0330004E-4,7.906782E-3,2.40012E-3,-5.721532E-3,1.6061895E-4,9.550908E-4,-4.55272E-3,6.5771523E-3,2.6101597E-2,3.0829913E-3,1.1638171E-2,1.3953263E-3,-5.146235E-3,1.5138306E-3,5.029062E-3],"categories":[],"categories_nodes":[],"categories_segments":[],"categories_sizes":[],"default_left":[0,0,0,0,0,0,0,0,0,0,0,0,0,0,0,0,0,0,0,0,0,0,0,0,0,0,0,0,0,0,0,0,0,0,0,0,0,0,0,0,0,0,0,0,0,0,0,0,0,0,0,0,0,0,0,0,0,0,0,0,0,0,0,0,0,0,0,0,0,0,0,0,0,0,0,0,0,0,0,0,0,0,0,0,0,0,0,0,0,0,0,0,0,0,0,0,0,0,0,0,0,0,0,0,0,0,0,0,0,0,0,0,0,0,0,0,0,0,0,0,0,0,0,0,0],"id":13,"left_children":[1,3,5,7,9,11,13,15,17,19,21,23,25,27,29,31,33,35,37,39,41,43,45,47,49,51,53,55,57,59,61,63,65,67,69,71,73,75,77,79,81,83,85,87,89,91,93,95,97,99,101,103,-1,105,107,109,111,113,115,117,119,121,123,-1,-1,-1,-1,-1,-1,-1,-1,-1,-1,-1,-1,-1,-1,-1,-1,-1,-1,-1,-1,-1,-1,-1,-1,-1,-1,-1,-1,-1,-1,-1,-1,-1,-1,-1,-1,-1,-1,-1,-1,-1,-1,-1,-1,-1,-1,-1,-1,-1,-1,-1,-1,-1,-1,-1,-1,-1,-1,-1,-1,-1,-1],"loss_changes":[1.07196115E-1,5.4852366E-2,2.3455039E-2,3.1463347E-2,6.768935E-2,2.4202358E-2,2.4085741E-2,4.137212E-2,3.1999663E-2,4.3410487E-2,8.2518235E-2,1.7743183E-2,1.9436955E-2,2.7709836E-2,1.890716E-2,1.2675051E-2,